GenomeStart 4
Neuron 1 1 0.00000000 1 0.00000000 0.00000000 0.00000000 0.00000000
Neuron 2 1 0.00000000 1 0.00000000 0.00000000 0.00000000 0.00000000
Neuron 3 1 0.00000000 1 0.00000000 0.00000000 0.00000000 0.00000000
Neuron 4 1 0.00000000 1 0.00000000 0.00000000 0.00000000 0.00000000
Neuron 5 2 0.00000000 1 0.00000000 0.00000000 0.00000000 0.00000000
Neuron 6 4 1.00000000 0 3.03548727 0.00000000 0.00000000 0.16393294
Neuron 7 4 1.00000000 11 3.00260096 0.00000000 0.00000000 0.33278202
Neuron 8 4 1.00000000 0 2.99552385 0.00000000 0.00000000 0.30860165
Neuron 9 4 1.00000000 0 2.91943237 0.00000000 0.00000000 0.23139981
Neuron 10 4 1.00000000 0 2.94585250 0.00000000 0.00000000 0.18706088
Neuron 11 4 1.00000000 0 2.94561916 0.00000000 0.00000000 0.97046867
Link 1 6 1 0 -0.23229455
Link 2 6 2 0 -0.34501654
Link 3 6 3 0 0.11539465
Link 4 6 4 0 -0.57417187
Link 5 6 5 0 0.26316862
Link 1 7 6 0 -0.36628996
Link 2 7 7 0 -0.31077007
Link 3 7 8 0 -0.45658246
Link 4 7 9 0 -0.17906723
Link 5 7 10 0 -0.69015692
Link 1 8 11 0 -0.12368735
Link 2 8 12 0 -0.17883385
Link 3 8 13 0 -0.05101084
Link 4 8 14 0 -0.33451386
Link 5 8 15 0 -0.15895036
Link 1 9 16 0 0.95519149
Link 2 9 17 0 0.10936316
Link 3 9 18 0 -0.27896871
Link 4 9 19 0 0.14636045
Link 5 9 20 0 -0.07403591
Link 1 10 21 0 -0.25459655
Link 2 10 22 0 -0.62263007
Link 3 10 23 0 -0.13008411
Link 4 10 24 0 0.52121993
Link 5 10 25 0 0.30291828
Link 1 11 26 0 -0.75531523
Link 2 11 27 0 -0.92555490
Link 3 11 28 0 -0.01755417
Link 4 11 29 0 -0.37526189
Link 5 11 30 0 -0.34302490
GenomeEnd

