GenomeStart 13
Neuron 1 1 0.00000000 1 0.00000000 0.00000000 0.00000000 0.00000000
Neuron 2 1 0.00000000 1 0.00000000 0.00000000 0.00000000 0.00000000
Neuron 3 1 0.00000000 1 0.00000000 0.00000000 0.00000000 0.00000000
Neuron 4 1 0.00000000 1 0.00000000 0.00000000 0.00000000 0.00000000
Neuron 5 2 0.00000000 1 0.00000000 0.00000000 0.00000000 0.00000000
Neuron 6 4 1.00000000 0 2.73522040 0.00000000 0.00000000 -0.18857918
Neuron 7 4 1.00000000 0 3.03412773 0.00000000 0.00000000 0.68929646
Neuron 8 4 1.00000000 0 2.75528875 0.00000000 0.00000000 0.20066233
Neuron 9 4 1.00000000 0 3.33245155 0.00000000 0.00000000 -0.09608273
Neuron 10 4 1.00000000 11 2.83833645 0.00000000 0.00000000 0.06725844
Neuron 11 4 1.00000000 0 3.03873508 0.00000000 0.00000000 0.37651473
Link 1 6 1 0 0.08734094
Link 2 6 2 0 0.54134241
Link 3 6 3 0 -0.83311207
Link 4 6 4 0 0.70212641
Link 5 6 5 0 -0.42186121
Link 1 7 6 0 0.04096923
Link 2 7 7 0 0.39193670
Link 3 7 8 0 0.10921636
Link 4 7 9 0 0.48965219
Link 5 7 10 0 0.56605263
Link 1 8 11 0 -0.33972199
Link 2 8 12 0 -0.19621228
Link 3 8 13 0 -0.75339999
Link 4 8 14 0 -0.21055356
Link 5 8 15 0 -0.16962712
Link 1 9 16 0 -0.14748629
Link 2 9 17 0 -0.01667695
Link 3 9 18 0 0.09958823
Link 4 9 19 0 0.18819505
Link 5 9 20 0 -0.32230376
Link 1 10 21 0 0.47620296
Link 2 10 22 0 0.05014408
Link 3 10 23 0 -0.18785418
Link 4 10 24 0 -0.18261545
Link 5 10 25 0 0.20680349
Link 1 11 26 0 0.04542029
Link 2 11 27 0 0.01308498
Link 3 11 28 0 0.03688938
Link 4 11 29 0 0.11707851
Link 5 11 30 0 -0.11250377
GenomeEnd

