GenomeStart 8
Neuron 1 1 0.00000000 1 0.00000000 0.00000000 0.00000000 0.00000000
Neuron 2 1 0.00000000 1 0.00000000 0.00000000 0.00000000 0.00000000
Neuron 3 1 0.00000000 1 0.00000000 0.00000000 0.00000000 0.00000000
Neuron 4 1 0.00000000 1 0.00000000 0.00000000 0.00000000 0.00000000
Neuron 5 2 0.00000000 1 0.00000000 0.00000000 0.00000000 0.00000000
Neuron 6 4 1.00000000 0 2.79782561 0.00000000 0.00000000 -0.61506759
Neuron 7 4 1.00000000 0 2.95422164 0.00000000 0.00000000 -0.43704620
Neuron 8 4 1.00000000 6 2.70185960 0.00000000 0.00000000 -0.32337150
Neuron 9 4 1.00000000 0 3.35186892 0.00000000 0.00000000 0.34724441
Neuron 10 4 1.00000000 0 2.93461602 0.00000000 0.00000000 0.49232687
Neuron 11 4 1.00000000 0 2.99487436 0.00000000 0.00000000 0.01544592
Link 1 6 1 0 0.71459727
Link 2 6 2 0 0.26586836
Link 3 6 3 0 0.15205325
Link 4 6 4 0 0.53405987
Link 5 6 5 0 0.30671295
Link 1 7 6 0 -0.48364654
Link 2 7 7 0 0.29922867
Link 3 7 8 0 -0.20077831
Link 4 7 9 0 0.68454205
Link 5 7 10 0 0.51405564
Link 1 8 11 0 0.38117977
Link 2 8 12 0 -0.06323836
Link 3 8 13 0 -0.14449061
Link 4 8 14 0 -0.33223376
Link 5 8 15 0 -0.33610164
Link 1 9 16 0 0.80039358
Link 2 9 17 0 0.15889237
Link 3 9 18 0 -0.08008638
Link 4 9 19 0 0.12618825
Link 5 9 20 0 0.35920286
Link 1 10 21 0 -0.55405096
Link 2 10 22 0 -0.13173713
Link 3 10 23 0 0.37166914
Link 4 10 24 0 0.22027342
Link 5 10 25 0 -0.81389990
Link 1 11 26 0 -0.33816632
Link 2 11 27 0 -0.11982987
Link 3 11 28 0 0.09284814
Link 4 11 29 0 0.49259787
Link 5 11 30 0 -0.81972528
GenomeEnd

