GenomeStart 0
Neuron 1 1 0.00000000 1 0.00000000 0.00000000 0.00000000 0.00000000
Neuron 2 1 0.00000000 1 0.00000000 0.00000000 0.00000000 0.00000000
Neuron 3 1 0.00000000 1 0.00000000 0.00000000 0.00000000 0.00000000
Neuron 4 1 0.00000000 1 0.00000000 0.00000000 0.00000000 0.00000000
Neuron 5 2 0.00000000 1 0.00000000 0.00000000 0.00000000 0.00000000
Neuron 6 4 1.00000000 0 3.04274727 0.00000000 0.00000000 0.75782241
Neuron 7 4 1.00000000 0 3.04025336 0.00000000 0.00000000 -0.04268641
Neuron 8 4 1.00000000 0 3.11973122 0.00000000 0.00000000 0.10296417
Neuron 9 4 1.00000000 0 3.31218201 0.00000000 0.00000000 0.57012075
Neuron 10 4 1.00000000 6 2.93385174 0.00000000 0.00000000 0.80687485
Neuron 11 4 1.00000000 0 2.76459652 0.00000000 0.00000000 0.26951697
Link 1 6 1 0 -0.69831165
Link 2 6 2 0 0.72770293
Link 3 6 3 0 0.19017864
Link 4 6 4 0 -0.05889631
Link 5 6 5 0 -0.78897161
Link 1 7 6 0 -0.08609521
Link 2 7 7 0 -0.64039697
Link 3 7 8 0 -0.09934016
Link 4 7 9 0 -0.16902575
Link 5 7 10 0 -0.52815159
Link 1 8 11 0 -0.05286654
Link 2 8 12 0 0.45507846
Link 3 8 13 0 0.13505891
Link 4 8 14 0 0.77015384
Link 5 8 15 0 -0.46524015
Link 1 9 16 0 -0.98288134
Link 2 9 17 0 -0.50616193
Link 3 9 18 0 0.47269188
Link 4 9 19 0 -0.78719407
Link 5 9 20 0 0.00064632
Link 1 10 21 0 0.13145119
Link 2 10 22 0 0.00220235
Link 3 10 23 0 -0.42885027
Link 4 10 24 0 -0.72382846
Link 5 10 25 0 0.14126321
Link 1 11 26 0 -0.05421439
Link 2 11 27 0 -0.47407251
Link 3 11 28 0 -0.00245940
Link 4 11 29 0 0.59228752
Link 5 11 30 0 -0.43880217
GenomeEnd

