GenomeStart 4
Neuron 1 1 0.00000000 1 0.00000000 0.00000000 0.00000000 0.00000000
Neuron 2 1 0.00000000 1 0.00000000 0.00000000 0.00000000 0.00000000
Neuron 3 1 0.00000000 1 0.00000000 0.00000000 0.00000000 0.00000000
Neuron 4 1 0.00000000 1 0.00000000 0.00000000 0.00000000 0.00000000
Neuron 5 2 0.00000000 1 0.00000000 0.00000000 0.00000000 0.00000000
Neuron 6 4 1.00000000 0 3.19370985 0.00000000 0.00000000 -0.06955819
Neuron 7 4 1.00000000 0 2.85715314 0.00000000 0.00000000 0.41037550
Neuron 8 4 1.00000000 4 2.84934185 0.00000000 0.00000000 0.32524994
Neuron 9 4 1.00000000 0 2.78040236 0.00000000 0.00000000 0.37738424
Neuron 10 4 1.00000000 0 2.85072359 0.00000000 0.00000000 0.09838995
Neuron 11 4 1.00000000 0 3.30120345 0.00000000 0.00000000 -0.22258925
Link 1 6 1 0 0.06780271
Link 2 6 2 0 0.00391334
Link 3 6 3 0 -0.55494463
Link 4 6 4 0 0.46474052
Link 5 6 5 0 -0.03913434
Link 1 7 6 0 -0.12741640
Link 2 7 7 0 -0.24438305
Link 3 7 8 0 -0.18250356
Link 4 7 9 0 -0.74877956
Link 5 7 10 0 -0.07420234
Link 1 8 11 0 0.02268810
Link 2 8 12 0 -0.09262235
Link 3 8 13 0 0.54581059
Link 4 8 14 0 0.43701028
Link 5 8 15 0 -0.45209970
Link 1 9 16 0 0.31394778
Link 2 9 17 0 0.72409984
Link 3 9 18 0 0.16865817
Link 4 9 19 0 -0.46717073
Link 5 9 20 0 0.02989091
Link 1 10 21 0 -0.40705535
Link 2 10 22 0 -0.43165043
Link 3 10 23 0 -0.84622361
Link 4 10 24 0 0.79685781
Link 5 10 25 0 -0.27463083
Link 1 11 26 0 -0.27632978
Link 2 11 27 0 -0.05219108
Link 3 11 28 0 0.23058996
Link 4 11 29 0 -0.08024911
Link 5 11 30 0 -0.35174820
GenomeEnd

