GenomeStart 2
Neuron 1 1 0.00000000 1 0.00000000 0.00000000 0.00000000 0.00000000
Neuron 2 1 0.00000000 1 0.00000000 0.00000000 0.00000000 0.00000000
Neuron 3 1 0.00000000 1 0.00000000 0.00000000 0.00000000 0.00000000
Neuron 4 1 0.00000000 1 0.00000000 0.00000000 0.00000000 0.00000000
Neuron 5 2 0.00000000 1 0.00000000 0.00000000 0.00000000 0.00000000
Neuron 6 4 1.00000000 0 3.36303925 0.00000000 0.00000000 0.06424715
Neuron 7 4 1.00000000 0 2.72867736 0.00000000 0.00000000 -0.43083947
Neuron 8 4 1.00000000 0 3.08068997 0.00000000 0.00000000 0.17232195
Neuron 9 4 1.00000000 9 3.35168856 0.00000000 0.00000000 -0.14374397
Neuron 10 4 1.00000000 0 3.27662118 0.00000000 0.00000000 -0.19705832
Neuron 11 4 1.00000000 0 2.92248550 0.00000000 0.00000000 0.33114165
Link 1 6 1 0 0.57577672
Link 2 6 2 0 0.31022015
Link 3 6 3 0 0.61322687
Link 4 6 4 0 0.04293041
Link 5 6 5 0 -0.22253571
Link 1 7 6 0 -0.31981103
Link 2 7 7 0 0.52342779
Link 3 7 8 0 -0.25283467
Link 4 7 9 0 -0.53658293
Link 5 7 10 0 0.02296218
Link 1 8 11 0 -0.66471620
Link 2 8 12 0 -0.56013671
Link 3 8 13 0 -0.58375967
Link 4 8 14 0 0.00790359
Link 5 8 15 0 -0.06724351
Link 1 9 16 0 -0.66955005
Link 2 9 17 0 0.88047932
Link 3 9 18 0 -0.00500189
Link 4 9 19 0 0.72940110
Link 5 9 20 0 -0.56449894
Link 1 10 21 0 0.33762956
Link 2 10 22 0 0.03223597
Link 3 10 23 0 -0.53819915
Link 4 10 24 0 -0.46111240
Link 5 10 25 0 -0.41016210
Link 1 11 26 0 -0.39046622
Link 2 11 27 0 -0.34463264
Link 3 11 28 0 -0.06193689
Link 4 11 29 0 0.00254956
Link 5 11 30 0 -0.41282510
GenomeEnd

