GenomeStart 3
Neuron 1 1 0.00000000 1 0.00000000 0.00000000 0.00000000 0.00000000
Neuron 2 1 0.00000000 1 0.00000000 0.00000000 0.00000000 0.00000000
Neuron 3 1 0.00000000 1 0.00000000 0.00000000 0.00000000 0.00000000
Neuron 4 1 0.00000000 1 0.00000000 0.00000000 0.00000000 0.00000000
Neuron 5 2 0.00000000 1 0.00000000 0.00000000 0.00000000 0.00000000
Neuron 6 4 1.00000000 0 3.06967357 0.00000000 0.00000000 -0.51723992
Neuron 7 4 1.00000000 0 3.18787247 0.00000000 0.00000000 -0.46890530
Neuron 8 4 1.00000000 6 2.82327504 0.00000000 0.00000000 -0.43491593
Neuron 9 4 1.00000000 0 3.25574944 0.00000000 0.00000000 0.08645421
Neuron 10 4 1.00000000 0 3.05933895 0.00000000 0.00000000 -0.23768708
Neuron 11 4 1.00000000 0 2.95072501 0.00000000 0.00000000 -0.48106971
Link 1 6 1 0 0.80301734
Link 2 6 2 0 -0.45469462
Link 3 6 3 0 0.18932085
Link 4 6 4 0 0.05747502
Link 5 6 5 0 -0.50354898
Link 1 7 6 0 0.26458409
Link 2 7 7 0 -0.46135447
Link 3 7 8 0 -0.36622407
Link 4 7 9 0 -0.19675925
Link 5 7 10 0 0.11430863
Link 1 8 11 0 -0.76922284
Link 2 8 12 0 -0.06816711
Link 3 8 13 0 0.05509837
Link 4 8 14 0 -0.49326975
Link 5 8 15 0 0.64157843
Link 1 9 16 0 0.25299153
Link 2 9 17 0 0.50237369
Link 3 9 18 0 0.03211449
Link 4 9 19 0 0.61125277
Link 5 9 20 0 -0.06398672
Link 1 10 21 0 0.47508723
Link 2 10 22 0 -0.03743358
Link 3 10 23 0 -0.02425094
Link 4 10 24 0 0.16008068
Link 5 10 25 0 0.18972012
Link 1 11 26 0 -0.90214898
Link 2 11 27 0 -0.40425122
Link 3 11 28 0 -0.11641439
Link 4 11 29 0 -0.03395573
Link 5 11 30 0 -0.53741498
GenomeEnd

