GenomeStart 7
Neuron 1 1 0.00000000 1 0.00000000 0.00000000 0.00000000 0.00000000
Neuron 2 1 0.00000000 1 0.00000000 0.00000000 0.00000000 0.00000000
Neuron 3 1 0.00000000 1 0.00000000 0.00000000 0.00000000 0.00000000
Neuron 4 1 0.00000000 1 0.00000000 0.00000000 0.00000000 0.00000000
Neuron 5 2 0.00000000 1 0.00000000 0.00000000 0.00000000 0.00000000
Neuron 6 4 1.00000000 0 2.85137071 0.00000000 0.00000000 0.37938920
Neuron 7 4 1.00000000 0 3.43441155 0.00000000 0.00000000 0.40128737
Neuron 8 4 1.00000000 0 2.65024470 0.00000000 0.00000000 0.25078299
Neuron 9 4 1.00000000 4 3.26442649 0.00000000 0.00000000 -0.69244915
Neuron 10 4 1.00000000 0 3.46798254 0.00000000 0.00000000 0.06730319
Neuron 11 4 1.00000000 0 2.79661558 0.00000000 0.00000000 -0.12390285
Link 1 6 1 0 -0.21898171
Link 2 6 2 0 0.00628120
Link 3 6 3 0 0.08234529
Link 4 6 4 0 -0.32031626
Link 5 6 5 0 0.16211321
Link 1 7 6 0 -0.04819191
Link 2 7 7 0 -0.18515815
Link 3 7 8 0 -0.17312591
Link 4 7 9 0 -0.08311560
Link 5 7 10 0 -0.53362630
Link 1 8 11 0 -0.16335481
Link 2 8 12 0 -0.77510202
Link 3 8 13 0 0.25259653
Link 4 8 14 0 -0.23114039
Link 5 8 15 0 -0.02057850
Link 1 9 16 0 0.73764263
Link 2 9 17 0 0.28367451
Link 3 9 18 0 0.34455968
Link 4 9 19 0 0.11327644
Link 5 9 20 0 0.32293224
Link 1 10 21 0 0.81592894
Link 2 10 22 0 0.05407755
Link 3 10 23 0 -0.14765783
Link 4 10 24 0 -0.33584926
Link 5 10 25 0 0.67547611
Link 1 11 26 0 0.46587049
Link 2 11 27 0 0.66181707
Link 3 11 28 0 0.28641132
Link 4 11 29 0 -0.26471208
Link 5 11 30 0 -0.02968887
GenomeEnd

