GenomeStart 1
Neuron 1 1 0.00000000 1 0.00000000 0.00000000 0.00000000 0.00000000
Neuron 2 1 0.00000000 1 0.00000000 0.00000000 0.00000000 0.00000000
Neuron 3 1 0.00000000 1 0.00000000 0.00000000 0.00000000 0.00000000
Neuron 4 1 0.00000000 1 0.00000000 0.00000000 0.00000000 0.00000000
Neuron 5 2 0.00000000 1 0.00000000 0.00000000 0.00000000 0.00000000
Neuron 6 4 1.00000000 0 2.75687796 0.00000000 0.00000000 -0.26906947
Neuron 7 4 1.00000000 0 3.16085410 0.00000000 0.00000000 -0.43704873
Neuron 8 4 1.00000000 0 3.09213267 0.00000000 0.00000000 -0.16601944
Neuron 9 4 1.00000000 0 3.10957590 0.00000000 0.00000000 -0.28488623
Neuron 10 4 1.00000000 0 2.97599405 0.00000000 0.00000000 -0.01194423
Neuron 11 4 1.00000000 4 2.59196576 0.00000000 0.00000000 -0.27772735
Link 1 6 1 0 0.00984654
Link 2 6 2 0 0.58209894
Link 3 6 3 0 -0.26029703
Link 4 6 4 0 0.98228040
Link 5 6 5 0 0.83199099
Link 1 7 6 0 -0.14851688
Link 2 7 7 0 -0.44897533
Link 3 7 8 0 0.76271860
Link 4 7 9 0 0.35048647
Link 5 7 10 0 -0.42995076
Link 1 8 11 0 0.04308634
Link 2 8 12 0 -0.57533367
Link 3 8 13 0 -0.29185740
Link 4 8 14 0 0.38567111
Link 5 8 15 0 -0.06824617
Link 1 9 16 0 -0.34663680
Link 2 9 17 0 0.31156873
Link 3 9 18 0 0.32388306
Link 4 9 19 0 -0.05402979
Link 5 9 20 0 0.50420690
Link 1 10 21 0 0.08295189
Link 2 10 22 0 -0.15654853
Link 3 10 23 0 0.24861221
Link 4 10 24 0 0.73081411
Link 5 10 25 0 -0.09672004
Link 1 11 26 0 0.26712600
Link 2 11 27 0 0.52520367
Link 3 11 28 0 -0.30743012
Link 4 11 29 0 -0.05428200
Link 5 11 30 0 0.48586289
GenomeEnd

