GenomeStart 4
Neuron 1 1 0.00000000 1 0.00000000 0.00000000 0.00000000 0.00000000
Neuron 2 1 0.00000000 1 0.00000000 0.00000000 0.00000000 0.00000000
Neuron 3 1 0.00000000 1 0.00000000 0.00000000 0.00000000 0.00000000
Neuron 4 1 0.00000000 1 0.00000000 0.00000000 0.00000000 0.00000000
Neuron 5 2 0.00000000 1 0.00000000 0.00000000 0.00000000 0.00000000
Neuron 6 4 1.00000000 4 2.80594445 0.00000000 0.00000000 0.58303194
Neuron 7 4 1.00000000 0 3.10011567 0.00000000 0.00000000 0.72997123
Neuron 8 4 1.00000000 0 2.97072463 0.00000000 0.00000000 -0.39211065
Neuron 9 4 1.00000000 0 3.06246738 0.00000000 0.00000000 0.37295307
Neuron 10 4 1.00000000 0 3.23829204 0.00000000 0.00000000 0.27215177
Neuron 11 4 1.00000000 0 2.89351811 0.00000000 0.00000000 -0.01877306
Link 1 6 1 0 0.24640770
Link 2 6 2 0 0.49369442
Link 3 6 3 0 0.09704017
Link 4 6 4 0 -0.13053522
Link 5 6 5 0 0.24628309
Link 1 7 6 0 0.33311291
Link 2 7 7 0 -0.18298935
Link 3 7 8 0 -0.19551569
Link 4 7 9 0 0.51474770
Link 5 7 10 0 -0.37569142
Link 1 8 11 0 -0.09476559
Link 2 8 12 0 0.61539954
Link 3 8 13 0 -0.18766208
Link 4 8 14 0 -0.59306602
Link 5 8 15 0 -0.36262427
Link 1 9 16 0 -0.19026728
Link 2 9 17 0 -0.18303482
Link 3 9 18 0 -0.29216533
Link 4 9 19 0 -0.01623222
Link 5 9 20 0 0.21476978
Link 1 10 21 0 0.42420405
Link 2 10 22 0 -0.61492385
Link 3 10 23 0 -0.58548176
Link 4 10 24 0 0.70634001
Link 5 10 25 0 -0.67555324
Link 1 11 26 0 -0.04688954
Link 2 11 27 0 -0.37329163
Link 3 11 28 0 0.46844710
Link 4 11 29 0 0.45624072
Link 5 11 30 0 -0.00423205
GenomeEnd

