GenomeStart 0
Neuron 1 1 0.00000000 1 0.00000000 0.00000000 0.00000000 0.00000000
Neuron 2 1 0.00000000 1 0.00000000 0.00000000 0.00000000 0.00000000
Neuron 3 1 0.00000000 1 0.00000000 0.00000000 0.00000000 0.00000000
Neuron 4 1 0.00000000 1 0.00000000 0.00000000 0.00000000 0.00000000
Neuron 5 2 0.00000000 1 0.00000000 0.00000000 0.00000000 0.00000000
Neuron 6 4 1.00000000 0 3.07267310 0.00000000 0.00000000 0.34329670
Neuron 7 4 1.00000000 0 2.67122073 0.00000000 0.00000000 -0.38918147
Neuron 8 4 1.00000000 0 2.88252038 0.00000000 0.00000000 -0.71040250
Neuron 9 4 1.00000000 0 3.16113569 0.00000000 0.00000000 0.77944229
Neuron 10 4 1.00000000 0 3.02074069 0.00000000 0.00000000 -0.66551542
Neuron 11 4 1.00000000 4 2.86737590 0.00000000 0.00000000 0.14641898
Link 1 6 1 0 0.36391210
Link 2 6 2 0 -0.32292062
Link 3 6 3 0 -0.62107531
Link 4 6 4 0 -0.42380452
Link 5 6 5 0 0.46619169
Link 1 7 6 0 -0.18775519
Link 2 7 7 0 0.12123453
Link 3 7 8 0 -0.00979301
Link 4 7 9 0 0.15945130
Link 5 7 10 0 -0.28621293
Link 1 8 11 0 -0.12013631
Link 2 8 12 0 -0.36092413
Link 3 8 13 0 0.62629366
Link 4 8 14 0 0.68555072
Link 5 8 15 0 0.24939936
Link 1 9 16 0 -0.00922263
Link 2 9 17 0 0.32851559
Link 3 9 18 0 -0.34857867
Link 4 9 19 0 -0.16269866
Link 5 9 20 0 -0.27598578
Link 1 10 21 0 0.47532655
Link 2 10 22 0 -0.02211486
Link 3 10 23 0 0.39510848
Link 4 10 24 0 0.20484036
Link 5 10 25 0 -0.10508851
Link 1 11 26 0 0.13483660
Link 2 11 27 0 0.35732937
Link 3 11 28 0 -0.06079258
Link 4 11 29 0 0.30694221
Link 5 11 30 0 0.20841248
GenomeEnd

