GenomeStart 4
Neuron 1 1 0.00000000 1 0.00000000 0.00000000 0.00000000 0.00000000
Neuron 2 1 0.00000000 1 0.00000000 0.00000000 0.00000000 0.00000000
Neuron 3 1 0.00000000 1 0.00000000 0.00000000 0.00000000 0.00000000
Neuron 4 1 0.00000000 1 0.00000000 0.00000000 0.00000000 0.00000000
Neuron 5 2 0.00000000 1 0.00000000 0.00000000 0.00000000 0.00000000
Neuron 6 4 1.00000000 0 2.90429585 0.00000000 0.00000000 0.03357866
Neuron 7 4 1.00000000 0 3.30222949 0.00000000 0.00000000 0.09769437
Neuron 8 4 1.00000000 6 2.94940948 0.00000000 0.00000000 0.28896989
Neuron 9 4 1.00000000 0 3.09577028 0.00000000 0.00000000 0.74776156
Neuron 10 4 1.00000000 0 2.99425155 0.00000000 0.00000000 0.15196077
Neuron 11 4 1.00000000 0 3.17681033 0.00000000 0.00000000 -0.64416118
Link 1 6 1 0 0.40573682
Link 2 6 2 0 -0.47841933
Link 3 6 3 0 0.20779996
Link 4 6 4 0 -0.48251189
Link 5 6 5 0 0.46222554
Link 1 7 6 0 0.25618306
Link 2 7 7 0 0.81494121
Link 3 7 8 0 -0.20123272
Link 4 7 9 0 0.02288654
Link 5 7 10 0 0.02333159
Link 1 8 11 0 0.34635761
Link 2 8 12 0 0.54902893
Link 3 8 13 0 -0.27488290
Link 4 8 14 0 -0.46983591
Link 5 8 15 0 -0.44989561
Link 1 9 16 0 0.26839012
Link 2 9 17 0 0.08633588
Link 3 9 18 0 0.00286510
Link 4 9 19 0 0.56231914
Link 5 9 20 0 0.33925985
Link 1 10 21 0 -0.20313734
Link 2 10 22 0 0.39299074
Link 3 10 23 0 -0.00427816
Link 4 10 24 0 0.05793437
Link 5 10 25 0 -0.42446838
Link 1 11 26 0 0.16674481
Link 2 11 27 0 0.30692760
Link 3 11 28 0 0.56107562
Link 4 11 29 0 0.71623085
Link 5 11 30 0 -0.11966362
GenomeEnd

