GenomeStart 5
Neuron 1 1 0.00000000 1 0.00000000 0.00000000 0.00000000 0.00000000
Neuron 2 1 0.00000000 1 0.00000000 0.00000000 0.00000000 0.00000000
Neuron 3 1 0.00000000 1 0.00000000 0.00000000 0.00000000 0.00000000
Neuron 4 1 0.00000000 1 0.00000000 0.00000000 0.00000000 0.00000000
Neuron 5 2 0.00000000 1 0.00000000 0.00000000 0.00000000 0.00000000
Neuron 6 4 1.00000000 0 3.09715534 0.00000000 0.00000000 0.26062165
Neuron 7 4 1.00000000 0 2.90903694 0.00000000 0.00000000 -0.12151661
Neuron 8 4 1.00000000 11 3.07349965 0.00000000 0.00000000 0.41522099
Neuron 9 4 1.00000000 0 2.93782079 0.00000000 0.00000000 -0.27451788
Neuron 10 4 1.00000000 0 3.30116500 0.00000000 0.00000000 -0.41943738
Neuron 11 4 1.00000000 0 3.37521382 0.00000000 0.00000000 -0.49823214
Link 1 6 1 0 0.11760579
Link 2 6 2 0 -0.50249953
Link 3 6 3 0 -0.09617088
Link 4 6 4 0 0.56379981
Link 5 6 5 0 -0.15871004
Link 1 7 6 0 -0.43722282
Link 2 7 7 0 0.39863114
Link 3 7 8 0 -0.05000126
Link 4 7 9 0 0.28391140
Link 5 7 10 0 -0.35976588
Link 1 8 11 0 0.36698955
Link 2 8 12 0 -0.47541879
Link 3 8 13 0 0.57747806
Link 4 8 14 0 -0.32978390
Link 5 8 15 0 0.10486914
Link 1 9 16 0 0.26287260
Link 2 9 17 0 0.16793722
Link 3 9 18 0 -0.33292622
Link 4 9 19 0 -0.06926973
Link 5 9 20 0 -0.44853908
Link 1 10 21 0 0.21945592
Link 2 10 22 0 0.63462988
Link 3 10 23 0 0.08074659
Link 4 10 24 0 0.57718839
Link 5 10 25 0 0.57798505
Link 1 11 26 0 0.24039291
Link 2 11 27 0 0.22669369
Link 3 11 28 0 -0.40242282
Link 4 11 29 0 -0.44592406
Link 5 11 30 0 0.43028513
GenomeEnd

