GenomeStart 1
Neuron 1 1 0.00000000 1 0.00000000 0.00000000 0.00000000 0.00000000
Neuron 2 1 0.00000000 1 0.00000000 0.00000000 0.00000000 0.00000000
Neuron 3 1 0.00000000 1 0.00000000 0.00000000 0.00000000 0.00000000
Neuron 4 1 0.00000000 1 0.00000000 0.00000000 0.00000000 0.00000000
Neuron 5 2 0.00000000 1 0.00000000 0.00000000 0.00000000 0.00000000
Neuron 6 4 1.00000000 0 2.97140031 0.00000000 0.00000000 -0.15794881
Neuron 7 4 1.00000000 4 2.77015230 0.00000000 0.00000000 -0.41719566
Neuron 8 4 1.00000000 0 2.94817355 0.00000000 0.00000000 -0.47998198
Neuron 9 4 1.00000000 0 2.86554476 0.00000000 0.00000000 0.00354786
Neuron 10 4 1.00000000 0 3.21119772 0.00000000 0.00000000 -0.00084835
Neuron 11 4 1.00000000 0 2.92350172 0.00000000 0.00000000 -0.78894731
Link 1 6 1 0 -0.24657783
Link 2 6 2 0 0.13957645
Link 3 6 3 0 0.08144554
Link 4 6 4 0 -0.37132578
Link 5 6 5 0 0.03843847
Link 1 7 6 0 -0.21880121
Link 2 7 7 0 -0.14632439
Link 3 7 8 0 -0.32938815
Link 4 7 9 0 0.09093201
Link 5 7 10 0 -0.76879236
Link 1 8 11 0 0.37500474
Link 2 8 12 0 -0.13492771
Link 3 8 13 0 0.29385110
Link 4 8 14 0 0.73806723
Link 5 8 15 0 0.46463549
Link 1 9 16 0 -0.61951972
Link 2 9 17 0 -0.26457218
Link 3 9 18 0 0.38709238
Link 4 9 19 0 -0.53970105
Link 5 9 20 0 0.42625371
Link 1 10 21 0 0.55871258
Link 2 10 22 0 0.06933299
Link 3 10 23 0 -0.03698212
Link 4 10 24 0 -0.03742173
Link 5 10 25 0 -0.07784475
Link 1 11 26 0 0.07286285
Link 2 11 27 0 0.10386455
Link 3 11 28 0 -0.31491043
Link 4 11 29 0 -0.21333004
Link 5 11 30 0 0.11573643
GenomeEnd

