GenomeStart 14
Neuron 1 1 0.00000000 1 0.00000000 0.00000000 0.00000000 0.00000000
Neuron 2 1 0.00000000 1 0.00000000 0.00000000 0.00000000 0.00000000
Neuron 3 1 0.00000000 1 0.00000000 0.00000000 0.00000000 0.00000000
Neuron 4 1 0.00000000 1 0.00000000 0.00000000 0.00000000 0.00000000
Neuron 5 2 0.00000000 1 0.00000000 0.00000000 0.00000000 0.00000000
Neuron 6 4 1.00000000 0 3.30736780 0.00000000 0.00000000 -0.34517225
Neuron 7 4 1.00000000 0 3.27973508 0.00000000 0.00000000 -0.21737451
Neuron 8 4 1.00000000 0 2.70569542 0.00000000 0.00000000 0.13992140
Neuron 9 4 1.00000000 0 2.91921649 0.00000000 0.00000000 0.21167684
Neuron 10 4 1.00000000 2 3.11055633 0.00000000 0.00000000 0.19628624
Neuron 11 4 1.00000000 0 2.86437249 0.00000000 0.00000000 -0.23370826
Link 1 6 1 0 0.07520938
Link 2 6 2 0 0.52094580
Link 3 6 3 0 -0.66785283
Link 4 6 4 0 -0.15158730
Link 5 6 5 0 0.31628846
Link 1 7 6 0 0.42259890
Link 2 7 7 0 0.07548538
Link 3 7 8 0 0.24415380
Link 4 7 9 0 0.29992475
Link 5 7 10 0 0.62677196
Link 1 8 11 0 -0.13337285
Link 2 8 12 0 0.75919678
Link 3 8 13 0 0.62142479
Link 4 8 14 0 -0.05462942
Link 5 8 15 0 -0.13624335
Link 1 9 16 0 -0.24963401
Link 2 9 17 0 0.16519063
Link 3 9 18 0 -0.42678883
Link 4 9 19 0 0.30517905
Link 5 9 20 0 0.25136154
Link 1 10 21 0 -0.01372494
Link 2 10 22 0 0.06890834
Link 3 10 23 0 0.18000720
Link 4 10 24 0 -0.07564998
Link 5 10 25 0 -0.37238913
Link 1 11 26 0 0.36790027
Link 2 11 27 0 0.43282129
Link 3 11 28 0 -0.32759721
Link 4 11 29 0 -0.63208710
Link 5 11 30 0 -0.46112103
GenomeEnd

