GenomeStart 13
Neuron 1 1 0.00000000 1 0.00000000 0.00000000 0.00000000 0.00000000
Neuron 2 1 0.00000000 1 0.00000000 0.00000000 0.00000000 0.00000000
Neuron 3 1 0.00000000 1 0.00000000 0.00000000 0.00000000 0.00000000
Neuron 4 1 0.00000000 1 0.00000000 0.00000000 0.00000000 0.00000000
Neuron 5 2 0.00000000 1 0.00000000 0.00000000 0.00000000 0.00000000
Neuron 6 4 1.00000000 0 2.73563231 0.00000000 0.00000000 0.53208019
Neuron 7 4 1.00000000 0 3.06032023 0.00000000 0.00000000 -0.56087845
Neuron 8 4 1.00000000 4 2.81357654 0.00000000 0.00000000 0.12840117
Neuron 9 4 1.00000000 0 3.20690603 0.00000000 0.00000000 -0.43048600
Neuron 10 4 1.00000000 0 3.05762142 0.00000000 0.00000000 -0.50219506
Neuron 11 4 1.00000000 0 3.23478020 0.00000000 0.00000000 -0.07702534
Link 1 6 1 0 -0.10676883
Link 2 6 2 0 0.46644690
Link 3 6 3 0 0.72931153
Link 4 6 4 0 -0.13186729
Link 5 6 5 0 0.14953935
Link 1 7 6 0 0.67137277
Link 2 7 7 0 -0.36819279
Link 3 7 8 0 0.20334999
Link 4 7 9 0 0.18377338
Link 5 7 10 0 -0.43283836
Link 1 8 11 0 0.58073952
Link 2 8 12 0 0.68495440
Link 3 8 13 0 0.06799538
Link 4 8 14 0 -0.29036716
Link 5 8 15 0 -0.42310537
Link 1 9 16 0 0.95063194
Link 2 9 17 0 -0.45739478
Link 3 9 18 0 0.23000559
Link 4 9 19 0 -0.17569708
Link 5 9 20 0 0.48961399
Link 1 10 21 0 0.37293852
Link 2 10 22 0 -0.23099656
Link 3 10 23 0 0.22290600
Link 4 10 24 0 0.32059253
Link 5 10 25 0 -0.49691835
Link 1 11 26 0 0.65560619
Link 2 11 27 0 -0.74316523
Link 3 11 28 0 -0.70873922
Link 4 11 29 0 -0.22205833
Link 5 11 30 0 -0.16594809
GenomeEnd

