GenomeStart 10
Neuron 1 1 0.00000000 1 0.00000000 0.00000000 0.00000000 0.00000000
Neuron 2 1 0.00000000 1 0.00000000 0.00000000 0.00000000 0.00000000
Neuron 3 1 0.00000000 1 0.00000000 0.00000000 0.00000000 0.00000000
Neuron 4 1 0.00000000 1 0.00000000 0.00000000 0.00000000 0.00000000
Neuron 5 2 0.00000000 1 0.00000000 0.00000000 0.00000000 0.00000000
Neuron 6 4 1.00000000 0 3.31951890 0.00000000 0.00000000 -0.09063150
Neuron 7 4 1.00000000 0 2.84465846 0.00000000 0.00000000 -0.10281808
Neuron 8 4 1.00000000 6 2.83258085 0.00000000 0.00000000 -0.19948198
Neuron 9 4 1.00000000 0 3.13886369 0.00000000 0.00000000 0.55293070
Neuron 10 4 1.00000000 0 2.88935375 0.00000000 0.00000000 -0.02509180
Neuron 11 4 1.00000000 0 2.77934811 0.00000000 0.00000000 0.91256914
Link 1 6 1 0 -0.31704903
Link 2 6 2 0 -0.23030294
Link 3 6 3 0 0.08359435
Link 4 6 4 0 0.08718401
Link 5 6 5 0 0.24853698
Link 1 7 6 0 -0.10936792
Link 2 7 7 0 -0.03392946
Link 3 7 8 0 -0.64663490
Link 4 7 9 0 -0.12990359
Link 5 7 10 0 -0.29159446
Link 1 8 11 0 0.53070809
Link 2 8 12 0 -0.46491654
Link 3 8 13 0 -0.31082817
Link 4 8 14 0 0.69664956
Link 5 8 15 0 -0.56008026
Link 1 9 16 0 -0.52805391
Link 2 9 17 0 0.32580775
Link 3 9 18 0 -0.13853672
Link 4 9 19 0 -0.26406422
Link 5 9 20 0 -0.48986617
Link 1 10 21 0 0.67831109
Link 2 10 22 0 0.09992618
Link 3 10 23 0 0.66700944
Link 4 10 24 0 0.23799649
Link 5 10 25 0 0.06829236
Link 1 11 26 0 0.19293345
Link 2 11 27 0 -0.49235620
Link 3 11 28 0 0.32359160
Link 4 11 29 0 0.49986181
Link 5 11 30 0 -0.54175796
GenomeEnd

