GenomeStart 3
Neuron 1 1 0.00000000 1 0.00000000 0.00000000 0.00000000 0.00000000
Neuron 2 1 0.00000000 1 0.00000000 0.00000000 0.00000000 0.00000000
Neuron 3 1 0.00000000 1 0.00000000 0.00000000 0.00000000 0.00000000
Neuron 4 1 0.00000000 1 0.00000000 0.00000000 0.00000000 0.00000000
Neuron 5 2 0.00000000 1 0.00000000 0.00000000 0.00000000 0.00000000
Neuron 6 4 1.00000000 6 2.98188535 0.00000000 0.00000000 0.75226519
Neuron 7 4 1.00000000 0 2.88221469 0.00000000 0.00000000 -0.03174656
Neuron 8 4 1.00000000 0 3.05733654 0.00000000 0.00000000 0.27334594
Neuron 9 4 1.00000000 0 2.77949924 0.00000000 0.00000000 0.56429617
Neuron 10 4 1.00000000 0 3.18728612 0.00000000 0.00000000 -0.06887854
Neuron 11 4 1.00000000 0 3.05099893 0.00000000 0.00000000 0.14413069
Link 1 6 1 0 0.18641811
Link 2 6 2 0 -0.50510569
Link 3 6 3 0 0.23122635
Link 4 6 4 0 0.27229272
Link 5 6 5 0 0.39562541
Link 1 7 6 0 0.09711555
Link 2 7 7 0 0.41636525
Link 3 7 8 0 -0.38838936
Link 4 7 9 0 0.02204017
Link 5 7 10 0 0.32459296
Link 1 8 11 0 -0.04903184
Link 2 8 12 0 0.41858796
Link 3 8 13 0 -0.29810839
Link 4 8 14 0 -0.53684535
Link 5 8 15 0 0.32609498
Link 1 9 16 0 0.57471285
Link 2 9 17 0 -0.14638873
Link 3 9 18 0 0.67095076
Link 4 9 19 0 -0.63848657
Link 5 9 20 0 0.12373833
Link 1 10 21 0 0.22468319
Link 2 10 22 0 0.68933779
Link 3 10 23 0 -0.20115444
Link 4 10 24 0 0.04699979
Link 5 10 25 0 0.15388856
Link 1 11 26 0 0.22136703
Link 2 11 27 0 0.01820764
Link 3 11 28 0 -0.18580323
Link 4 11 29 0 0.15756244
Link 5 11 30 0 -0.61519093
GenomeEnd

