GenomeStart 6
Neuron 1 1 0.00000000 1 0.00000000 0.00000000 0.00000000 0.00000000
Neuron 2 1 0.00000000 1 0.00000000 0.00000000 0.00000000 0.00000000
Neuron 3 1 0.00000000 1 0.00000000 0.00000000 0.00000000 0.00000000
Neuron 4 1 0.00000000 1 0.00000000 0.00000000 0.00000000 0.00000000
Neuron 5 2 0.00000000 1 0.00000000 0.00000000 0.00000000 0.00000000
Neuron 6 4 1.00000000 0 3.31933474 0.00000000 0.00000000 0.13439654
Neuron 7 4 1.00000000 0 3.22133692 0.00000000 0.00000000 -0.11809584
Neuron 8 4 1.00000000 0 2.94486442 0.00000000 0.00000000 -0.85726152
Neuron 9 4 1.00000000 0 3.24560847 0.00000000 0.00000000 0.28174959
Neuron 10 4 1.00000000 0 2.87541085 0.00000000 0.00000000 0.17948908
Neuron 11 4 1.00000000 2 3.16570433 0.00000000 0.00000000 -0.64265816
Link 1 6 1 0 -0.30025663
Link 2 6 2 0 -0.15756983
Link 3 6 3 0 -0.62206268
Link 4 6 4 0 0.02739129
Link 5 6 5 0 0.31225751
Link 1 7 6 0 -0.41409676
Link 2 7 7 0 0.03470389
Link 3 7 8 0 0.42049300
Link 4 7 9 0 -0.30461222
Link 5 7 10 0 -0.35356492
Link 1 8 11 0 0.08721085
Link 2 8 12 0 0.37108721
Link 3 8 13 0 -0.37873766
Link 4 8 14 0 0.03189265
Link 5 8 15 0 -0.33704312
Link 1 9 16 0 -0.61718111
Link 2 9 17 0 0.38393863
Link 3 9 18 0 0.05756631
Link 4 9 19 0 -0.45545338
Link 5 9 20 0 -0.05707242
Link 1 10 21 0 0.16469789
Link 2 10 22 0 -0.27469803
Link 3 10 23 0 -0.77572339
Link 4 10 24 0 0.19767569
Link 5 10 25 0 0.40560330
Link 1 11 26 0 -0.40481743
Link 2 11 27 0 -0.32092762
Link 3 11 28 0 -0.02470324
Link 4 11 29 0 0.65039777
Link 5 11 30 0 0.20526879
GenomeEnd

