GenomeStart 4
Neuron 1 1 0.00000000 1 0.00000000 0.00000000 0.00000000 0.00000000
Neuron 2 1 0.00000000 1 0.00000000 0.00000000 0.00000000 0.00000000
Neuron 3 1 0.00000000 1 0.00000000 0.00000000 0.00000000 0.00000000
Neuron 4 1 0.00000000 1 0.00000000 0.00000000 0.00000000 0.00000000
Neuron 5 2 0.00000000 1 0.00000000 0.00000000 0.00000000 0.00000000
Neuron 6 4 1.00000000 0 2.78012214 0.00000000 0.00000000 -0.33239613
Neuron 7 4 1.00000000 0 3.19005630 0.00000000 0.00000000 -0.16775949
Neuron 8 4 1.00000000 4 3.13997407 0.00000000 0.00000000 -0.51578017
Neuron 9 4 1.00000000 0 2.87686444 0.00000000 0.00000000 -0.70714296
Neuron 10 4 1.00000000 0 3.00979122 0.00000000 0.00000000 -0.17399103
Neuron 11 4 1.00000000 0 3.08829940 0.00000000 0.00000000 -0.26693605
Link 1 6 1 0 -0.86369277
Link 2 6 2 0 0.31235619
Link 3 6 3 0 -0.20573752
Link 4 6 4 0 0.51656311
Link 5 6 5 0 -0.51425391
Link 1 7 6 0 0.11612588
Link 2 7 7 0 -0.75421649
Link 3 7 8 0 -0.21645631
Link 4 7 9 0 -0.75492880
Link 5 7 10 0 0.49522994
Link 1 8 11 0 -0.45761757
Link 2 8 12 0 0.47794134
Link 3 8 13 0 -0.48175656
Link 4 8 14 0 -0.06615518
Link 5 8 15 0 0.58138398
Link 1 9 16 0 0.06859670
Link 2 9 17 0 -0.69194234
Link 3 9 18 0 0.08680750
Link 4 9 19 0 0.07395828
Link 5 9 20 0 -0.45839036
Link 1 10 21 0 -0.58399841
Link 2 10 22 0 0.06097891
Link 3 10 23 0 -0.28071622
Link 4 10 24 0 -0.02678322
Link 5 10 25 0 -0.45899033
Link 1 11 26 0 -0.07965531
Link 2 11 27 0 -0.10895228
Link 3 11 28 0 -0.26255438
Link 4 11 29 0 -0.29964199
Link 5 11 30 0 0.21510679
GenomeEnd

