GenomeStart 2
Neuron 1 1 0.00000000 1 0.00000000 0.00000000 0.00000000 0.00000000
Neuron 2 1 0.00000000 1 0.00000000 0.00000000 0.00000000 0.00000000
Neuron 3 1 0.00000000 1 0.00000000 0.00000000 0.00000000 0.00000000
Neuron 4 1 0.00000000 1 0.00000000 0.00000000 0.00000000 0.00000000
Neuron 5 2 0.00000000 1 0.00000000 0.00000000 0.00000000 0.00000000
Neuron 6 4 1.00000000 0 2.69585220 0.00000000 0.00000000 -0.00524390
Neuron 7 4 1.00000000 6 2.60671932 0.00000000 0.00000000 -0.10129262
Neuron 8 4 1.00000000 0 2.61697099 0.00000000 0.00000000 -0.21987773
Neuron 9 4 1.00000000 0 3.08975766 0.00000000 0.00000000 -0.02275994
Neuron 10 4 1.00000000 0 3.42715047 0.00000000 0.00000000 -0.13991677
Neuron 11 4 1.00000000 0 3.23035027 0.00000000 0.00000000 -0.02311390
Link 1 6 1 0 -0.66803419
Link 2 6 2 0 0.90450526
Link 3 6 3 0 -0.76228974
Link 4 6 4 0 0.74574746
Link 5 6 5 0 0.04321021
Link 1 7 6 0 0.08324144
Link 2 7 7 0 -0.01212547
Link 3 7 8 0 0.39972759
Link 4 7 9 0 -0.44414057
Link 5 7 10 0 0.63505070
Link 1 8 11 0 0.45331077
Link 2 8 12 0 -0.49541277
Link 3 8 13 0 -0.08215430
Link 4 8 14 0 0.37688979
Link 5 8 15 0 -0.50929668
Link 1 9 16 0 -0.57757860
Link 2 9 17 0 0.46514842
Link 3 9 18 0 0.53310755
Link 4 9 19 0 -0.12257279
Link 5 9 20 0 -0.32766565
Link 1 10 21 0 -0.53345415
Link 2 10 22 0 0.07991452
Link 3 10 23 0 -0.07439100
Link 4 10 24 0 -0.12164075
Link 5 10 25 0 0.55812333
Link 1 11 26 0 -0.80553452
Link 2 11 27 0 0.15605039
Link 3 11 28 0 -0.11185204
Link 4 11 29 0 -0.08057131
Link 5 11 30 0 -0.17886202
GenomeEnd

