GenomeStart 18
Neuron 1 1 0.00000000 1 0.00000000 0.00000000 0.00000000 0.00000000
Neuron 2 1 0.00000000 1 0.00000000 0.00000000 0.00000000 0.00000000
Neuron 3 1 0.00000000 1 0.00000000 0.00000000 0.00000000 0.00000000
Neuron 4 1 0.00000000 1 0.00000000 0.00000000 0.00000000 0.00000000
Neuron 5 2 0.00000000 1 0.00000000 0.00000000 0.00000000 0.00000000
Neuron 6 4 1.00000000 2 3.18064378 0.00000000 0.00000000 0.47063010
Neuron 7 4 1.00000000 0 3.20549677 0.00000000 0.00000000 -0.02179018
Neuron 8 4 1.00000000 0 3.09736854 0.00000000 0.00000000 -0.31956014
Neuron 9 4 1.00000000 0 2.95090836 0.00000000 0.00000000 -0.11464507
Neuron 10 4 1.00000000 0 2.72728403 0.00000000 0.00000000 0.03464125
Neuron 11 4 1.00000000 0 2.57838685 0.00000000 0.00000000 0.61141995
Link 1 6 1 0 0.27295586
Link 2 6 2 0 0.14832061
Link 3 6 3 0 0.17799125
Link 4 6 4 0 0.34496882
Link 5 6 5 0 -0.45145317
Link 1 7 6 0 0.31610313
Link 2 7 7 0 0.38546422
Link 3 7 8 0 -0.34633303
Link 4 7 9 0 0.02174823
Link 5 7 10 0 -0.45541073
Link 1 8 11 0 -0.13537308
Link 2 8 12 0 0.69084655
Link 3 8 13 0 0.07058511
Link 4 8 14 0 0.75834921
Link 5 8 15 0 -0.62282149
Link 1 9 16 0 0.14924357
Link 2 9 17 0 0.15350319
Link 3 9 18 0 0.33946125
Link 4 9 19 0 0.25368681
Link 5 9 20 0 0.62141189
Link 1 10 21 0 0.45505764
Link 2 10 22 0 -0.54483462
Link 3 10 23 0 -0.03698087
Link 4 10 24 0 0.04119541
Link 5 10 25 0 -0.14205849
Link 1 11 26 0 0.30845496
Link 2 11 27 0 -0.08205761
Link 3 11 28 0 -0.59770141
Link 4 11 29 0 -0.06933626
Link 5 11 30 0 0.84513651
GenomeEnd

