GenomeStart 11
Neuron 1 1 0.00000000 1 0.00000000 0.00000000 0.00000000 0.00000000
Neuron 2 1 0.00000000 1 0.00000000 0.00000000 0.00000000 0.00000000
Neuron 3 1 0.00000000 1 0.00000000 0.00000000 0.00000000 0.00000000
Neuron 4 1 0.00000000 1 0.00000000 0.00000000 0.00000000 0.00000000
Neuron 5 2 0.00000000 1 0.00000000 0.00000000 0.00000000 0.00000000
Neuron 6 4 1.00000000 0 3.24873679 0.00000000 0.00000000 -0.41797153
Neuron 7 4 1.00000000 0 2.93712848 0.00000000 0.00000000 -0.57983170
Neuron 8 4 1.00000000 0 2.97709740 0.00000000 0.00000000 -0.29514086
Neuron 9 4 1.00000000 0 3.10354129 0.00000000 0.00000000 -0.38690128
Neuron 10 4 1.00000000 4 3.38007457 0.00000000 0.00000000 0.42290999
Neuron 11 4 1.00000000 0 3.01693779 0.00000000 0.00000000 0.12372645
Link 1 6 1 0 -0.14793237
Link 2 6 2 0 0.02007229
Link 3 6 3 0 -0.17255339
Link 4 6 4 0 0.09562891
Link 5 6 5 0 0.30720201
Link 1 7 6 0 0.32903818
Link 2 7 7 0 0.67630412
Link 3 7 8 0 -0.61019288
Link 4 7 9 0 -0.11738346
Link 5 7 10 0 -0.28993624
Link 1 8 11 0 -0.24054643
Link 2 8 12 0 -0.03566196
Link 3 8 13 0 -0.28843850
Link 4 8 14 0 -0.10401885
Link 5 8 15 0 -0.20523458
Link 1 9 16 0 -0.17033762
Link 2 9 17 0 0.24584860
Link 3 9 18 0 -0.26422498
Link 4 9 19 0 -0.04445232
Link 5 9 20 0 -0.26182165
Link 1 10 21 0 0.52567613
Link 2 10 22 0 -0.44222560
Link 3 10 23 0 0.63883208
Link 4 10 24 0 -0.38369424
Link 5 10 25 0 0.59757343
Link 1 11 26 0 -0.16313863
Link 2 11 27 0 0.17439922
Link 3 11 28 0 -0.18685055
Link 4 11 29 0 0.18474626
Link 5 11 30 0 0.10766440
GenomeEnd

