GenomeStart 19
Neuron 1 1 0.00000000 1 0.00000000 0.00000000 0.00000000 0.00000000
Neuron 2 1 0.00000000 1 0.00000000 0.00000000 0.00000000 0.00000000
Neuron 3 1 0.00000000 1 0.00000000 0.00000000 0.00000000 0.00000000
Neuron 4 1 0.00000000 1 0.00000000 0.00000000 0.00000000 0.00000000
Neuron 5 2 0.00000000 1 0.00000000 0.00000000 0.00000000 0.00000000
Neuron 6 4 1.00000000 0 3.27339947 0.00000000 0.00000000 -0.33163687
Neuron 7 4 1.00000000 11 2.91944352 0.00000000 0.00000000 -0.01820281
Neuron 8 4 1.00000000 0 3.32858480 0.00000000 0.00000000 -0.13001089
Neuron 9 4 1.00000000 0 3.01615253 0.00000000 0.00000000 -0.70619316
Neuron 10 4 1.00000000 0 2.92967260 0.00000000 0.00000000 0.95278631
Neuron 11 4 1.00000000 0 2.74491416 0.00000000 0.00000000 -0.04002895
Link 1 6 1 0 0.25816491
Link 2 6 2 0 0.04607379
Link 3 6 3 0 -0.33048094
Link 4 6 4 0 -0.75831712
Link 5 6 5 0 -0.28501615
Link 1 7 6 0 0.04005917
Link 2 7 7 0 -0.10603147
Link 3 7 8 0 -0.59722653
Link 4 7 9 0 0.25381450
Link 5 7 10 0 -0.54846585
Link 1 8 11 0 0.35208239
Link 2 8 12 0 0.30002809
Link 3 8 13 0 -0.17729051
Link 4 8 14 0 -0.27654168
Link 5 8 15 0 -0.67417229
Link 1 9 16 0 0.02993266
Link 2 9 17 0 0.06236199
Link 3 9 18 0 0.35766050
Link 4 9 19 0 0.16902664
Link 5 9 20 0 0.05919033
Link 1 10 21 0 -0.60030398
Link 2 10 22 0 0.84184153
Link 3 10 23 0 -0.71132966
Link 4 10 24 0 0.01392059
Link 5 10 25 0 -0.40191257
Link 1 11 26 0 0.02556438
Link 2 11 27 0 -0.15402632
Link 3 11 28 0 -0.28913952
Link 4 11 29 0 -0.17225763
Link 5 11 30 0 -0.00997797
GenomeEnd

