GenomeStart 17
Neuron 1 1 0.00000000 1 0.00000000 0.00000000 0.00000000 0.00000000
Neuron 2 1 0.00000000 1 0.00000000 0.00000000 0.00000000 0.00000000
Neuron 3 1 0.00000000 1 0.00000000 0.00000000 0.00000000 0.00000000
Neuron 4 1 0.00000000 1 0.00000000 0.00000000 0.00000000 0.00000000
Neuron 5 2 0.00000000 1 0.00000000 0.00000000 0.00000000 0.00000000
Neuron 6 4 1.00000000 11 2.91482722 0.00000000 0.00000000 0.77309217
Neuron 7 4 1.00000000 0 3.41948072 0.00000000 0.00000000 0.51925627
Neuron 8 4 1.00000000 0 3.04260145 0.00000000 0.00000000 -0.93743329
Neuron 9 4 1.00000000 0 3.48217044 0.00000000 0.00000000 0.48005347
Neuron 10 4 1.00000000 0 2.84536216 0.00000000 0.00000000 0.72567975
Neuron 11 4 1.00000000 0 2.64955588 0.00000000 0.00000000 -0.23594575
Link 1 6 1 0 0.36114909
Link 2 6 2 0 0.14433007
Link 3 6 3 0 -0.31896987
Link 4 6 4 0 -0.05926069
Link 5 6 5 0 -0.28551961
Link 1 7 6 0 -0.09968212
Link 2 7 7 0 -0.67923198
Link 3 7 8 0 0.57517048
Link 4 7 9 0 -0.39181557
Link 5 7 10 0 -0.00684243
Link 1 8 11 0 0.07863976
Link 2 8 12 0 -0.46511803
Link 3 8 13 0 0.30067609
Link 4 8 14 0 -0.38942766
Link 5 8 15 0 0.00774824
Link 1 9 16 0 -0.25707128
Link 2 9 17 0 0.80983774
Link 3 9 18 0 -0.43794355
Link 4 9 19 0 0.51107072
Link 5 9 20 0 0.59009038
Link 1 10 21 0 0.47520073
Link 2 10 22 0 -0.66034110
Link 3 10 23 0 -0.17479915
Link 4 10 24 0 0.10725467
Link 5 10 25 0 0.24180345
Link 1 11 26 0 0.39499797
Link 2 11 27 0 0.68465117
Link 3 11 28 0 -0.16336091
Link 4 11 29 0 -0.31083432
Link 5 11 30 0 0.64223433
GenomeEnd

