GenomeStart 9
Neuron 1 1 0.00000000 1 0.00000000 0.00000000 0.00000000 0.00000000
Neuron 2 1 0.00000000 1 0.00000000 0.00000000 0.00000000 0.00000000
Neuron 3 1 0.00000000 1 0.00000000 0.00000000 0.00000000 0.00000000
Neuron 4 1 0.00000000 1 0.00000000 0.00000000 0.00000000 0.00000000
Neuron 5 2 0.00000000 1 0.00000000 0.00000000 0.00000000 0.00000000
Neuron 6 4 1.00000000 0 3.01411465 0.00000000 0.00000000 -0.80937416
Neuron 7 4 1.00000000 0 3.31534281 0.00000000 0.00000000 0.39483345
Neuron 8 4 1.00000000 9 2.97878782 0.00000000 0.00000000 -0.64211061
Neuron 9 4 1.00000000 0 2.88369626 0.00000000 0.00000000 0.05430596
Neuron 10 4 1.00000000 0 2.99680590 0.00000000 0.00000000 0.39763924
Neuron 11 4 1.00000000 0 3.11600393 0.00000000 0.00000000 0.01797577
Link 1 6 1 0 -0.61303847
Link 2 6 2 0 -0.03756929
Link 3 6 3 0 -0.53668105
Link 4 6 4 0 0.25803167
Link 5 6 5 0 -0.82537560
Link 1 7 6 0 -0.46408354
Link 2 7 7 0 0.44503754
Link 3 7 8 0 0.38360241
Link 4 7 9 0 -0.27667945
Link 5 7 10 0 0.33711162
Link 1 8 11 0 0.29013501
Link 2 8 12 0 0.67105136
Link 3 8 13 0 0.05735007
Link 4 8 14 0 -0.10691122
Link 5 8 15 0 0.45125769
Link 1 9 16 0 0.02126621
Link 2 9 17 0 -0.14762159
Link 3 9 18 0 -0.09604399
Link 4 9 19 0 0.53281416
Link 5 9 20 0 -0.70028980
Link 1 10 21 0 -0.39760872
Link 2 10 22 0 0.03053978
Link 3 10 23 0 0.11565105
Link 4 10 24 0 0.10689629
Link 5 10 25 0 -0.64842244
Link 1 11 26 0 -0.10749487
Link 2 11 27 0 -0.87793847
Link 3 11 28 0 -0.05648649
Link 4 11 29 0 0.52104573
Link 5 11 30 0 0.07802799
GenomeEnd

