GenomeStart 15
Neuron 1 1 0.00000000 1 0.00000000 0.00000000 0.00000000 0.00000000
Neuron 2 1 0.00000000 1 0.00000000 0.00000000 0.00000000 0.00000000
Neuron 3 1 0.00000000 1 0.00000000 0.00000000 0.00000000 0.00000000
Neuron 4 1 0.00000000 1 0.00000000 0.00000000 0.00000000 0.00000000
Neuron 5 2 0.00000000 1 0.00000000 0.00000000 0.00000000 0.00000000
Neuron 6 4 1.00000000 0 3.03507887 0.00000000 0.00000000 -0.75818560
Neuron 7 4 1.00000000 0 3.06940861 0.00000000 0.00000000 -0.23005043
Neuron 8 4 1.00000000 0 3.08295859 0.00000000 0.00000000 0.49338121
Neuron 9 4 1.00000000 0 2.95514873 0.00000000 0.00000000 -0.38563997
Neuron 10 4 1.00000000 0 3.00775924 0.00000000 0.00000000 0.06077103
Neuron 11 4 1.00000000 9 3.19868152 0.00000000 0.00000000 -0.33232762
Link 1 6 1 0 -0.01373848
Link 2 6 2 0 0.30427117
Link 3 6 3 0 -0.26178335
Link 4 6 4 0 0.31327762
Link 5 6 5 0 -0.09396460
Link 1 7 6 0 0.30832683
Link 2 7 7 0 0.04827245
Link 3 7 8 0 0.28670145
Link 4 7 9 0 -0.40014576
Link 5 7 10 0 -0.51811244
Link 1 8 11 0 -0.01640641
Link 2 8 12 0 0.95505911
Link 3 8 13 0 -0.11658581
Link 4 8 14 0 0.54446807
Link 5 8 15 0 0.67822523
Link 1 9 16 0 0.85497788
Link 2 9 17 0 0.25828269
Link 3 9 18 0 0.50719910
Link 4 9 19 0 0.06694263
Link 5 9 20 0 0.21102326
Link 1 10 21 0 -0.23694887
Link 2 10 22 0 -0.31431174
Link 3 10 23 0 0.81880076
Link 4 10 24 0 -0.05149367
Link 5 10 25 0 -0.24981166
Link 1 11 26 0 -0.60863292
Link 2 11 27 0 -0.10192071
Link 3 11 28 0 0.08719211
Link 4 11 29 0 0.10458903
Link 5 11 30 0 -0.24737384
GenomeEnd

