GenomeStart 0
Neuron 1 1 0.00000000 1 0.00000000 0.00000000 0.00000000 0.00000000
Neuron 2 1 0.00000000 1 0.00000000 0.00000000 0.00000000 0.00000000
Neuron 3 1 0.00000000 1 0.00000000 0.00000000 0.00000000 0.00000000
Neuron 4 1 0.00000000 1 0.00000000 0.00000000 0.00000000 0.00000000
Neuron 5 2 0.00000000 1 0.00000000 0.00000000 0.00000000 0.00000000
Neuron 6 4 1.00000000 0 2.98693332 0.00000000 0.00000000 0.47944290
Neuron 7 4 1.00000000 0 3.13220961 0.00000000 0.00000000 -0.40831854
Neuron 8 4 1.00000000 0 2.87382742 0.00000000 0.00000000 -0.89322070
Neuron 9 4 1.00000000 0 2.75019783 0.00000000 0.00000000 0.13848320
Neuron 10 4 1.00000000 0 2.88253794 0.00000000 0.00000000 -0.26986773
Neuron 11 4 1.00000000 4 2.95622951 0.00000000 0.00000000 0.47422876
Link 1 6 1 0 -0.81774219
Link 2 6 2 0 0.56985221
Link 3 6 3 0 -0.50202412
Link 4 6 4 0 0.15222794
Link 5 6 5 0 0.37636448
Link 1 7 6 0 0.30299173
Link 2 7 7 0 -0.64644435
Link 3 7 8 0 0.62889040
Link 4 7 9 0 -0.28283001
Link 5 7 10 0 -0.06043232
Link 1 8 11 0 -0.79089099
Link 2 8 12 0 0.42534035
Link 3 8 13 0 0.59859241
Link 4 8 14 0 0.19579200
Link 5 8 15 0 0.02326153
Link 1 9 16 0 0.15725266
Link 2 9 17 0 0.28502278
Link 3 9 18 0 0.45901156
Link 4 9 19 0 -0.22948979
Link 5 9 20 0 -0.26473638
Link 1 10 21 0 -0.61749530
Link 2 10 22 0 -0.18005738
Link 3 10 23 0 0.69246675
Link 4 10 24 0 -0.09898257
Link 5 10 25 0 0.63296765
Link 1 11 26 0 -0.41502065
Link 2 11 27 0 -0.63430831
Link 3 11 28 0 0.64433949
Link 4 11 29 0 -0.27917164
Link 5 11 30 0 -0.16621976
GenomeEnd

