GenomeStart 16
Neuron 1 1 0.00000000 1 0.00000000 0.00000000 0.00000000 0.00000000
Neuron 2 1 0.00000000 1 0.00000000 0.00000000 0.00000000 0.00000000
Neuron 3 1 0.00000000 1 0.00000000 0.00000000 0.00000000 0.00000000
Neuron 4 1 0.00000000 1 0.00000000 0.00000000 0.00000000 0.00000000
Neuron 5 2 0.00000000 1 0.00000000 0.00000000 0.00000000 0.00000000
Neuron 6 4 1.00000000 0 3.22158425 0.00000000 0.00000000 0.22463537
Neuron 7 4 1.00000000 0 3.09445691 0.00000000 0.00000000 0.07378574
Neuron 8 4 1.00000000 0 3.30084645 0.00000000 0.00000000 -0.23054478
Neuron 9 4 1.00000000 0 3.07524779 0.00000000 0.00000000 0.23434891
Neuron 10 4 1.00000000 11 2.93380736 0.00000000 0.00000000 -0.62969894
Neuron 11 4 1.00000000 0 2.97205128 0.00000000 0.00000000 0.49514810
Link 1 6 1 0 0.04726292
Link 2 6 2 0 -0.67338246
Link 3 6 3 0 -0.43676637
Link 4 6 4 0 0.33104182
Link 5 6 5 0 0.40921881
Link 1 7 6 0 -0.15942486
Link 2 7 7 0 -0.35224367
Link 3 7 8 0 -0.43462929
Link 4 7 9 0 0.01013231
Link 5 7 10 0 -0.77848665
Link 1 8 11 0 0.42653313
Link 2 8 12 0 -0.12668349
Link 3 8 13 0 0.72607738
Link 4 8 14 0 -0.14275584
Link 5 8 15 0 -0.25559251
Link 1 9 16 0 0.17631244
Link 2 9 17 0 -0.10639940
Link 3 9 18 0 0.00699565
Link 4 9 19 0 0.10299860
Link 5 9 20 0 -0.58122616
Link 1 10 21 0 0.00125454
Link 2 10 22 0 0.00083738
Link 3 10 23 0 -0.11703812
Link 4 10 24 0 0.88127371
Link 5 10 25 0 -0.39950934
Link 1 11 26 0 -0.01304795
Link 2 11 27 0 -0.38858667
Link 3 11 28 0 0.02074815
Link 4 11 29 0 -0.38242690
Link 5 11 30 0 -0.37214164
GenomeEnd

