GenomeStart 7
Neuron 1 1 0.00000000 1 0.00000000 0.00000000 0.00000000 0.00000000
Neuron 2 1 0.00000000 1 0.00000000 0.00000000 0.00000000 0.00000000
Neuron 3 1 0.00000000 1 0.00000000 0.00000000 0.00000000 0.00000000
Neuron 4 1 0.00000000 1 0.00000000 0.00000000 0.00000000 0.00000000
Neuron 5 2 0.00000000 1 0.00000000 0.00000000 0.00000000 0.00000000
Neuron 6 4 1.00000000 0 3.16843751 0.00000000 0.00000000 -0.74054551
Neuron 7 4 1.00000000 0 2.99759510 0.00000000 0.00000000 -0.81831374
Neuron 8 4 1.00000000 6 3.35475880 0.00000000 0.00000000 -0.52921753
Neuron 9 4 1.00000000 0 3.09423880 0.00000000 0.00000000 0.11166035
Neuron 10 4 1.00000000 0 2.93004789 0.00000000 0.00000000 -0.08025542
Neuron 11 4 1.00000000 0 2.64960741 0.00000000 0.00000000 0.02162099
Link 1 6 1 0 -0.28156842
Link 2 6 2 0 -0.60866230
Link 3 6 3 0 0.20839000
Link 4 6 4 0 -0.05086259
Link 5 6 5 0 -0.51704825
Link 1 7 6 0 0.35388793
Link 2 7 7 0 0.47419583
Link 3 7 8 0 0.36332771
Link 4 7 9 0 0.58242908
Link 5 7 10 0 0.20868788
Link 1 8 11 0 -0.94705450
Link 2 8 12 0 -0.25956847
Link 3 8 13 0 0.24374070
Link 4 8 14 0 -0.21710705
Link 5 8 15 0 -0.42123915
Link 1 9 16 0 -0.25926943
Link 2 9 17 0 -0.09483022
Link 3 9 18 0 0.33976663
Link 4 9 19 0 0.38687066
Link 5 9 20 0 0.52477836
Link 1 10 21 0 0.85864233
Link 2 10 22 0 0.10514361
Link 3 10 23 0 0.79815335
Link 4 10 24 0 -0.47472812
Link 5 10 25 0 -0.52513092
Link 1 11 26 0 -0.66476979
Link 2 11 27 0 0.09751728
Link 3 11 28 0 0.24242697
Link 4 11 29 0 0.35629532
Link 5 11 30 0 -0.68377262
GenomeEnd

