GenomeStart 12
Neuron 1 1 0.00000000 1 0.00000000 0.00000000 0.00000000 0.00000000
Neuron 2 1 0.00000000 1 0.00000000 0.00000000 0.00000000 0.00000000
Neuron 3 1 0.00000000 1 0.00000000 0.00000000 0.00000000 0.00000000
Neuron 4 1 0.00000000 1 0.00000000 0.00000000 0.00000000 0.00000000
Neuron 5 2 0.00000000 1 0.00000000 0.00000000 0.00000000 0.00000000
Neuron 6 4 1.00000000 0 3.15759342 0.00000000 0.00000000 0.33930090
Neuron 7 4 1.00000000 0 3.06357662 0.00000000 0.00000000 -0.11429800
Neuron 8 4 1.00000000 0 3.06951008 0.00000000 0.00000000 -0.66547525
Neuron 9 4 1.00000000 6 2.98013947 0.00000000 0.00000000 0.51969450
Neuron 10 4 1.00000000 0 2.77888456 0.00000000 0.00000000 -0.33354675
Neuron 11 4 1.00000000 0 2.84089366 0.00000000 0.00000000 -0.34221630
Link 1 6 1 0 -0.64997368
Link 2 6 2 0 0.32884402
Link 3 6 3 0 -0.00708002
Link 4 6 4 0 -0.61994598
Link 5 6 5 0 -0.31941451
Link 1 7 6 0 -0.40255943
Link 2 7 7 0 -0.51246292
Link 3 7 8 0 -0.01678790
Link 4 7 9 0 -0.00167528
Link 5 7 10 0 -0.13446072
Link 1 8 11 0 -0.42528023
Link 2 8 12 0 0.24820222
Link 3 8 13 0 0.59846359
Link 4 8 14 0 0.13886383
Link 5 8 15 0 0.15841788
Link 1 9 16 0 -0.11265514
Link 2 9 17 0 -0.52214854
Link 3 9 18 0 -0.64099770
Link 4 9 19 0 0.03172189
Link 5 9 20 0 -0.23408654
Link 1 10 21 0 0.22520488
Link 2 10 22 0 -0.12622781
Link 3 10 23 0 0.67068284
Link 4 10 24 0 0.87643258
Link 5 10 25 0 -0.06666418
Link 1 11 26 0 0.30096982
Link 2 11 27 0 -0.08074657
Link 3 11 28 0 0.09081533
Link 4 11 29 0 0.28557393
Link 5 11 30 0 -0.35149206
GenomeEnd

