GenomeStart 4
Neuron 1 1 0.00000000 1 0.00000000 0.00000000 0.00000000 0.00000000
Neuron 2 1 0.00000000 1 0.00000000 0.00000000 0.00000000 0.00000000
Neuron 3 1 0.00000000 1 0.00000000 0.00000000 0.00000000 0.00000000
Neuron 4 1 0.00000000 1 0.00000000 0.00000000 0.00000000 0.00000000
Neuron 5 2 0.00000000 1 0.00000000 0.00000000 0.00000000 0.00000000
Neuron 6 4 1.00000000 0 2.88592133 0.00000000 0.00000000 0.14188379
Neuron 7 4 1.00000000 0 3.06417183 0.00000000 0.00000000 -0.10758229
Neuron 8 4 1.00000000 6 2.91862957 0.00000000 0.00000000 0.52721398
Neuron 9 4 1.00000000 0 3.34699327 0.00000000 0.00000000 -0.10723147
Neuron 10 4 1.00000000 0 3.26888703 0.00000000 0.00000000 -0.00268303
Neuron 11 4 1.00000000 0 2.80681315 0.00000000 0.00000000 -0.38253548
Link 1 6 1 0 0.12013663
Link 2 6 2 0 -0.53681503
Link 3 6 3 0 -0.69971431
Link 4 6 4 0 -0.38782256
Link 5 6 5 0 -0.15350922
Link 1 7 6 0 0.99106097
Link 2 7 7 0 0.08707768
Link 3 7 8 0 0.08828874
Link 4 7 9 0 -0.62901176
Link 5 7 10 0 0.68852110
Link 1 8 11 0 -0.30550043
Link 2 8 12 0 -0.86842815
Link 3 8 13 0 -0.32693606
Link 4 8 14 0 -0.53187764
Link 5 8 15 0 0.62829951
Link 1 9 16 0 0.07000626
Link 2 9 17 0 -0.12085462
Link 3 9 18 0 -0.25232377
Link 4 9 19 0 -0.06725110
Link 5 9 20 0 -0.04966855
Link 1 10 21 0 -0.37057843
Link 2 10 22 0 -0.01933334
Link 3 10 23 0 0.02951740
Link 4 10 24 0 -0.55752649
Link 5 10 25 0 -0.11285886
Link 1 11 26 0 -0.83150380
Link 2 11 27 0 -0.09460217
Link 3 11 28 0 -0.41202162
Link 4 11 29 0 0.02777680
Link 5 11 30 0 -0.77334337
GenomeEnd

