GenomeStart 1
Neuron 1 1 0.00000000 1 0.00000000 0.00000000 0.00000000 0.00000000
Neuron 2 1 0.00000000 1 0.00000000 0.00000000 0.00000000 0.00000000
Neuron 3 1 0.00000000 1 0.00000000 0.00000000 0.00000000 0.00000000
Neuron 4 1 0.00000000 1 0.00000000 0.00000000 0.00000000 0.00000000
Neuron 5 2 0.00000000 1 0.00000000 0.00000000 0.00000000 0.00000000
Neuron 6 4 1.00000000 0 2.99149792 0.00000000 0.00000000 -0.00677830
Neuron 7 4 1.00000000 11 3.05982382 0.00000000 0.00000000 0.29284208
Neuron 8 4 1.00000000 0 2.72652415 0.00000000 0.00000000 -0.08585994
Neuron 9 4 1.00000000 0 3.24323210 0.00000000 0.00000000 -0.04408313
Neuron 10 4 1.00000000 0 3.34635381 0.00000000 0.00000000 0.16353901
Neuron 11 4 1.00000000 0 3.09575039 0.00000000 0.00000000 -0.35387851
Link 1 6 1 0 0.00738982
Link 2 6 2 0 0.23262503
Link 3 6 3 0 0.24634402
Link 4 6 4 0 -0.50260658
Link 5 6 5 0 -0.00865275
Link 1 7 6 0 -0.18110389
Link 2 7 7 0 -0.23649173
Link 3 7 8 0 -0.81693136
Link 4 7 9 0 -0.25614581
Link 5 7 10 0 0.34696801
Link 1 8 11 0 -0.31125566
Link 2 8 12 0 -0.04099400
Link 3 8 13 0 -0.43478163
Link 4 8 14 0 0.13660811
Link 5 8 15 0 -0.66368067
Link 1 9 16 0 0.68241438
Link 2 9 17 0 0.39347109
Link 3 9 18 0 0.65534566
Link 4 9 19 0 -0.17676557
Link 5 9 20 0 0.64201945
Link 1 10 21 0 -0.87124571
Link 2 10 22 0 -0.86099772
Link 3 10 23 0 0.01527876
Link 4 10 24 0 0.00951786
Link 5 10 25 0 -0.02346922
Link 1 11 26 0 0.05282338
Link 2 11 27 0 0.84030675
Link 3 11 28 0 0.35919111
Link 4 11 29 0 0.55938899
Link 5 11 30 0 -0.04852749
GenomeEnd

