GenomeStart 1
Neuron 1 1 0.00000000 1 0.00000000 0.00000000 0.00000000 0.00000000
Neuron 2 1 0.00000000 1 0.00000000 0.00000000 0.00000000 0.00000000
Neuron 3 1 0.00000000 1 0.00000000 0.00000000 0.00000000 0.00000000
Neuron 4 1 0.00000000 1 0.00000000 0.00000000 0.00000000 0.00000000
Neuron 5 2 0.00000000 1 0.00000000 0.00000000 0.00000000 0.00000000
Neuron 6 4 1.00000000 0 2.79257778 0.00000000 0.00000000 0.04056308
Neuron 7 4 1.00000000 0 3.19526394 0.00000000 0.00000000 0.21283457
Neuron 8 4 1.00000000 0 3.31357380 0.00000000 0.00000000 -0.11524560
Neuron 9 4 1.00000000 0 2.86497016 0.00000000 0.00000000 -0.43378778
Neuron 10 4 1.00000000 11 2.67710059 0.00000000 0.00000000 0.62824757
Neuron 11 4 1.00000000 0 3.10118694 0.00000000 0.00000000 -0.23837113
Link 1 6 1 0 0.04087332
Link 2 6 2 0 0.08704669
Link 3 6 3 0 -0.08218359
Link 4 6 4 0 -0.54580130
Link 5 6 5 0 -0.36117216
Link 1 7 6 0 -0.47128640
Link 2 7 7 0 -0.80498095
Link 3 7 8 0 0.60463876
Link 4 7 9 0 -0.14497268
Link 5 7 10 0 -0.12020944
Link 1 8 11 0 0.62000176
Link 2 8 12 0 0.44199990
Link 3 8 13 0 0.22771360
Link 4 8 14 0 0.09535477
Link 5 8 15 0 0.89555563
Link 1 9 16 0 0.73052032
Link 2 9 17 0 -0.48884662
Link 3 9 18 0 -0.42348874
Link 4 9 19 0 0.12909689
Link 5 9 20 0 0.17343682
Link 1 10 21 0 -0.18643012
Link 2 10 22 0 0.00686651
Link 3 10 23 0 0.14842724
Link 4 10 24 0 -0.48013429
Link 5 10 25 0 -0.68178334
Link 1 11 26 0 -0.40987329
Link 2 11 27 0 0.48928157
Link 3 11 28 0 -0.44206134
Link 4 11 29 0 0.44984736
Link 5 11 30 0 0.24655603
GenomeEnd

