GenomeStart 6
Neuron 1 1 0.00000000 1 0.00000000 0.00000000 0.00000000 0.00000000
Neuron 2 1 0.00000000 1 0.00000000 0.00000000 0.00000000 0.00000000
Neuron 3 1 0.00000000 1 0.00000000 0.00000000 0.00000000 0.00000000
Neuron 4 1 0.00000000 1 0.00000000 0.00000000 0.00000000 0.00000000
Neuron 5 2 0.00000000 1 0.00000000 0.00000000 0.00000000 0.00000000
Neuron 6 4 1.00000000 0 3.01411485 0.00000000 0.00000000 -0.26291080
Neuron 7 4 1.00000000 0 2.84894766 0.00000000 0.00000000 0.11060915
Neuron 8 4 1.00000000 0 2.98775780 0.00000000 0.00000000 0.69551416
Neuron 9 4 1.00000000 9 3.03558325 0.00000000 0.00000000 -0.28792040
Neuron 10 4 1.00000000 0 3.25222142 0.00000000 0.00000000 -0.24317271
Neuron 11 4 1.00000000 0 2.70998402 0.00000000 0.00000000 -0.88970987
Link 1 6 1 0 -0.31613261
Link 2 6 2 0 -0.06968986
Link 3 6 3 0 0.36177171
Link 4 6 4 0 0.07147025
Link 5 6 5 0 -0.12961063
Link 1 7 6 0 -0.17158644
Link 2 7 7 0 0.38330322
Link 3 7 8 0 0.01048896
Link 4 7 9 0 -0.29359988
Link 5 7 10 0 -0.81385689
Link 1 8 11 0 0.56273240
Link 2 8 12 0 0.23021229
Link 3 8 13 0 0.13294295
Link 4 8 14 0 0.21981534
Link 5 8 15 0 0.02131218
Link 1 9 16 0 -0.01815795
Link 2 9 17 0 0.27558927
Link 3 9 18 0 -0.14719117
Link 4 9 19 0 -0.43206957
Link 5 9 20 0 0.08926250
Link 1 10 21 0 0.32742639
Link 2 10 22 0 0.51997694
Link 3 10 23 0 -0.88915104
Link 4 10 24 0 0.00339822
Link 5 10 25 0 0.13873371
Link 1 11 26 0 -0.01656807
Link 2 11 27 0 0.56629858
Link 3 11 28 0 -0.57494647
Link 4 11 29 0 -0.24918158
Link 5 11 30 0 -0.00665022
GenomeEnd

