GenomeStart 0
Neuron 1 1 0.00000000 1 0.00000000 0.00000000 0.00000000 0.00000000
Neuron 2 1 0.00000000 1 0.00000000 0.00000000 0.00000000 0.00000000
Neuron 3 1 0.00000000 1 0.00000000 0.00000000 0.00000000 0.00000000
Neuron 4 1 0.00000000 1 0.00000000 0.00000000 0.00000000 0.00000000
Neuron 5 2 0.00000000 1 0.00000000 0.00000000 0.00000000 0.00000000
Neuron 6 4 1.00000000 6 2.66955376 0.00000000 0.00000000 0.56156272
Neuron 7 4 1.00000000 0 3.21903365 0.00000000 0.00000000 -0.43311971
Neuron 8 4 1.00000000 0 3.27763705 0.00000000 0.00000000 0.29930212
Neuron 9 4 1.00000000 0 2.79912745 0.00000000 0.00000000 -0.24538847
Neuron 10 4 1.00000000 0 3.08348710 0.00000000 0.00000000 0.54875066
Neuron 11 4 1.00000000 0 3.10255517 0.00000000 0.00000000 0.57579016
Link 1 6 1 0 -0.10114769
Link 2 6 2 0 -0.64430297
Link 3 6 3 0 -0.02869958
Link 4 6 4 0 -0.61556349
Link 5 6 5 0 -0.18111680
Link 1 7 6 0 -0.20005953
Link 2 7 7 0 0.65870529
Link 3 7 8 0 0.14022723
Link 4 7 9 0 -0.13542237
Link 5 7 10 0 0.04482788
Link 1 8 11 0 -0.19061781
Link 2 8 12 0 -0.14146539
Link 3 8 13 0 0.14654670
Link 4 8 14 0 -0.83323704
Link 5 8 15 0 -0.90070325
Link 1 9 16 0 0.16290665
Link 2 9 17 0 0.31163809
Link 3 9 18 0 -0.23418256
Link 4 9 19 0 -0.11957914
Link 5 9 20 0 0.45208544
Link 1 10 21 0 0.91421604
Link 2 10 22 0 -0.46183285
Link 3 10 23 0 0.90682497
Link 4 10 24 0 -0.32354738
Link 5 10 25 0 0.93584323
Link 1 11 26 0 -0.26774367
Link 2 11 27 0 0.82314361
Link 3 11 28 0 -0.21707851
Link 4 11 29 0 0.53296814
Link 5 11 30 0 -0.23270169
GenomeEnd

