GenomeStart 3
Neuron 1 1 0.00000000 1 0.00000000 0.00000000 0.00000000 0.00000000
Neuron 2 1 0.00000000 1 0.00000000 0.00000000 0.00000000 0.00000000
Neuron 3 1 0.00000000 1 0.00000000 0.00000000 0.00000000 0.00000000
Neuron 4 1 0.00000000 1 0.00000000 0.00000000 0.00000000 0.00000000
Neuron 5 2 0.00000000 1 0.00000000 0.00000000 0.00000000 0.00000000
Neuron 6 4 1.00000000 0 2.62121221 0.00000000 0.00000000 -0.35491383
Neuron 7 4 1.00000000 0 3.46165665 0.00000000 0.00000000 -0.50357182
Neuron 8 4 1.00000000 0 2.92525160 0.00000000 0.00000000 0.13543152
Neuron 9 4 1.00000000 0 3.10310908 0.00000000 0.00000000 -0.36343633
Neuron 10 4 1.00000000 0 2.82108335 0.00000000 0.00000000 -0.36316141
Neuron 11 4 1.00000000 2 2.96895014 0.00000000 0.00000000 0.19392238
Link 1 6 1 0 0.79083702
Link 2 6 2 0 -0.08210579
Link 3 6 3 0 0.30614393
Link 4 6 4 0 0.42654974
Link 5 6 5 0 0.19176526
Link 1 7 6 0 -0.24264474
Link 2 7 7 0 0.14112993
Link 3 7 8 0 -0.27326061
Link 4 7 9 0 -0.68376939
Link 5 7 10 0 0.33465251
Link 1 8 11 0 -0.55691462
Link 2 8 12 0 0.57930120
Link 3 8 13 0 0.31219680
Link 4 8 14 0 -0.05754652
Link 5 8 15 0 -0.18722798
Link 1 9 16 0 0.14272568
Link 2 9 17 0 -0.90260846
Link 3 9 18 0 0.05855995
Link 4 9 19 0 -0.43516029
Link 5 9 20 0 0.33388962
Link 1 10 21 0 -0.23682357
Link 2 10 22 0 0.16078561
Link 3 10 23 0 0.11092521
Link 4 10 24 0 0.12004353
Link 5 10 25 0 0.77040317
Link 1 11 26 0 0.06868959
Link 2 11 27 0 0.32135039
Link 3 11 28 0 -0.35509241
Link 4 11 29 0 -0.52467605
Link 5 11 30 0 0.06111170
GenomeEnd

