GenomeStart 12
Neuron 1 1 0.00000000 1 0.00000000 0.00000000 0.00000000 0.00000000
Neuron 2 1 0.00000000 1 0.00000000 0.00000000 0.00000000 0.00000000
Neuron 3 1 0.00000000 1 0.00000000 0.00000000 0.00000000 0.00000000
Neuron 4 1 0.00000000 1 0.00000000 0.00000000 0.00000000 0.00000000
Neuron 5 2 0.00000000 1 0.00000000 0.00000000 0.00000000 0.00000000
Neuron 6 4 1.00000000 0 2.93793556 0.00000000 0.00000000 0.26016840
Neuron 7 4 1.00000000 0 2.65806859 0.00000000 0.00000000 -0.07106509
Neuron 8 4 1.00000000 0 3.06238610 0.00000000 0.00000000 -0.40530325
Neuron 9 4 1.00000000 2 2.92027040 0.00000000 0.00000000 -0.57274452
Neuron 10 4 1.00000000 0 3.20867339 0.00000000 0.00000000 -0.42396941
Neuron 11 4 1.00000000 0 3.01561146 0.00000000 0.00000000 0.07852570
Link 1 6 1 0 -0.41412362
Link 2 6 2 0 0.29573952
Link 3 6 3 0 -0.30015047
Link 4 6 4 0 -0.26483460
Link 5 6 5 0 -0.57381801
Link 1 7 6 0 -0.47001206
Link 2 7 7 0 0.13084788
Link 3 7 8 0 -0.29465161
Link 4 7 9 0 -0.39536239
Link 5 7 10 0 0.06876900
Link 1 8 11 0 -0.26896767
Link 2 8 12 0 0.22155343
Link 3 8 13 0 0.02002132
Link 4 8 14 0 0.76986158
Link 5 8 15 0 0.03105852
Link 1 9 16 0 -0.57488245
Link 2 9 17 0 -0.09981788
Link 3 9 18 0 0.43013690
Link 4 9 19 0 0.09157690
Link 5 9 20 0 -0.11664095
Link 1 10 21 0 -0.61634718
Link 2 10 22 0 -0.48631578
Link 3 10 23 0 -0.38760117
Link 4 10 24 0 -0.20087433
Link 5 10 25 0 -0.18480886
Link 1 11 26 0 -0.40423992
Link 2 11 27 0 -0.24751726
Link 3 11 28 0 0.04358029
Link 4 11 29 0 0.45697782
Link 5 11 30 0 -0.01648622
GenomeEnd

