GenomeStart 1
Neuron 1 1 0.00000000 1 0.00000000 0.00000000 0.00000000 0.00000000
Neuron 2 1 0.00000000 1 0.00000000 0.00000000 0.00000000 0.00000000
Neuron 3 1 0.00000000 1 0.00000000 0.00000000 0.00000000 0.00000000
Neuron 4 1 0.00000000 1 0.00000000 0.00000000 0.00000000 0.00000000
Neuron 5 2 0.00000000 1 0.00000000 0.00000000 0.00000000 0.00000000
Neuron 6 4 1.00000000 0 2.98929392 0.00000000 0.00000000 -0.80097638
Neuron 7 4 1.00000000 0 2.79419059 0.00000000 0.00000000 0.00771894
Neuron 8 4 1.00000000 0 2.85782949 0.00000000 0.00000000 -0.64943539
Neuron 9 4 1.00000000 0 2.88129188 0.00000000 0.00000000 0.59204494
Neuron 10 4 1.00000000 2 3.47099963 0.00000000 0.00000000 0.18122451
Neuron 11 4 1.00000000 0 3.21667492 0.00000000 0.00000000 0.12272495
Link 1 6 1 0 -0.44986919
Link 2 6 2 0 0.03750854
Link 3 6 3 0 0.11864421
Link 4 6 4 0 -0.19881591
Link 5 6 5 0 -0.08528435
Link 1 7 6 0 0.25324713
Link 2 7 7 0 -0.29976300
Link 3 7 8 0 0.27032805
Link 4 7 9 0 0.80624217
Link 5 7 10 0 -0.16169514
Link 1 8 11 0 0.11632286
Link 2 8 12 0 0.45709004
Link 3 8 13 0 0.28336988
Link 4 8 14 0 0.20126193
Link 5 8 15 0 0.02209602
Link 1 9 16 0 -0.29991677
Link 2 9 17 0 0.05394542
Link 3 9 18 0 -0.14235442
Link 4 9 19 0 -0.13756619
Link 5 9 20 0 0.26982177
Link 1 10 21 0 -0.05002711
Link 2 10 22 0 -0.76163290
Link 3 10 23 0 -0.56297151
Link 4 10 24 0 0.20707305
Link 5 10 25 0 -0.25917906
Link 1 11 26 0 -0.51223618
Link 2 11 27 0 -0.40293572
Link 3 11 28 0 0.27146667
Link 4 11 29 0 0.40511937
Link 5 11 30 0 -0.26538027
GenomeEnd

