GenomeStart 4
Neuron 1 1 0.00000000 1 0.00000000 0.00000000 0.00000000 0.00000000
Neuron 2 1 0.00000000 1 0.00000000 0.00000000 0.00000000 0.00000000
Neuron 3 1 0.00000000 1 0.00000000 0.00000000 0.00000000 0.00000000
Neuron 4 1 0.00000000 1 0.00000000 0.00000000 0.00000000 0.00000000
Neuron 5 2 0.00000000 1 0.00000000 0.00000000 0.00000000 0.00000000
Neuron 6 4 1.00000000 0 2.97942727 0.00000000 0.00000000 -0.76003321
Neuron 7 4 1.00000000 0 2.86460460 0.00000000 0.00000000 -0.68225278
Neuron 8 4 1.00000000 0 3.04699406 0.00000000 0.00000000 0.28239347
Neuron 9 4 1.00000000 0 3.02180782 0.00000000 0.00000000 -0.15822454
Neuron 10 4 1.00000000 0 3.37472167 0.00000000 0.00000000 -0.11714377
Neuron 11 4 1.00000000 9 3.04218202 0.00000000 0.00000000 0.56551850
Link 1 6 1 0 -0.38698774
Link 2 6 2 0 0.44076711
Link 3 6 3 0 -0.12454012
Link 4 6 4 0 0.50348045
Link 5 6 5 0 -0.08479903
Link 1 7 6 0 0.18268440
Link 2 7 7 0 0.40066194
Link 3 7 8 0 -0.31057006
Link 4 7 9 0 -0.41598882
Link 5 7 10 0 -0.10030428
Link 1 8 11 0 -0.08831973
Link 2 8 12 0 -0.20083859
Link 3 8 13 0 0.13833024
Link 4 8 14 0 0.10462874
Link 5 8 15 0 -0.58024955
Link 1 9 16 0 0.82933205
Link 2 9 17 0 0.37512108
Link 3 9 18 0 -0.37625601
Link 4 9 19 0 0.12395155
Link 5 9 20 0 -0.09926127
Link 1 10 21 0 0.37749017
Link 2 10 22 0 -0.07380186
Link 3 10 23 0 -0.37965585
Link 4 10 24 0 0.33731327
Link 5 10 25 0 0.08008037
Link 1 11 26 0 0.13001673
Link 2 11 27 0 -0.20576374
Link 3 11 28 0 0.20764924
Link 4 11 29 0 -0.13399170
Link 5 11 30 0 -0.83368411
GenomeEnd

