GenomeStart 8
Neuron 1 1 0.00000000 1 0.00000000 0.00000000 0.00000000 0.00000000
Neuron 2 1 0.00000000 1 0.00000000 0.00000000 0.00000000 0.00000000
Neuron 3 1 0.00000000 1 0.00000000 0.00000000 0.00000000 0.00000000
Neuron 4 1 0.00000000 1 0.00000000 0.00000000 0.00000000 0.00000000
Neuron 5 2 0.00000000 1 0.00000000 0.00000000 0.00000000 0.00000000
Neuron 6 4 1.00000000 0 3.19317910 0.00000000 0.00000000 -0.25865250
Neuron 7 4 1.00000000 0 3.11295778 0.00000000 0.00000000 0.21917510
Neuron 8 4 1.00000000 9 2.58707001 0.00000000 0.00000000 -0.51920549
Neuron 9 4 1.00000000 0 3.11470191 0.00000000 0.00000000 0.54463753
Neuron 10 4 1.00000000 0 3.03103430 0.00000000 0.00000000 -0.71601955
Neuron 11 4 1.00000000 0 2.98990198 0.00000000 0.00000000 -0.50394555
Link 1 6 1 0 -0.30898805
Link 2 6 2 0 0.12523959
Link 3 6 3 0 -0.56412845
Link 4 6 4 0 -0.05971364
Link 5 6 5 0 -0.27294804
Link 1 7 6 0 0.32696112
Link 2 7 7 0 -0.24422278
Link 3 7 8 0 -0.76997515
Link 4 7 9 0 0.69564905
Link 5 7 10 0 -0.03100248
Link 1 8 11 0 -0.39421503
Link 2 8 12 0 0.69439630
Link 3 8 13 0 0.43414888
Link 4 8 14 0 0.82803282
Link 5 8 15 0 0.52724556
Link 1 9 16 0 0.48961724
Link 2 9 17 0 0.02590278
Link 3 9 18 0 0.09845554
Link 4 9 19 0 -0.01322710
Link 5 9 20 0 0.44416012
Link 1 10 21 0 -0.50129134
Link 2 10 22 0 0.23326591
Link 3 10 23 0 -0.07177634
Link 4 10 24 0 0.11916336
Link 5 10 25 0 -0.40718036
Link 1 11 26 0 -0.21935311
Link 2 11 27 0 -0.31693938
Link 3 11 28 0 0.07553228
Link 4 11 29 0 0.01682206
Link 5 11 30 0 -0.20255813
GenomeEnd

