GenomeStart 1
Neuron 1 1 0.00000000 1 0.00000000 0.00000000 0.00000000 0.00000000
Neuron 2 1 0.00000000 1 0.00000000 0.00000000 0.00000000 0.00000000
Neuron 3 1 0.00000000 1 0.00000000 0.00000000 0.00000000 0.00000000
Neuron 4 1 0.00000000 1 0.00000000 0.00000000 0.00000000 0.00000000
Neuron 5 2 0.00000000 1 0.00000000 0.00000000 0.00000000 0.00000000
Neuron 6 4 1.00000000 0 3.06003357 0.00000000 0.00000000 -0.91618444
Neuron 7 4 1.00000000 0 2.84268847 0.00000000 0.00000000 0.13405416
Neuron 8 4 1.00000000 0 3.31736112 0.00000000 0.00000000 0.35658402
Neuron 9 4 1.00000000 0 3.04677002 0.00000000 0.00000000 -0.26852625
Neuron 10 4 1.00000000 0 3.05881753 0.00000000 0.00000000 -0.19648323
Neuron 11 4 1.00000000 9 3.04659868 0.00000000 0.00000000 0.31751072
Link 1 6 1 0 -0.02852624
Link 2 6 2 0 -0.10974088
Link 3 6 3 0 -0.57353293
Link 4 6 4 0 -0.10140327
Link 5 6 5 0 0.37126714
Link 1 7 6 0 -0.11376732
Link 2 7 7 0 -0.08807663
Link 3 7 8 0 0.57612646
Link 4 7 9 0 0.88276403
Link 5 7 10 0 0.29176529
Link 1 8 11 0 -0.20198904
Link 2 8 12 0 -0.83977665
Link 3 8 13 0 -0.20867911
Link 4 8 14 0 0.42066126
Link 5 8 15 0 0.11092350
Link 1 9 16 0 -0.58419824
Link 2 9 17 0 -0.28540619
Link 3 9 18 0 0.44082793
Link 4 9 19 0 0.27416523
Link 5 9 20 0 -0.46758077
Link 1 10 21 0 -0.37474701
Link 2 10 22 0 -0.61880810
Link 3 10 23 0 0.09033919
Link 4 10 24 0 -0.51987912
Link 5 10 25 0 0.69534118
Link 1 11 26 0 0.02281932
Link 2 11 27 0 -0.77606620
Link 3 11 28 0 -0.15895350
Link 4 11 29 0 0.38360584
Link 5 11 30 0 -0.38107088
GenomeEnd

