GenomeStart 0
Neuron 1 1 0.00000000 1 0.00000000 0.00000000 0.00000000 0.00000000
Neuron 2 1 0.00000000 1 0.00000000 0.00000000 0.00000000 0.00000000
Neuron 3 1 0.00000000 1 0.00000000 0.00000000 0.00000000 0.00000000
Neuron 4 1 0.00000000 1 0.00000000 0.00000000 0.00000000 0.00000000
Neuron 5 2 0.00000000 1 0.00000000 0.00000000 0.00000000 0.00000000
Neuron 6 4 1.00000000 0 2.77607638 0.00000000 0.00000000 -0.08305351
Neuron 7 4 1.00000000 0 2.79915810 0.00000000 0.00000000 -0.19985213
Neuron 8 4 1.00000000 4 3.05919903 0.00000000 0.00000000 -0.24250396
Neuron 9 4 1.00000000 0 2.92594188 0.00000000 0.00000000 -0.02321667
Neuron 10 4 1.00000000 0 3.12269789 0.00000000 0.00000000 -0.01703465
Neuron 11 4 1.00000000 0 2.93223740 0.00000000 0.00000000 -0.32266192
Link 1 6 1 0 0.29831850
Link 2 6 2 0 -0.08674575
Link 3 6 3 0 -0.31828959
Link 4 6 4 0 0.27994974
Link 5 6 5 0 0.47171351
Link 1 7 6 0 -0.38642103
Link 2 7 7 0 -0.30896490
Link 3 7 8 0 0.33368869
Link 4 7 9 0 -0.61129320
Link 5 7 10 0 0.03725127
Link 1 8 11 0 0.57076239
Link 2 8 12 0 -0.15621329
Link 3 8 13 0 -0.61981640
Link 4 8 14 0 0.02584545
Link 5 8 15 0 0.13909091
Link 1 9 16 0 0.12578712
Link 2 9 17 0 0.29225297
Link 3 9 18 0 0.69020123
Link 4 9 19 0 -0.42113926
Link 5 9 20 0 -0.17349199
Link 1 10 21 0 0.68275901
Link 2 10 22 0 0.45342148
Link 3 10 23 0 0.12806670
Link 4 10 24 0 -0.41926223
Link 5 10 25 0 0.34843682
Link 1 11 26 0 0.19048216
Link 2 11 27 0 -0.36604325
Link 3 11 28 0 -0.18846895
Link 4 11 29 0 0.27850428
Link 5 11 30 0 -0.16799695
GenomeEnd

