GenomeStart 6
Neuron 1 1 0.00000000 1 0.00000000 0.00000000 0.00000000 0.00000000
Neuron 2 1 0.00000000 1 0.00000000 0.00000000 0.00000000 0.00000000
Neuron 3 1 0.00000000 1 0.00000000 0.00000000 0.00000000 0.00000000
Neuron 4 1 0.00000000 1 0.00000000 0.00000000 0.00000000 0.00000000
Neuron 5 2 0.00000000 1 0.00000000 0.00000000 0.00000000 0.00000000
Neuron 6 4 1.00000000 0 2.96494084 0.00000000 0.00000000 0.56171088
Neuron 7 4 1.00000000 2 2.85002678 0.00000000 0.00000000 0.81872512
Neuron 8 4 1.00000000 0 3.20694521 0.00000000 0.00000000 -0.71556325
Neuron 9 4 1.00000000 0 3.05479565 0.00000000 0.00000000 0.35612999
Neuron 10 4 1.00000000 0 3.17463620 0.00000000 0.00000000 -0.30217930
Neuron 11 4 1.00000000 0 3.23175990 0.00000000 0.00000000 0.17070086
Link 1 6 1 0 -0.40856710
Link 2 6 2 0 -0.42745651
Link 3 6 3 0 -0.53463099
Link 4 6 4 0 -0.22708806
Link 5 6 5 0 -0.30977728
Link 1 7 6 0 -0.46472812
Link 2 7 7 0 0.15819056
Link 3 7 8 0 -0.71764782
Link 4 7 9 0 0.10936884
Link 5 7 10 0 -0.56002344
Link 1 8 11 0 -0.52286004
Link 2 8 12 0 -0.07572638
Link 3 8 13 0 -0.29866790
Link 4 8 14 0 0.15236285
Link 5 8 15 0 0.09826622
Link 1 9 16 0 0.66019786
Link 2 9 17 0 0.26026809
Link 3 9 18 0 -0.12080546
Link 4 9 19 0 -0.02083778
Link 5 9 20 0 -0.18603325
Link 1 10 21 0 0.42956695
Link 2 10 22 0 -0.36031128
Link 3 10 23 0 0.24387605
Link 4 10 24 0 0.23483355
Link 5 10 25 0 -0.36016498
Link 1 11 26 0 -0.16995033
Link 2 11 27 0 0.07692855
Link 3 11 28 0 0.15039579
Link 4 11 29 0 -0.28347267
Link 5 11 30 0 0.09457288
GenomeEnd

