GenomeStart 1
Neuron 1 1 0.00000000 1 0.00000000 0.00000000 0.00000000 0.00000000
Neuron 2 1 0.00000000 1 0.00000000 0.00000000 0.00000000 0.00000000
Neuron 3 1 0.00000000 1 0.00000000 0.00000000 0.00000000 0.00000000
Neuron 4 1 0.00000000 1 0.00000000 0.00000000 0.00000000 0.00000000
Neuron 5 2 0.00000000 1 0.00000000 0.00000000 0.00000000 0.00000000
Neuron 6 4 1.00000000 0 3.02180978 0.00000000 0.00000000 0.02453795
Neuron 7 4 1.00000000 0 2.94755614 0.00000000 0.00000000 -0.74674687
Neuron 8 4 1.00000000 0 2.97843978 0.00000000 0.00000000 0.56195818
Neuron 9 4 1.00000000 9 3.28921366 0.00000000 0.00000000 0.17149385
Neuron 10 4 1.00000000 0 3.12843821 0.00000000 0.00000000 0.19951861
Neuron 11 4 1.00000000 0 3.27575375 0.00000000 0.00000000 0.19976186
Link 1 6 1 0 0.34224672
Link 2 6 2 0 0.34419627
Link 3 6 3 0 -0.69132895
Link 4 6 4 0 -0.44988891
Link 5 6 5 0 0.67122094
Link 1 7 6 0 0.16694315
Link 2 7 7 0 0.54264183
Link 3 7 8 0 -0.34217927
Link 4 7 9 0 -0.66227602
Link 5 7 10 0 0.23588244
Link 1 8 11 0 -0.85782343
Link 2 8 12 0 -0.24974930
Link 3 8 13 0 0.03844681
Link 4 8 14 0 0.26296389
Link 5 8 15 0 0.75547234
Link 1 9 16 0 -0.16778132
Link 2 9 17 0 -0.13910057
Link 3 9 18 0 0.72957961
Link 4 9 19 0 -0.16226956
Link 5 9 20 0 -0.61626054
Link 1 10 21 0 -0.58637466
Link 2 10 22 0 0.18743098
Link 3 10 23 0 -0.37973538
Link 4 10 24 0 0.65163776
Link 5 10 25 0 0.32946506
Link 1 11 26 0 0.39866426
Link 2 11 27 0 0.20453352
Link 3 11 28 0 -0.14810916
Link 4 11 29 0 -0.31537136
Link 5 11 30 0 0.39089508
GenomeEnd

