GenomeStart 0
Neuron 1 1 0.00000000 1 0.00000000 0.00000000 0.00000000 0.00000000
Neuron 2 1 0.00000000 1 0.00000000 0.00000000 0.00000000 0.00000000
Neuron 3 1 0.00000000 1 0.00000000 0.00000000 0.00000000 0.00000000
Neuron 4 1 0.00000000 1 0.00000000 0.00000000 0.00000000 0.00000000
Neuron 5 2 0.00000000 1 0.00000000 0.00000000 0.00000000 0.00000000
Neuron 6 4 1.00000000 0 2.61688040 0.00000000 0.00000000 -0.30067065
Neuron 7 4 1.00000000 0 2.95273480 0.00000000 0.00000000 -0.49277480
Neuron 8 4 1.00000000 0 3.23333363 0.00000000 0.00000000 0.00854979
Neuron 9 4 1.00000000 0 2.98853321 0.00000000 0.00000000 0.41717666
Neuron 10 4 1.00000000 9 3.21549195 0.00000000 0.00000000 -0.23483827
Neuron 11 4 1.00000000 0 2.66491627 0.00000000 0.00000000 -0.02274836
Link 1 6 1 0 -0.07962434
Link 2 6 2 0 0.11312969
Link 3 6 3 0 0.20853486
Link 4 6 4 0 -0.42652188
Link 5 6 5 0 -0.06034355
Link 1 7 6 0 -0.66840920
Link 2 7 7 0 -0.55817761
Link 3 7 8 0 0.34202840
Link 4 7 9 0 -0.05844976
Link 5 7 10 0 -0.22048349
Link 1 8 11 0 0.06400813
Link 2 8 12 0 0.56486423
Link 3 8 13 0 0.03701480
Link 4 8 14 0 0.57033319
Link 5 8 15 0 0.56219341
Link 1 9 16 0 0.04675731
Link 2 9 17 0 -0.73982515
Link 3 9 18 0 0.15545016
Link 4 9 19 0 -0.23212892
Link 5 9 20 0 -0.51546683
Link 1 10 21 0 0.76516523
Link 2 10 22 0 0.46533786
Link 3 10 23 0 0.05988714
Link 4 10 24 0 0.50421164
Link 5 10 25 0 -0.54976965
Link 1 11 26 0 0.30953244
Link 2 11 27 0 -0.44236578
Link 3 11 28 0 0.21573230
Link 4 11 29 0 -0.29719450
Link 5 11 30 0 0.03674663
GenomeEnd

