GenomeStart 6
Neuron 1 1 0.00000000 1 0.00000000 0.00000000 0.00000000 0.00000000
Neuron 2 1 0.00000000 1 0.00000000 0.00000000 0.00000000 0.00000000
Neuron 3 1 0.00000000 1 0.00000000 0.00000000 0.00000000 0.00000000
Neuron 4 1 0.00000000 1 0.00000000 0.00000000 0.00000000 0.00000000
Neuron 5 2 0.00000000 1 0.00000000 0.00000000 0.00000000 0.00000000
Neuron 6 4 1.00000000 0 3.29392847 0.00000000 0.00000000 -0.00898923
Neuron 7 4 1.00000000 0 3.37019607 0.00000000 0.00000000 -0.41316629
Neuron 8 4 1.00000000 2 2.62891016 0.00000000 0.00000000 0.07096603
Neuron 9 4 1.00000000 0 2.68895212 0.00000000 0.00000000 -0.14633883
Neuron 10 4 1.00000000 0 3.33742410 0.00000000 0.00000000 -0.61769816
Neuron 11 4 1.00000000 0 2.95125640 0.00000000 0.00000000 -0.19236735
Link 1 6 1 0 0.18954559
Link 2 6 2 0 0.26850603
Link 3 6 3 0 0.05065795
Link 4 6 4 0 -0.08235797
Link 5 6 5 0 0.02206339
Link 1 7 6 0 0.08998018
Link 2 7 7 0 -0.44115238
Link 3 7 8 0 -0.01190286
Link 4 7 9 0 0.90958682
Link 5 7 10 0 -0.10231086
Link 1 8 11 0 -0.04805986
Link 2 8 12 0 0.34940016
Link 3 8 13 0 -0.31298455
Link 4 8 14 0 -0.47428482
Link 5 8 15 0 -0.14371809
Link 1 9 16 0 -0.39829323
Link 2 9 17 0 0.40656011
Link 3 9 18 0 -0.02586947
Link 4 9 19 0 0.04972822
Link 5 9 20 0 0.24917075
Link 1 10 21 0 0.44040254
Link 2 10 22 0 0.06286481
Link 3 10 23 0 0.03768713
Link 4 10 24 0 -0.22887064
Link 5 10 25 0 0.20944836
Link 1 11 26 0 -0.45517921
Link 2 11 27 0 0.58827949
Link 3 11 28 0 0.14915804
Link 4 11 29 0 -0.62766923
Link 5 11 30 0 0.28822027
GenomeEnd

