GenomeStart 0
Neuron 1 1 0.00000000 1 0.00000000 0.00000000 0.00000000 0.00000000
Neuron 2 1 0.00000000 1 0.00000000 0.00000000 0.00000000 0.00000000
Neuron 3 1 0.00000000 1 0.00000000 0.00000000 0.00000000 0.00000000
Neuron 4 1 0.00000000 1 0.00000000 0.00000000 0.00000000 0.00000000
Neuron 5 2 0.00000000 1 0.00000000 0.00000000 0.00000000 0.00000000
Neuron 6 4 1.00000000 0 3.42332395 0.00000000 0.00000000 0.69107368
Neuron 7 4 1.00000000 0 3.41853449 0.00000000 0.00000000 -0.07554349
Neuron 8 4 1.00000000 0 3.08754160 0.00000000 0.00000000 -0.27359084
Neuron 9 4 1.00000000 0 3.26209478 0.00000000 0.00000000 0.10711227
Neuron 10 4 1.00000000 0 3.05200606 0.00000000 0.00000000 -0.37735508
Neuron 11 4 1.00000000 11 3.01486174 0.00000000 0.00000000 0.40559689
Link 1 6 1 0 0.19551081
Link 2 6 2 0 -0.55554830
Link 3 6 3 0 -0.25056944
Link 4 6 4 0 0.10011264
Link 5 6 5 0 -0.28894811
Link 1 7 6 0 -0.07872463
Link 2 7 7 0 -0.17638851
Link 3 7 8 0 0.25881784
Link 4 7 9 0 -0.46205534
Link 5 7 10 0 0.38767985
Link 1 8 11 0 -0.58928642
Link 2 8 12 0 0.05638346
Link 3 8 13 0 0.05488949
Link 4 8 14 0 -0.13035479
Link 5 8 15 0 0.89749065
Link 1 9 16 0 -0.79325634
Link 2 9 17 0 -0.22432602
Link 3 9 18 0 0.16209036
Link 4 9 19 0 0.34395078
Link 5 9 20 0 0.21842092
Link 1 10 21 0 0.14846733
Link 2 10 22 0 0.00754913
Link 3 10 23 0 -0.40922027
Link 4 10 24 0 0.08368403
Link 5 10 25 0 -0.74509696
Link 1 11 26 0 0.35163777
Link 2 11 27 0 -0.06794512
Link 3 11 28 0 -0.62614889
Link 4 11 29 0 -0.53785617
Link 5 11 30 0 0.20763033
GenomeEnd

