GenomeStart 6
Neuron 1 1 0.00000000 1 0.00000000 0.00000000 0.00000000 0.00000000
Neuron 2 1 0.00000000 1 0.00000000 0.00000000 0.00000000 0.00000000
Neuron 3 1 0.00000000 1 0.00000000 0.00000000 0.00000000 0.00000000
Neuron 4 1 0.00000000 1 0.00000000 0.00000000 0.00000000 0.00000000
Neuron 5 2 0.00000000 1 0.00000000 0.00000000 0.00000000 0.00000000
Neuron 6 4 1.00000000 0 3.25648784 0.00000000 0.00000000 0.65721723
Neuron 7 4 1.00000000 0 2.91345000 0.00000000 0.00000000 -0.27358566
Neuron 8 4 1.00000000 2 3.01604619 0.00000000 0.00000000 -0.01990874
Neuron 9 4 1.00000000 0 2.55606390 0.00000000 0.00000000 0.20071283
Neuron 10 4 1.00000000 0 3.19213690 0.00000000 0.00000000 -0.35638733
Neuron 11 4 1.00000000 0 3.10021074 0.00000000 0.00000000 0.06047591
Link 1 6 1 0 0.87441667
Link 2 6 2 0 -0.34219566
Link 3 6 3 0 0.57751899
Link 4 6 4 0 0.35151511
Link 5 6 5 0 0.11213946
Link 1 7 6 0 0.02222723
Link 2 7 7 0 0.83796587
Link 3 7 8 0 -0.08629864
Link 4 7 9 0 -0.19340178
Link 5 7 10 0 0.29296117
Link 1 8 11 0 -0.19474907
Link 2 8 12 0 -0.12575114
Link 3 8 13 0 0.09395969
Link 4 8 14 0 0.12774499
Link 5 8 15 0 -0.36044249
Link 1 9 16 0 -0.82080346
Link 2 9 17 0 0.11028956
Link 3 9 18 0 -0.00124111
Link 4 9 19 0 -0.02693829
Link 5 9 20 0 -0.65932502
Link 1 10 21 0 0.03204539
Link 2 10 22 0 -0.23189703
Link 3 10 23 0 -0.30585294
Link 4 10 24 0 0.10767055
Link 5 10 25 0 -0.64681206
Link 1 11 26 0 0.51539106
Link 2 11 27 0 -0.88752766
Link 3 11 28 0 -0.71209170
Link 4 11 29 0 -0.16067767
Link 5 11 30 0 0.62787935
GenomeEnd

