GenomeStart 8
Neuron 1 1 0.00000000 1 0.00000000 0.00000000 0.00000000 0.00000000
Neuron 2 1 0.00000000 1 0.00000000 0.00000000 0.00000000 0.00000000
Neuron 3 1 0.00000000 1 0.00000000 0.00000000 0.00000000 0.00000000
Neuron 4 1 0.00000000 1 0.00000000 0.00000000 0.00000000 0.00000000
Neuron 5 2 0.00000000 1 0.00000000 0.00000000 0.00000000 0.00000000
Neuron 6 4 1.00000000 0 3.24878516 0.00000000 0.00000000 -0.06742276
Neuron 7 4 1.00000000 0 3.06090763 0.00000000 0.00000000 0.12057994
Neuron 8 4 1.00000000 6 3.30023143 0.00000000 0.00000000 -0.32543691
Neuron 9 4 1.00000000 0 2.71160240 0.00000000 0.00000000 -0.73453161
Neuron 10 4 1.00000000 0 2.61704128 0.00000000 0.00000000 0.21084722
Neuron 11 4 1.00000000 0 2.90512520 0.00000000 0.00000000 -0.23413150
Link 1 6 1 0 0.21597233
Link 2 6 2 0 -0.75490065
Link 3 6 3 0 -0.51638540
Link 4 6 4 0 0.02442797
Link 5 6 5 0 -0.14580231
Link 1 7 6 0 0.34877766
Link 2 7 7 0 0.03893552
Link 3 7 8 0 -0.11892097
Link 4 7 9 0 -0.22385634
Link 5 7 10 0 0.33064836
Link 1 8 11 0 -0.03879414
Link 2 8 12 0 -0.35556687
Link 3 8 13 0 0.28832822
Link 4 8 14 0 0.91553430
Link 5 8 15 0 0.55858978
Link 1 9 16 0 -0.59768509
Link 2 9 17 0 0.32999734
Link 3 9 18 0 0.11678974
Link 4 9 19 0 -0.14964251
Link 5 9 20 0 0.31092202
Link 1 10 21 0 0.24375293
Link 2 10 22 0 0.74254352
Link 3 10 23 0 0.07428422
Link 4 10 24 0 0.43572978
Link 5 10 25 0 -0.14932470
Link 1 11 26 0 0.52615250
Link 2 11 27 0 -0.10378188
Link 3 11 28 0 0.32613592
Link 4 11 29 0 -0.15959999
Link 5 11 30 0 -0.49134099
GenomeEnd

