GenomeStart 0
Neuron 1 1 0.00000000 1 0.00000000 0.00000000 0.00000000 0.00000000
Neuron 2 1 0.00000000 1 0.00000000 0.00000000 0.00000000 0.00000000
Neuron 3 1 0.00000000 1 0.00000000 0.00000000 0.00000000 0.00000000
Neuron 4 1 0.00000000 1 0.00000000 0.00000000 0.00000000 0.00000000
Neuron 5 2 0.00000000 1 0.00000000 0.00000000 0.00000000 0.00000000
Neuron 6 4 1.00000000 0 2.68340052 0.00000000 0.00000000 0.43310218
Neuron 7 4 1.00000000 4 3.39813903 0.00000000 0.00000000 0.30222311
Neuron 8 4 1.00000000 0 3.06120792 0.00000000 0.00000000 0.36618269
Neuron 9 4 1.00000000 0 2.89488513 0.00000000 0.00000000 -0.28249159
Neuron 10 4 1.00000000 0 3.03869315 0.00000000 0.00000000 0.56632437
Neuron 11 4 1.00000000 0 3.14573418 0.00000000 0.00000000 -0.27181535
Link 1 6 1 0 0.20467097
Link 2 6 2 0 -0.45229433
Link 3 6 3 0 0.05547488
Link 4 6 4 0 -0.05425548
Link 5 6 5 0 0.49071665
Link 1 7 6 0 -0.33807711
Link 2 7 7 0 0.54936751
Link 3 7 8 0 -0.25734042
Link 4 7 9 0 0.00915895
Link 5 7 10 0 -0.42010349
Link 1 8 11 0 0.03893275
Link 2 8 12 0 -0.30934034
Link 3 8 13 0 -0.61836191
Link 4 8 14 0 -0.01494500
Link 5 8 15 0 -0.31477964
Link 1 9 16 0 -0.19108525
Link 2 9 17 0 0.39832626
Link 3 9 18 0 -0.26780759
Link 4 9 19 0 -0.09548590
Link 5 9 20 0 -0.51784479
Link 1 10 21 0 0.14076037
Link 2 10 22 0 -0.19272379
Link 3 10 23 0 0.00632583
Link 4 10 24 0 0.45377674
Link 5 10 25 0 -0.12897011
Link 1 11 26 0 0.92881096
Link 2 11 27 0 0.55650720
Link 3 11 28 0 0.93128788
Link 4 11 29 0 -0.50433137
Link 5 11 30 0 0.40731501
GenomeEnd

