GenomeStart 8
Neuron 1 1 0.00000000 1 0.00000000 0.00000000 0.00000000 0.00000000
Neuron 2 1 0.00000000 1 0.00000000 0.00000000 0.00000000 0.00000000
Neuron 3 1 0.00000000 1 0.00000000 0.00000000 0.00000000 0.00000000
Neuron 4 1 0.00000000 1 0.00000000 0.00000000 0.00000000 0.00000000
Neuron 5 2 0.00000000 1 0.00000000 0.00000000 0.00000000 0.00000000
Neuron 6 4 1.00000000 0 3.27862142 0.00000000 0.00000000 0.79005801
Neuron 7 4 1.00000000 0 2.88608772 0.00000000 0.00000000 -0.14462717
Neuron 8 4 1.00000000 0 3.03026009 0.00000000 0.00000000 -0.25768934
Neuron 9 4 1.00000000 0 3.07127006 0.00000000 0.00000000 -0.46641860
Neuron 10 4 1.00000000 0 3.06418442 0.00000000 0.00000000 0.44169035
Neuron 11 4 1.00000000 6 3.25214919 0.00000000 0.00000000 0.42062463
Link 1 6 1 0 -0.51645806
Link 2 6 2 0 0.21986068
Link 3 6 3 0 0.42851804
Link 4 6 4 0 -0.23217003
Link 5 6 5 0 -0.21360500
Link 1 7 6 0 -0.11089990
Link 2 7 7 0 -0.22945993
Link 3 7 8 0 0.24429394
Link 4 7 9 0 0.56098221
Link 5 7 10 0 0.06601998
Link 1 8 11 0 -0.12244392
Link 2 8 12 0 -0.17205928
Link 3 8 13 0 0.67878368
Link 4 8 14 0 -0.03190729
Link 5 8 15 0 -0.95341682
Link 1 9 16 0 0.52715768
Link 2 9 17 0 -0.17922145
Link 3 9 18 0 -0.40649448
Link 4 9 19 0 -0.06175668
Link 5 9 20 0 -0.30835149
Link 1 10 21 0 0.37162345
Link 2 10 22 0 0.08239766
Link 3 10 23 0 0.29221090
Link 4 10 24 0 -0.10862508
Link 5 10 25 0 0.57666889
Link 1 11 26 0 0.12832651
Link 2 11 27 0 -0.00419454
Link 3 11 28 0 -0.79814840
Link 4 11 29 0 -0.47137527
Link 5 11 30 0 0.01340152
GenomeEnd

