GenomeStart 6
Neuron 1 1 0.00000000 1 0.00000000 0.00000000 0.00000000 0.00000000
Neuron 2 1 0.00000000 1 0.00000000 0.00000000 0.00000000 0.00000000
Neuron 3 1 0.00000000 1 0.00000000 0.00000000 0.00000000 0.00000000
Neuron 4 1 0.00000000 1 0.00000000 0.00000000 0.00000000 0.00000000
Neuron 5 2 0.00000000 1 0.00000000 0.00000000 0.00000000 0.00000000
Neuron 6 4 1.00000000 0 3.34690167 0.00000000 0.00000000 0.14023525
Neuron 7 4 1.00000000 0 3.02254041 0.00000000 0.00000000 0.40446090
Neuron 8 4 1.00000000 0 2.94608753 0.00000000 0.00000000 -0.40676637
Neuron 9 4 1.00000000 0 3.02360674 0.00000000 0.00000000 -0.11962807
Neuron 10 4 1.00000000 2 2.66683161 0.00000000 0.00000000 0.12427739
Neuron 11 4 1.00000000 0 3.11497925 0.00000000 0.00000000 -0.45464907
Link 1 6 1 0 0.30616230
Link 2 6 2 0 -0.22199832
Link 3 6 3 0 -0.02767115
Link 4 6 4 0 0.17643889
Link 5 6 5 0 -0.00925926
Link 1 7 6 0 0.53673576
Link 2 7 7 0 0.70137695
Link 3 7 8 0 -0.37645635
Link 4 7 9 0 0.70022691
Link 5 7 10 0 -0.11787891
Link 1 8 11 0 0.06476773
Link 2 8 12 0 0.00541801
Link 3 8 13 0 0.52590548
Link 4 8 14 0 -0.79092789
Link 5 8 15 0 0.11703833
Link 1 9 16 0 0.69378018
Link 2 9 17 0 0.19191290
Link 3 9 18 0 -0.34962486
Link 4 9 19 0 0.45172296
Link 5 9 20 0 -0.04354920
Link 1 10 21 0 -0.42204110
Link 2 10 22 0 0.05310686
Link 3 10 23 0 0.34858663
Link 4 10 24 0 0.24688888
Link 5 10 25 0 0.06242587
Link 1 11 26 0 -0.29952844
Link 2 11 27 0 0.63048451
Link 3 11 28 0 -0.42956992
Link 4 11 29 0 -0.16016308
Link 5 11 30 0 -0.00934629
GenomeEnd

