GenomeStart 1
Neuron 1 1 0.00000000 1 0.00000000 0.00000000 0.00000000 0.00000000
Neuron 2 1 0.00000000 1 0.00000000 0.00000000 0.00000000 0.00000000
Neuron 3 1 0.00000000 1 0.00000000 0.00000000 0.00000000 0.00000000
Neuron 4 1 0.00000000 1 0.00000000 0.00000000 0.00000000 0.00000000
Neuron 5 2 0.00000000 1 0.00000000 0.00000000 0.00000000 0.00000000
Neuron 6 4 1.00000000 6 3.24479984 0.00000000 0.00000000 -0.36405980
Neuron 7 4 1.00000000 0 3.00745634 0.00000000 0.00000000 -0.08397928
Neuron 8 4 1.00000000 0 2.81449157 0.00000000 0.00000000 0.01781820
Neuron 9 4 1.00000000 0 3.21796260 0.00000000 0.00000000 0.03164841
Neuron 10 4 1.00000000 0 2.85448825 0.00000000 0.00000000 0.05197482
Neuron 11 4 1.00000000 0 3.08528137 0.00000000 0.00000000 0.40287326
Link 1 6 1 0 -0.27471317
Link 2 6 2 0 -0.32918318
Link 3 6 3 0 -0.50843067
Link 4 6 4 0 -0.68561375
Link 5 6 5 0 -0.32969324
Link 1 7 6 0 0.71685139
Link 2 7 7 0 -0.39818872
Link 3 7 8 0 0.26354883
Link 4 7 9 0 0.56519235
Link 5 7 10 0 0.12983773
Link 1 8 11 0 -0.35696515
Link 2 8 12 0 0.02645586
Link 3 8 13 0 0.45650411
Link 4 8 14 0 0.65237450
Link 5 8 15 0 0.07925599
Link 1 9 16 0 -0.56389037
Link 2 9 17 0 0.80567075
Link 3 9 18 0 -0.38105995
Link 4 9 19 0 -0.50806601
Link 5 9 20 0 -0.30556217
Link 1 10 21 0 0.48718088
Link 2 10 22 0 -0.58058366
Link 3 10 23 0 -0.36749149
Link 4 10 24 0 0.58189794
Link 5 10 25 0 0.11306170
Link 1 11 26 0 0.40772278
Link 2 11 27 0 0.47405549
Link 3 11 28 0 -0.51988786
Link 4 11 29 0 0.50974001
Link 5 11 30 0 -0.00303365
GenomeEnd

