GenomeStart 6
Neuron 1 1 0.00000000 1 0.00000000 0.00000000 0.00000000 0.00000000
Neuron 2 1 0.00000000 1 0.00000000 0.00000000 0.00000000 0.00000000
Neuron 3 1 0.00000000 1 0.00000000 0.00000000 0.00000000 0.00000000
Neuron 4 1 0.00000000 1 0.00000000 0.00000000 0.00000000 0.00000000
Neuron 5 2 0.00000000 1 0.00000000 0.00000000 0.00000000 0.00000000
Neuron 6 4 1.00000000 0 2.83935047 0.00000000 0.00000000 0.26566474
Neuron 7 4 1.00000000 6 2.99762803 0.00000000 0.00000000 0.31880650
Neuron 8 4 1.00000000 0 2.68750454 0.00000000 0.00000000 0.41151161
Neuron 9 4 1.00000000 0 2.94170272 0.00000000 0.00000000 0.08748939
Neuron 10 4 1.00000000 0 2.75712339 0.00000000 0.00000000 0.45365889
Neuron 11 4 1.00000000 0 3.12887857 0.00000000 0.00000000 -0.14823906
Link 1 6 1 0 -0.17003822
Link 2 6 2 0 0.16850531
Link 3 6 3 0 0.05588071
Link 4 6 4 0 0.03694769
Link 5 6 5 0 -0.63394478
Link 1 7 6 0 -0.25406831
Link 2 7 7 0 0.13929597
Link 3 7 8 0 -0.15606861
Link 4 7 9 0 -0.57676554
Link 5 7 10 0 0.55890817
Link 1 8 11 0 0.15411999
Link 2 8 12 0 -0.60834955
Link 3 8 13 0 0.44802468
Link 4 8 14 0 -0.06335343
Link 5 8 15 0 -0.08245119
Link 1 9 16 0 -0.22823907
Link 2 9 17 0 0.46885955
Link 3 9 18 0 0.15549577
Link 4 9 19 0 0.62659752
Link 5 9 20 0 0.30809550
Link 1 10 21 0 0.62284186
Link 2 10 22 0 0.15858509
Link 3 10 23 0 -0.22053966
Link 4 10 24 0 0.36558650
Link 5 10 25 0 0.26451305
Link 1 11 26 0 0.80028239
Link 2 11 27 0 -0.63764415
Link 3 11 28 0 -0.46717131
Link 4 11 29 0 0.74258909
Link 5 11 30 0 -0.05931887
GenomeEnd

