GenomeStart 9
Neuron 1 1 0.00000000 1 0.00000000 0.00000000 0.00000000 0.00000000
Neuron 2 1 0.00000000 1 0.00000000 0.00000000 0.00000000 0.00000000
Neuron 3 1 0.00000000 1 0.00000000 0.00000000 0.00000000 0.00000000
Neuron 4 1 0.00000000 1 0.00000000 0.00000000 0.00000000 0.00000000
Neuron 5 2 0.00000000 1 0.00000000 0.00000000 0.00000000 0.00000000
Neuron 6 4 1.00000000 0 3.00931703 0.00000000 0.00000000 0.52810318
Neuron 7 4 1.00000000 0 2.99087420 0.00000000 0.00000000 -0.04373707
Neuron 8 4 1.00000000 0 3.01015735 0.00000000 0.00000000 0.36491536
Neuron 9 4 1.00000000 0 2.95787764 0.00000000 0.00000000 0.22892364
Neuron 10 4 1.00000000 4 3.04299887 0.00000000 0.00000000 -0.51309516
Neuron 11 4 1.00000000 0 2.76392238 0.00000000 0.00000000 0.18104159
Link 1 6 1 0 0.10286254
Link 2 6 2 0 0.53947348
Link 3 6 3 0 -0.14188361
Link 4 6 4 0 0.17076942
Link 5 6 5 0 0.63716937
Link 1 7 6 0 0.06946476
Link 2 7 7 0 -0.25559217
Link 3 7 8 0 0.41634792
Link 4 7 9 0 0.38884822
Link 5 7 10 0 -0.01753135
Link 1 8 11 0 -0.47533606
Link 2 8 12 0 -0.08106238
Link 3 8 13 0 -0.22837828
Link 4 8 14 0 -0.95816330
Link 5 8 15 0 -0.53777430
Link 1 9 16 0 0.07402208
Link 2 9 17 0 -0.16403861
Link 3 9 18 0 -0.06237493
Link 4 9 19 0 -0.73489499
Link 5 9 20 0 -0.23338714
Link 1 10 21 0 -0.09085577
Link 2 10 22 0 0.37600598
Link 3 10 23 0 0.08909312
Link 4 10 24 0 -0.85856904
Link 5 10 25 0 -0.27438622
Link 1 11 26 0 -0.03354893
Link 2 11 27 0 -0.01380922
Link 3 11 28 0 0.13868675
Link 4 11 29 0 0.22702974
Link 5 11 30 0 -0.59761885
GenomeEnd

