GenomeStart 5
Neuron 1 1 0.00000000 1 0.00000000 0.00000000 0.00000000 0.00000000
Neuron 2 1 0.00000000 1 0.00000000 0.00000000 0.00000000 0.00000000
Neuron 3 1 0.00000000 1 0.00000000 0.00000000 0.00000000 0.00000000
Neuron 4 1 0.00000000 1 0.00000000 0.00000000 0.00000000 0.00000000
Neuron 5 2 0.00000000 1 0.00000000 0.00000000 0.00000000 0.00000000
Neuron 6 4 1.00000000 0 2.91157521 0.00000000 0.00000000 -0.71153903
Neuron 7 4 1.00000000 0 3.32737545 0.00000000 0.00000000 0.16015030
Neuron 8 4 1.00000000 0 2.77683624 0.00000000 0.00000000 -0.17068755
Neuron 9 4 1.00000000 11 3.31032008 0.00000000 0.00000000 0.27082494
Neuron 10 4 1.00000000 0 3.31417537 0.00000000 0.00000000 0.35301698
Neuron 11 4 1.00000000 0 3.23393313 0.00000000 0.00000000 -0.03912152
Link 1 6 1 0 0.63623394
Link 2 6 2 0 -0.31906715
Link 3 6 3 0 -0.20561229
Link 4 6 4 0 -0.26144211
Link 5 6 5 0 -0.22122477
Link 1 7 6 0 -0.30361247
Link 2 7 7 0 0.33548448
Link 3 7 8 0 0.18994022
Link 4 7 9 0 -0.55248624
Link 5 7 10 0 0.62857297
Link 1 8 11 0 -0.38701273
Link 2 8 12 0 -0.30695760
Link 3 8 13 0 -0.26433207
Link 4 8 14 0 -0.56322825
Link 5 8 15 0 0.67123001
Link 1 9 16 0 -0.18142873
Link 2 9 17 0 -0.29183711
Link 3 9 18 0 -0.43253018
Link 4 9 19 0 -0.48174455
Link 5 9 20 0 0.29460272
Link 1 10 21 0 -0.79479230
Link 2 10 22 0 0.43730005
Link 3 10 23 0 -0.16775640
Link 4 10 24 0 -0.11254813
Link 5 10 25 0 -0.51491373
Link 1 11 26 0 0.19427111
Link 2 11 27 0 -0.82123849
Link 3 11 28 0 0.05059898
Link 4 11 29 0 -0.17394020
Link 5 11 30 0 0.32099676
GenomeEnd

