GenomeStart 0
Neuron 1 1 0.00000000 1 0.00000000 0.00000000 0.00000000 0.00000000
Neuron 2 1 0.00000000 1 0.00000000 0.00000000 0.00000000 0.00000000
Neuron 3 1 0.00000000 1 0.00000000 0.00000000 0.00000000 0.00000000
Neuron 4 1 0.00000000 1 0.00000000 0.00000000 0.00000000 0.00000000
Neuron 5 2 0.00000000 1 0.00000000 0.00000000 0.00000000 0.00000000
Neuron 6 4 1.00000000 0 2.92301284 0.00000000 0.00000000 -0.06146083
Neuron 7 4 1.00000000 0 2.96612897 0.00000000 0.00000000 -0.24598170
Neuron 8 4 1.00000000 0 2.73148992 0.00000000 0.00000000 0.54623543
Neuron 9 4 1.00000000 4 3.07557082 0.00000000 0.00000000 0.36983620
Neuron 10 4 1.00000000 0 2.73692780 0.00000000 0.00000000 0.03387075
Neuron 11 4 1.00000000 0 2.82047753 0.00000000 0.00000000 -0.16008115
Link 1 6 1 0 0.29651455
Link 2 6 2 0 0.15575327
Link 3 6 3 0 0.33325619
Link 4 6 4 0 0.45820365
Link 5 6 5 0 0.49768666
Link 1 7 6 0 -0.65002415
Link 2 7 7 0 0.42398127
Link 3 7 8 0 -0.34487082
Link 4 7 9 0 0.05049966
Link 5 7 10 0 0.20742778
Link 1 8 11 0 0.19178050
Link 2 8 12 0 0.01259114
Link 3 8 13 0 -0.38051606
Link 4 8 14 0 -0.63031330
Link 5 8 15 0 0.57695163
Link 1 9 16 0 -0.63244647
Link 2 9 17 0 -0.02394099
Link 3 9 18 0 0.67558102
Link 4 9 19 0 0.25542806
Link 5 9 20 0 0.40641697
Link 1 10 21 0 -0.07938576
Link 2 10 22 0 0.37586090
Link 3 10 23 0 0.07127046
Link 4 10 24 0 -0.03200167
Link 5 10 25 0 0.22347683
Link 1 11 26 0 -0.37077244
Link 2 11 27 0 -0.63661816
Link 3 11 28 0 -0.24300520
Link 4 11 29 0 0.66928914
Link 5 11 30 0 -0.31391860
GenomeEnd

