GenomeStart 16
Neuron 1 1 0.00000000 1 0.00000000 0.00000000 0.00000000 0.00000000
Neuron 2 1 0.00000000 1 0.00000000 0.00000000 0.00000000 0.00000000
Neuron 3 1 0.00000000 1 0.00000000 0.00000000 0.00000000 0.00000000
Neuron 4 1 0.00000000 1 0.00000000 0.00000000 0.00000000 0.00000000
Neuron 5 2 0.00000000 1 0.00000000 0.00000000 0.00000000 0.00000000
Neuron 6 4 1.00000000 0 2.81931991 0.00000000 0.00000000 -0.22626574
Neuron 7 4 1.00000000 0 2.63837974 0.00000000 0.00000000 -0.58904579
Neuron 8 4 1.00000000 0 2.99490766 0.00000000 0.00000000 -0.26594626
Neuron 9 4 1.00000000 0 2.83453893 0.00000000 0.00000000 0.21912544
Neuron 10 4 1.00000000 0 3.28132283 0.00000000 0.00000000 0.48880389
Neuron 11 4 1.00000000 2 3.20845326 0.00000000 0.00000000 0.07402562
Link 1 6 1 0 0.35873795
Link 2 6 2 0 0.14484780
Link 3 6 3 0 -0.36846349
Link 4 6 4 0 -0.49105208
Link 5 6 5 0 -0.51026237
Link 1 7 6 0 -0.00422025
Link 2 7 7 0 0.81569113
Link 3 7 8 0 -0.50869704
Link 4 7 9 0 -0.65829503
Link 5 7 10 0 0.59408988
Link 1 8 11 0 0.43556705
Link 2 8 12 0 0.57639264
Link 3 8 13 0 -0.32576167
Link 4 8 14 0 0.13310698
Link 5 8 15 0 0.05969245
Link 1 9 16 0 0.51154173
Link 2 9 17 0 0.23351336
Link 3 9 18 0 -0.17992916
Link 4 9 19 0 0.91776763
Link 5 9 20 0 0.02284129
Link 1 10 21 0 0.28574008
Link 2 10 22 0 -0.40654603
Link 3 10 23 0 0.29247284
Link 4 10 24 0 0.72163165
Link 5 10 25 0 0.07577439
Link 1 11 26 0 -0.05878472
Link 2 11 27 0 -0.70515415
Link 3 11 28 0 -0.50485833
Link 4 11 29 0 0.35242564
Link 5 11 30 0 -0.07725087
GenomeEnd

