GenomeStart 7
Neuron 1 1 0.00000000 1 0.00000000 0.00000000 0.00000000 0.00000000
Neuron 2 1 0.00000000 1 0.00000000 0.00000000 0.00000000 0.00000000
Neuron 3 1 0.00000000 1 0.00000000 0.00000000 0.00000000 0.00000000
Neuron 4 1 0.00000000 1 0.00000000 0.00000000 0.00000000 0.00000000
Neuron 5 2 0.00000000 1 0.00000000 0.00000000 0.00000000 0.00000000
Neuron 6 4 1.00000000 0 2.66355756 0.00000000 0.00000000 0.21474863
Neuron 7 4 1.00000000 0 3.35980957 0.00000000 0.00000000 -0.20607935
Neuron 8 4 1.00000000 2 3.03675775 0.00000000 0.00000000 -0.70837204
Neuron 9 4 1.00000000 0 3.23322665 0.00000000 0.00000000 -0.13512379
Neuron 10 4 1.00000000 0 3.10629239 0.00000000 0.00000000 -0.48803660
Neuron 11 4 1.00000000 0 2.81011754 0.00000000 0.00000000 -0.18168583
Link 1 6 1 0 -0.50042838
Link 2 6 2 0 -0.26735350
Link 3 6 3 0 -0.41788238
Link 4 6 4 0 0.69731218
Link 5 6 5 0 -0.11489375
Link 1 7 6 0 -0.13661640
Link 2 7 7 0 0.38849709
Link 3 7 8 0 0.11718734
Link 4 7 9 0 0.23368217
Link 5 7 10 0 -0.31305741
Link 1 8 11 0 0.08553329
Link 2 8 12 0 -0.33579079
Link 3 8 13 0 0.13028995
Link 4 8 14 0 0.77348658
Link 5 8 15 0 0.60778356
Link 1 9 16 0 -0.55060939
Link 2 9 17 0 0.29621788
Link 3 9 18 0 -0.52689953
Link 4 9 19 0 0.01845419
Link 5 9 20 0 0.18840359
Link 1 10 21 0 -0.05278455
Link 2 10 22 0 -0.07407234
Link 3 10 23 0 0.42741801
Link 4 10 24 0 0.38631905
Link 5 10 25 0 0.44655468
Link 1 11 26 0 -0.08454039
Link 2 11 27 0 -0.13073261
Link 3 11 28 0 0.01316447
Link 4 11 29 0 0.12036628
Link 5 11 30 0 -0.01852111
GenomeEnd

