GenomeStart 11
Neuron 1 1 0.00000000 1 0.00000000 0.00000000 0.00000000 0.00000000
Neuron 2 1 0.00000000 1 0.00000000 0.00000000 0.00000000 0.00000000
Neuron 3 1 0.00000000 1 0.00000000 0.00000000 0.00000000 0.00000000
Neuron 4 1 0.00000000 1 0.00000000 0.00000000 0.00000000 0.00000000
Neuron 5 2 0.00000000 1 0.00000000 0.00000000 0.00000000 0.00000000
Neuron 6 4 1.00000000 0 3.28667183 0.00000000 0.00000000 -0.00532769
Neuron 7 4 1.00000000 0 3.22614295 0.00000000 0.00000000 -0.05272736
Neuron 8 4 1.00000000 2 3.12435533 0.00000000 0.00000000 0.71264900
Neuron 9 4 1.00000000 0 3.18811808 0.00000000 0.00000000 0.07290773
Neuron 10 4 1.00000000 0 2.85047466 0.00000000 0.00000000 -0.08530947
Neuron 11 4 1.00000000 0 2.89669722 0.00000000 0.00000000 -0.07109635
Link 1 6 1 0 0.24869572
Link 2 6 2 0 -0.14336045
Link 3 6 3 0 -0.08047092
Link 4 6 4 0 0.21601595
Link 5 6 5 0 -0.01375659
Link 1 7 6 0 -0.26011630
Link 2 7 7 0 0.78105674
Link 3 7 8 0 0.29910668
Link 4 7 9 0 -0.35679157
Link 5 7 10 0 0.73271443
Link 1 8 11 0 -0.46481852
Link 2 8 12 0 -0.66262461
Link 3 8 13 0 0.07981109
Link 4 8 14 0 0.18882015
Link 5 8 15 0 -0.06971342
Link 1 9 16 0 0.12336165
Link 2 9 17 0 0.65293643
Link 3 9 18 0 0.73128470
Link 4 9 19 0 0.17972261
Link 5 9 20 0 0.51409435
Link 1 10 21 0 0.18303640
Link 2 10 22 0 -0.25238562
Link 3 10 23 0 0.18074249
Link 4 10 24 0 0.70009088
Link 5 10 25 0 -0.58009165
Link 1 11 26 0 -0.19698089
Link 2 11 27 0 -0.04335475
Link 3 11 28 0 -0.21989066
Link 4 11 29 0 -0.37212173
Link 5 11 30 0 0.13946380
GenomeEnd

