GenomeStart 10
Neuron 1 1 0.00000000 1 0.00000000 0.00000000 0.00000000 0.00000000
Neuron 2 1 0.00000000 1 0.00000000 0.00000000 0.00000000 0.00000000
Neuron 3 1 0.00000000 1 0.00000000 0.00000000 0.00000000 0.00000000
Neuron 4 1 0.00000000 1 0.00000000 0.00000000 0.00000000 0.00000000
Neuron 5 2 0.00000000 1 0.00000000 0.00000000 0.00000000 0.00000000
Neuron 6 4 1.00000000 0 3.26013442 0.00000000 0.00000000 0.89633534
Neuron 7 4 1.00000000 11 2.98398530 0.00000000 0.00000000 -0.20986775
Neuron 8 4 1.00000000 0 3.08256345 0.00000000 0.00000000 0.44368847
Neuron 9 4 1.00000000 0 3.19895144 0.00000000 0.00000000 0.34297575
Neuron 10 4 1.00000000 0 2.74671174 0.00000000 0.00000000 -0.75595011
Neuron 11 4 1.00000000 0 2.83390444 0.00000000 0.00000000 0.30349354
Link 1 6 1 0 -0.01331262
Link 2 6 2 0 -0.23782699
Link 3 6 3 0 -0.80702536
Link 4 6 4 0 0.06968831
Link 5 6 5 0 0.53847991
Link 1 7 6 0 0.04176643
Link 2 7 7 0 -0.41893296
Link 3 7 8 0 -0.30626275
Link 4 7 9 0 0.04041675
Link 5 7 10 0 -0.12458005
Link 1 8 11 0 -0.12473619
Link 2 8 12 0 0.13986312
Link 3 8 13 0 -0.73879220
Link 4 8 14 0 -0.73734385
Link 5 8 15 0 0.58203009
Link 1 9 16 0 0.08172005
Link 2 9 17 0 -0.38686892
Link 3 9 18 0 0.30936411
Link 4 9 19 0 -0.19449533
Link 5 9 20 0 -0.22059099
Link 1 10 21 0 0.05724821
Link 2 10 22 0 0.37943004
Link 3 10 23 0 0.87124340
Link 4 10 24 0 -0.03931617
Link 5 10 25 0 -0.20354515
Link 1 11 26 0 -0.08417781
Link 2 11 27 0 -0.37144348
Link 3 11 28 0 -0.10810982
Link 4 11 29 0 0.45340048
Link 5 11 30 0 -0.00556716
GenomeEnd

