GenomeStart 6
Neuron 1 1 0.00000000 1 0.00000000 0.00000000 0.00000000 0.00000000
Neuron 2 1 0.00000000 1 0.00000000 0.00000000 0.00000000 0.00000000
Neuron 3 1 0.00000000 1 0.00000000 0.00000000 0.00000000 0.00000000
Neuron 4 1 0.00000000 1 0.00000000 0.00000000 0.00000000 0.00000000
Neuron 5 2 0.00000000 1 0.00000000 0.00000000 0.00000000 0.00000000
Neuron 6 4 1.00000000 0 2.83718141 0.00000000 0.00000000 -0.17483232
Neuron 7 4 1.00000000 0 2.83873244 0.00000000 0.00000000 0.30620282
Neuron 8 4 1.00000000 0 3.07618487 0.00000000 0.00000000 -0.35727104
Neuron 9 4 1.00000000 0 3.38331085 0.00000000 0.00000000 0.55674080
Neuron 10 4 1.00000000 2 2.77093911 0.00000000 0.00000000 0.56452330
Neuron 11 4 1.00000000 0 3.06703732 0.00000000 0.00000000 -0.09870845
Link 1 6 1 0 0.53500712
Link 2 6 2 0 0.21671290
Link 3 6 3 0 0.29318866
Link 4 6 4 0 0.13822282
Link 5 6 5 0 0.37790734
Link 1 7 6 0 -0.00828098
Link 2 7 7 0 -0.32975609
Link 3 7 8 0 0.45750574
Link 4 7 9 0 0.87098848
Link 5 7 10 0 -0.04307633
Link 1 8 11 0 0.15306804
Link 2 8 12 0 0.33406862
Link 3 8 13 0 0.31478725
Link 4 8 14 0 0.35218882
Link 5 8 15 0 0.61422078
Link 1 9 16 0 -0.07891193
Link 2 9 17 0 -0.42652031
Link 3 9 18 0 -0.53204117
Link 4 9 19 0 0.77327649
Link 5 9 20 0 -0.49412548
Link 1 10 21 0 -0.25298070
Link 2 10 22 0 0.29972720
Link 3 10 23 0 0.46570775
Link 4 10 24 0 0.62594323
Link 5 10 25 0 0.06035492
Link 1 11 26 0 0.65757076
Link 2 11 27 0 0.05651532
Link 3 11 28 0 0.10464963
Link 4 11 29 0 0.01492306
Link 5 11 30 0 -0.91079293
GenomeEnd

