GenomeStart 9
Neuron 1 1 0.00000000 1 0.00000000 0.00000000 0.00000000 0.00000000
Neuron 2 1 0.00000000 1 0.00000000 0.00000000 0.00000000 0.00000000
Neuron 3 1 0.00000000 1 0.00000000 0.00000000 0.00000000 0.00000000
Neuron 4 1 0.00000000 1 0.00000000 0.00000000 0.00000000 0.00000000
Neuron 5 2 0.00000000 1 0.00000000 0.00000000 0.00000000 0.00000000
Neuron 6 4 1.00000000 0 3.15578446 0.00000000 0.00000000 -0.17080636
Neuron 7 4 1.00000000 0 3.13897594 0.00000000 0.00000000 -0.09853407
Neuron 8 4 1.00000000 6 3.17686004 0.00000000 0.00000000 -0.28415376
Neuron 9 4 1.00000000 0 2.65395476 0.00000000 0.00000000 -0.02635686
Neuron 10 4 1.00000000 0 3.09201038 0.00000000 0.00000000 0.49889541
Neuron 11 4 1.00000000 0 3.05804283 0.00000000 0.00000000 -0.46878241
Link 1 6 1 0 -0.01086848
Link 2 6 2 0 0.02582314
Link 3 6 3 0 -0.42310308
Link 4 6 4 0 -0.72741014
Link 5 6 5 0 0.76955694
Link 1 7 6 0 0.83179906
Link 2 7 7 0 -0.68311144
Link 3 7 8 0 0.21184593
Link 4 7 9 0 0.15688539
Link 5 7 10 0 -0.22654050
Link 1 8 11 0 -0.39236720
Link 2 8 12 0 -0.38145592
Link 3 8 13 0 0.06920965
Link 4 8 14 0 -0.42374971
Link 5 8 15 0 0.13411678
Link 1 9 16 0 0.00322378
Link 2 9 17 0 -0.74477477
Link 3 9 18 0 0.10399870
Link 4 9 19 0 -0.82425517
Link 5 9 20 0 0.05288341
Link 1 10 21 0 -0.31674029
Link 2 10 22 0 -0.19562337
Link 3 10 23 0 0.10955046
Link 4 10 24 0 -0.25829318
Link 5 10 25 0 -0.00991407
Link 1 11 26 0 0.30303075
Link 2 11 27 0 0.42087953
Link 3 11 28 0 -0.10180188
Link 4 11 29 0 0.85645069
Link 5 11 30 0 -0.34195365
GenomeEnd

