GenomeStart 15
Neuron 1 1 0.00000000 1 0.00000000 0.00000000 0.00000000 0.00000000
Neuron 2 1 0.00000000 1 0.00000000 0.00000000 0.00000000 0.00000000
Neuron 3 1 0.00000000 1 0.00000000 0.00000000 0.00000000 0.00000000
Neuron 4 1 0.00000000 1 0.00000000 0.00000000 0.00000000 0.00000000
Neuron 5 2 0.00000000 1 0.00000000 0.00000000 0.00000000 0.00000000
Neuron 6 4 1.00000000 0 3.02461752 0.00000000 0.00000000 0.31216275
Neuron 7 4 1.00000000 0 2.96081405 0.00000000 0.00000000 0.36017338
Neuron 8 4 1.00000000 4 2.72078345 0.00000000 0.00000000 0.36332140
Neuron 9 4 1.00000000 0 2.74795587 0.00000000 0.00000000 -0.15306820
Neuron 10 4 1.00000000 0 2.84855156 0.00000000 0.00000000 0.19610113
Neuron 11 4 1.00000000 0 2.90548103 0.00000000 0.00000000 -0.15472552
Link 1 6 1 0 -0.20373130
Link 2 6 2 0 -0.51232472
Link 3 6 3 0 0.00796535
Link 4 6 4 0 0.04062798
Link 5 6 5 0 0.43940753
Link 1 7 6 0 -0.06826716
Link 2 7 7 0 -0.52644695
Link 3 7 8 0 -0.58524910
Link 4 7 9 0 -0.19675088
Link 5 7 10 0 -0.70117898
Link 1 8 11 0 0.52622082
Link 2 8 12 0 0.01338984
Link 3 8 13 0 0.14733985
Link 4 8 14 0 -0.66379098
Link 5 8 15 0 -0.21115560
Link 1 9 16 0 -0.18343647
Link 2 9 17 0 -0.62839144
Link 3 9 18 0 0.56841969
Link 4 9 19 0 0.19997607
Link 5 9 20 0 0.00714205
Link 1 10 21 0 -0.38229166
Link 2 10 22 0 0.18763981
Link 3 10 23 0 -0.58621011
Link 4 10 24 0 0.76105750
Link 5 10 25 0 -0.29135624
Link 1 11 26 0 0.09620551
Link 2 11 27 0 0.05587153
Link 3 11 28 0 0.27857999
Link 4 11 29 0 -0.77203919
Link 5 11 30 0 -0.68030006
GenomeEnd

