GenomeStart 12
Neuron 1 1 0.00000000 1 0.00000000 0.00000000 0.00000000 0.00000000
Neuron 2 1 0.00000000 1 0.00000000 0.00000000 0.00000000 0.00000000
Neuron 3 1 0.00000000 1 0.00000000 0.00000000 0.00000000 0.00000000
Neuron 4 1 0.00000000 1 0.00000000 0.00000000 0.00000000 0.00000000
Neuron 5 2 0.00000000 1 0.00000000 0.00000000 0.00000000 0.00000000
Neuron 6 4 1.00000000 0 3.08356904 0.00000000 0.00000000 -0.42541580
Neuron 7 4 1.00000000 0 3.44143307 0.00000000 0.00000000 0.63193720
Neuron 8 4 1.00000000 0 2.78680657 0.00000000 0.00000000 -0.16748864
Neuron 9 4 1.00000000 4 2.87319911 0.00000000 0.00000000 0.64846187
Neuron 10 4 1.00000000 0 3.04292295 0.00000000 0.00000000 0.00999231
Neuron 11 4 1.00000000 0 3.24845282 0.00000000 0.00000000 0.32900015
Link 1 6 1 0 -0.30085830
Link 2 6 2 0 0.05569430
Link 3 6 3 0 -0.28206027
Link 4 6 4 0 -0.08620929
Link 5 6 5 0 -0.58449099
Link 1 7 6 0 0.23884788
Link 2 7 7 0 -0.47440062
Link 3 7 8 0 -0.24762176
Link 4 7 9 0 0.14192715
Link 5 7 10 0 0.09952394
Link 1 8 11 0 -0.64269494
Link 2 8 12 0 0.10493062
Link 3 8 13 0 -0.37612193
Link 4 8 14 0 0.13542645
Link 5 8 15 0 0.26339148
Link 1 9 16 0 0.39933515
Link 2 9 17 0 0.37930561
Link 3 9 18 0 -0.05729212
Link 4 9 19 0 -0.72037355
Link 5 9 20 0 -0.72499411
Link 1 10 21 0 0.35509493
Link 2 10 22 0 0.42343831
Link 3 10 23 0 -0.65902774
Link 4 10 24 0 -0.48694250
Link 5 10 25 0 -0.02928799
Link 1 11 26 0 -0.33908427
Link 2 11 27 0 0.00048144
Link 3 11 28 0 -0.36199862
Link 4 11 29 0 0.03793479
Link 5 11 30 0 -0.48992851
GenomeEnd

