GenomeStart 8
Neuron 1 1 0.00000000 1 0.00000000 0.00000000 0.00000000 0.00000000
Neuron 2 1 0.00000000 1 0.00000000 0.00000000 0.00000000 0.00000000
Neuron 3 1 0.00000000 1 0.00000000 0.00000000 0.00000000 0.00000000
Neuron 4 1 0.00000000 1 0.00000000 0.00000000 0.00000000 0.00000000
Neuron 5 2 0.00000000 1 0.00000000 0.00000000 0.00000000 0.00000000
Neuron 6 4 1.00000000 9 2.78536300 0.00000000 0.00000000 -0.14357347
Neuron 7 4 1.00000000 0 3.15063422 0.00000000 0.00000000 0.22627326
Neuron 8 4 1.00000000 0 3.02185423 0.00000000 0.00000000 -0.04681022
Neuron 9 4 1.00000000 0 3.28511674 0.00000000 0.00000000 0.52695724
Neuron 10 4 1.00000000 0 3.18140846 0.00000000 0.00000000 0.41749306
Neuron 11 4 1.00000000 0 3.01582563 0.00000000 0.00000000 0.01701569
Link 1 6 1 0 0.32534212
Link 2 6 2 0 -0.41206739
Link 3 6 3 0 0.08429914
Link 4 6 4 0 -0.31304485
Link 5 6 5 0 -0.23490980
Link 1 7 6 0 0.63249011
Link 2 7 7 0 -0.32331357
Link 3 7 8 0 -0.05308130
Link 4 7 9 0 -0.21477994
Link 5 7 10 0 -0.40057860
Link 1 8 11 0 -0.34508259
Link 2 8 12 0 0.08200028
Link 3 8 13 0 0.09050049
Link 4 8 14 0 -0.62698691
Link 5 8 15 0 -0.11672709
Link 1 9 16 0 -0.40999384
Link 2 9 17 0 0.25439426
Link 3 9 18 0 0.44124793
Link 4 9 19 0 -0.00971312
Link 5 9 20 0 -0.18749012
Link 1 10 21 0 0.49526670
Link 2 10 22 0 -0.14478225
Link 3 10 23 0 0.23135921
Link 4 10 24 0 0.37972856
Link 5 10 25 0 0.64525956
Link 1 11 26 0 0.53757183
Link 2 11 27 0 0.04581653
Link 3 11 28 0 -0.08466424
Link 4 11 29 0 -0.35581933
Link 5 11 30 0 0.79068253
GenomeEnd

