GenomeStart 17
Neuron 1 1 0.00000000 1 0.00000000 0.00000000 0.00000000 0.00000000
Neuron 2 1 0.00000000 1 0.00000000 0.00000000 0.00000000 0.00000000
Neuron 3 1 0.00000000 1 0.00000000 0.00000000 0.00000000 0.00000000
Neuron 4 1 0.00000000 1 0.00000000 0.00000000 0.00000000 0.00000000
Neuron 5 2 0.00000000 1 0.00000000 0.00000000 0.00000000 0.00000000
Neuron 6 4 1.00000000 11 2.70918697 0.00000000 0.00000000 0.79639464
Neuron 7 4 1.00000000 0 2.67637417 0.00000000 0.00000000 -0.01445840
Neuron 8 4 1.00000000 0 3.16867671 0.00000000 0.00000000 0.33107763
Neuron 9 4 1.00000000 0 2.98298875 0.00000000 0.00000000 -0.43572120
Neuron 10 4 1.00000000 0 3.13671228 0.00000000 0.00000000 0.21248352
Neuron 11 4 1.00000000 0 3.25317250 0.00000000 0.00000000 -0.10511019
Link 1 6 1 0 -0.61012604
Link 2 6 2 0 0.24586804
Link 3 6 3 0 0.08960891
Link 4 6 4 0 0.67631333
Link 5 6 5 0 -0.26759198
Link 1 7 6 0 0.01260998
Link 2 7 7 0 -0.34053579
Link 3 7 8 0 -0.46419678
Link 4 7 9 0 0.23575760
Link 5 7 10 0 -0.35831177
Link 1 8 11 0 0.96548658
Link 2 8 12 0 0.85803671
Link 3 8 13 0 0.52199853
Link 4 8 14 0 0.82726331
Link 5 8 15 0 0.62883232
Link 1 9 16 0 0.39882198
Link 2 9 17 0 0.16137942
Link 3 9 18 0 0.34650986
Link 4 9 19 0 -0.37772314
Link 5 9 20 0 -0.13723604
Link 1 10 21 0 0.05117951
Link 2 10 22 0 -0.91281941
Link 3 10 23 0 0.79718065
Link 4 10 24 0 -0.06198173
Link 5 10 25 0 -0.00523615
Link 1 11 26 0 0.26229837
Link 2 11 27 0 -0.17784557
Link 3 11 28 0 -0.26988990
Link 4 11 29 0 -0.31560729
Link 5 11 30 0 0.50499993
GenomeEnd

