GenomeStart 1
Neuron 1 1 0.00000000 1 0.00000000 0.00000000 0.00000000 0.00000000
Neuron 2 1 0.00000000 1 0.00000000 0.00000000 0.00000000 0.00000000
Neuron 3 1 0.00000000 1 0.00000000 0.00000000 0.00000000 0.00000000
Neuron 4 1 0.00000000 1 0.00000000 0.00000000 0.00000000 0.00000000
Neuron 5 2 0.00000000 1 0.00000000 0.00000000 0.00000000 0.00000000
Neuron 6 4 1.00000000 0 3.07192455 0.00000000 0.00000000 0.60161407
Neuron 7 4 1.00000000 11 2.97534894 0.00000000 0.00000000 -0.15390011
Neuron 8 4 1.00000000 0 3.15989975 0.00000000 0.00000000 0.09792463
Neuron 9 4 1.00000000 0 3.12165602 0.00000000 0.00000000 -0.06512120
Neuron 10 4 1.00000000 0 3.19054201 0.00000000 0.00000000 -0.11742179
Neuron 11 4 1.00000000 0 2.82358309 0.00000000 0.00000000 0.18837639
Link 1 6 1 0 0.51059447
Link 2 6 2 0 -0.17776396
Link 3 6 3 0 0.09709021
Link 4 6 4 0 0.23431925
Link 5 6 5 0 -0.60483386
Link 1 7 6 0 0.02455114
Link 2 7 7 0 -0.34977330
Link 3 7 8 0 -0.18905062
Link 4 7 9 0 0.28446459
Link 5 7 10 0 -0.40111259
Link 1 8 11 0 0.45318420
Link 2 8 12 0 -0.34948341
Link 3 8 13 0 0.10741343
Link 4 8 14 0 -0.21566381
Link 5 8 15 0 0.13098072
Link 1 9 16 0 0.28454738
Link 2 9 17 0 0.80394498
Link 3 9 18 0 0.00620988
Link 4 9 19 0 0.54705344
Link 5 9 20 0 -0.30392778
Link 1 10 21 0 -0.05553711
Link 2 10 22 0 0.00250952
Link 3 10 23 0 0.64920435
Link 4 10 24 0 -0.18634536
Link 5 10 25 0 0.49548486
Link 1 11 26 0 0.13428365
Link 2 11 27 0 0.57837163
Link 3 11 28 0 0.23549663
Link 4 11 29 0 0.47531977
Link 5 11 30 0 0.01267097
GenomeEnd

