GenomeStart 4
Neuron 1 1 0.00000000 1 0.00000000 0.00000000 0.00000000 0.00000000
Neuron 2 1 0.00000000 1 0.00000000 0.00000000 0.00000000 0.00000000
Neuron 3 1 0.00000000 1 0.00000000 0.00000000 0.00000000 0.00000000
Neuron 4 1 0.00000000 1 0.00000000 0.00000000 0.00000000 0.00000000
Neuron 5 2 0.00000000 1 0.00000000 0.00000000 0.00000000 0.00000000
Neuron 6 4 1.00000000 0 3.42011195 0.00000000 0.00000000 0.15399419
Neuron 7 4 1.00000000 0 2.75567314 0.00000000 0.00000000 -0.27600263
Neuron 8 4 1.00000000 0 2.92360737 0.00000000 0.00000000 -0.10190164
Neuron 9 4 1.00000000 6 2.85672240 0.00000000 0.00000000 0.35417826
Neuron 10 4 1.00000000 0 2.96366985 0.00000000 0.00000000 0.32827286
Neuron 11 4 1.00000000 0 2.96133350 0.00000000 0.00000000 0.25590387
Link 1 6 1 0 -0.59944536
Link 2 6 2 0 -0.38059092
Link 3 6 3 0 -0.20458225
Link 4 6 4 0 -0.44710369
Link 5 6 5 0 -0.03228861
Link 1 7 6 0 -0.39620486
Link 2 7 7 0 0.05516474
Link 3 7 8 0 -0.10731245
Link 4 7 9 0 -0.24147387
Link 5 7 10 0 -0.50456107
Link 1 8 11 0 0.82797442
Link 2 8 12 0 0.46655320
Link 3 8 13 0 -0.23939345
Link 4 8 14 0 0.00743571
Link 5 8 15 0 -0.51924553
Link 1 9 16 0 0.28772385
Link 2 9 17 0 -0.09059523
Link 3 9 18 0 -0.16171770
Link 4 9 19 0 0.14090775
Link 5 9 20 0 -0.19565292
Link 1 10 21 0 -0.24586945
Link 2 10 22 0 -0.45576624
Link 3 10 23 0 0.08427775
Link 4 10 24 0 -0.25807819
Link 5 10 25 0 -0.69873135
Link 1 11 26 0 0.23173887
Link 2 11 27 0 0.74081811
Link 3 11 28 0 0.13220980
Link 4 11 29 0 -0.03770327
Link 5 11 30 0 0.64214784
GenomeEnd

