GenomeStart 19
Neuron 1 1 0.00000000 1 0.00000000 0.00000000 0.00000000 0.00000000
Neuron 2 1 0.00000000 1 0.00000000 0.00000000 0.00000000 0.00000000
Neuron 3 1 0.00000000 1 0.00000000 0.00000000 0.00000000 0.00000000
Neuron 4 1 0.00000000 1 0.00000000 0.00000000 0.00000000 0.00000000
Neuron 5 2 0.00000000 1 0.00000000 0.00000000 0.00000000 0.00000000
Neuron 6 4 1.00000000 0 3.07235984 0.00000000 0.00000000 -0.16912967
Neuron 7 4 1.00000000 0 2.65050736 0.00000000 0.00000000 -0.10565928
Neuron 8 4 1.00000000 0 3.08135938 0.00000000 0.00000000 -0.75332224
Neuron 9 4 1.00000000 0 3.34996196 0.00000000 0.00000000 0.10244229
Neuron 10 4 1.00000000 0 3.24338295 0.00000000 0.00000000 -0.12236675
Neuron 11 4 1.00000000 6 2.73458129 0.00000000 0.00000000 0.16902359
Link 1 6 1 0 0.47939136
Link 2 6 2 0 0.41794227
Link 3 6 3 0 0.21269434
Link 4 6 4 0 -0.12926009
Link 5 6 5 0 0.63429642
Link 1 7 6 0 -0.31380443
Link 2 7 7 0 0.49102604
Link 3 7 8 0 -0.00284790
Link 4 7 9 0 0.72426460
Link 5 7 10 0 -0.05035573
Link 1 8 11 0 -0.17251238
Link 2 8 12 0 -0.13251566
Link 3 8 13 0 -0.08676113
Link 4 8 14 0 -0.17300223
Link 5 8 15 0 0.43268311
Link 1 9 16 0 -0.30460380
Link 2 9 17 0 0.04421876
Link 3 9 18 0 0.58731808
Link 4 9 19 0 -0.04119521
Link 5 9 20 0 0.80297888
Link 1 10 21 0 -0.54383178
Link 2 10 22 0 0.20207479
Link 3 10 23 0 0.50822423
Link 4 10 24 0 -0.02143411
Link 5 10 25 0 0.29386047
Link 1 11 26 0 0.24569992
Link 2 11 27 0 0.03957629
Link 3 11 28 0 -0.33601156
Link 4 11 29 0 -0.69860511
Link 5 11 30 0 0.00698839
GenomeEnd

