GenomeStart 5
Neuron 1 1 0.00000000 1 0.00000000 0.00000000 0.00000000 0.00000000
Neuron 2 1 0.00000000 1 0.00000000 0.00000000 0.00000000 0.00000000
Neuron 3 1 0.00000000 1 0.00000000 0.00000000 0.00000000 0.00000000
Neuron 4 1 0.00000000 1 0.00000000 0.00000000 0.00000000 0.00000000
Neuron 5 2 0.00000000 1 0.00000000 0.00000000 0.00000000 0.00000000
Neuron 6 4 1.00000000 4 2.84297050 0.00000000 0.00000000 0.48735112
Neuron 7 4 1.00000000 0 3.11193766 0.00000000 0.00000000 0.33805376
Neuron 8 4 1.00000000 0 3.25715572 0.00000000 0.00000000 -0.27200869
Neuron 9 4 1.00000000 0 3.25848458 0.00000000 0.00000000 0.79465906
Neuron 10 4 1.00000000 0 3.21926098 0.00000000 0.00000000 -0.49120778
Neuron 11 4 1.00000000 0 2.82858114 0.00000000 0.00000000 0.38301090
Link 1 6 1 0 -0.49884015
Link 2 6 2 0 -0.09458665
Link 3 6 3 0 0.33837804
Link 4 6 4 0 -0.07579345
Link 5 6 5 0 0.28703270
Link 1 7 6 0 -0.38871283
Link 2 7 7 0 0.45460181
Link 3 7 8 0 0.63658279
Link 4 7 9 0 -0.01676726
Link 5 7 10 0 0.54152044
Link 1 8 11 0 0.65798101
Link 2 8 12 0 -0.84885876
Link 3 8 13 0 0.42111378
Link 4 8 14 0 0.50531316
Link 5 8 15 0 0.14673393
Link 1 9 16 0 -0.28417903
Link 2 9 17 0 -0.34368718
Link 3 9 18 0 0.18549317
Link 4 9 19 0 0.09225874
Link 5 9 20 0 0.15915316
Link 1 10 21 0 0.75419454
Link 2 10 22 0 0.03250684
Link 3 10 23 0 0.65896764
Link 4 10 24 0 0.17544204
Link 5 10 25 0 -0.28201861
Link 1 11 26 0 0.11836293
Link 2 11 27 0 0.48458583
Link 3 11 28 0 -0.31481402
Link 4 11 29 0 -0.20591434
Link 5 11 30 0 0.64900164
GenomeEnd

