GenomeStart 3
Neuron 1 1 0.00000000 1 0.00000000 0.00000000 0.00000000 0.00000000
Neuron 2 1 0.00000000 1 0.00000000 0.00000000 0.00000000 0.00000000
Neuron 3 1 0.00000000 1 0.00000000 0.00000000 0.00000000 0.00000000
Neuron 4 1 0.00000000 1 0.00000000 0.00000000 0.00000000 0.00000000
Neuron 5 2 0.00000000 1 0.00000000 0.00000000 0.00000000 0.00000000
Neuron 6 4 1.00000000 9 3.33450841 0.00000000 0.00000000 0.32724616
Neuron 7 4 1.00000000 0 2.92628549 0.00000000 0.00000000 0.59899707
Neuron 8 4 1.00000000 0 3.04487853 0.00000000 0.00000000 0.64798029
Neuron 9 4 1.00000000 0 3.16184995 0.00000000 0.00000000 -0.60664243
Neuron 10 4 1.00000000 0 3.16576765 0.00000000 0.00000000 0.10183768
Neuron 11 4 1.00000000 0 3.21379540 0.00000000 0.00000000 -0.64796252
Link 1 6 1 0 0.58006842
Link 2 6 2 0 -0.40631534
Link 3 6 3 0 -0.14835855
Link 4 6 4 0 0.29590499
Link 5 6 5 0 0.11059837
Link 1 7 6 0 0.58808704
Link 2 7 7 0 0.08935903
Link 3 7 8 0 -0.33311153
Link 4 7 9 0 0.08614616
Link 5 7 10 0 0.32768985
Link 1 8 11 0 -0.03154243
Link 2 8 12 0 0.41254919
Link 3 8 13 0 0.07428148
Link 4 8 14 0 -0.77727392
Link 5 8 15 0 0.02642673
Link 1 9 16 0 0.29162542
Link 2 9 17 0 -0.21603503
Link 3 9 18 0 -0.03565287
Link 4 9 19 0 -0.11963703
Link 5 9 20 0 -0.28658339
Link 1 10 21 0 -0.32811583
Link 2 10 22 0 -0.53088578
Link 3 10 23 0 0.05812730
Link 4 10 24 0 0.37394244
Link 5 10 25 0 -0.24529818
Link 1 11 26 0 -0.03906831
Link 2 11 27 0 0.05917845
Link 3 11 28 0 0.11869427
Link 4 11 29 0 0.22964237
Link 5 11 30 0 -0.01965318
GenomeEnd

