GenomeStart 18
Neuron 1 1 0.00000000 1 0.00000000 0.00000000 0.00000000 0.00000000
Neuron 2 1 0.00000000 1 0.00000000 0.00000000 0.00000000 0.00000000
Neuron 3 1 0.00000000 1 0.00000000 0.00000000 0.00000000 0.00000000
Neuron 4 1 0.00000000 1 0.00000000 0.00000000 0.00000000 0.00000000
Neuron 5 2 0.00000000 1 0.00000000 0.00000000 0.00000000 0.00000000
Neuron 6 4 1.00000000 0 3.24968846 0.00000000 0.00000000 -0.64061609
Neuron 7 4 1.00000000 0 3.06117702 0.00000000 0.00000000 -0.89392259
Neuron 8 4 1.00000000 4 2.87127539 0.00000000 0.00000000 0.10398462
Neuron 9 4 1.00000000 0 2.68077990 0.00000000 0.00000000 0.48029690
Neuron 10 4 1.00000000 0 2.64772473 0.00000000 0.00000000 -0.81816670
Neuron 11 4 1.00000000 0 3.05704716 0.00000000 0.00000000 -0.82685803
Link 1 6 1 0 -0.05085737
Link 2 6 2 0 -0.13680244
Link 3 6 3 0 -0.35991180
Link 4 6 4 0 -0.19885845
Link 5 6 5 0 -0.87187725
Link 1 7 6 0 0.71593859
Link 2 7 7 0 0.10851363
Link 3 7 8 0 0.66585632
Link 4 7 9 0 -0.02313192
Link 5 7 10 0 -0.06168063
Link 1 8 11 0 -0.57700965
Link 2 8 12 0 0.02809537
Link 3 8 13 0 0.65109070
Link 4 8 14 0 -0.13074670
Link 5 8 15 0 -0.11273992
Link 1 9 16 0 -0.76925296
Link 2 9 17 0 0.94736742
Link 3 9 18 0 -0.36926712
Link 4 9 19 0 0.53325377
Link 5 9 20 0 0.15786993
Link 1 10 21 0 -0.02035454
Link 2 10 22 0 -0.42593978
Link 3 10 23 0 -0.36101839
Link 4 10 24 0 -0.03847046
Link 5 10 25 0 -0.13550334
Link 1 11 26 0 -0.06532048
Link 2 11 27 0 0.28682790
Link 3 11 28 0 -0.08143044
Link 4 11 29 0 0.59172869
Link 5 11 30 0 0.29297461
GenomeEnd

