GenomeStart 14
Neuron 1 1 0.00000000 1 0.00000000 0.00000000 0.00000000 0.00000000
Neuron 2 1 0.00000000 1 0.00000000 0.00000000 0.00000000 0.00000000
Neuron 3 1 0.00000000 1 0.00000000 0.00000000 0.00000000 0.00000000
Neuron 4 1 0.00000000 1 0.00000000 0.00000000 0.00000000 0.00000000
Neuron 5 2 0.00000000 1 0.00000000 0.00000000 0.00000000 0.00000000
Neuron 6 4 1.00000000 0 3.39908503 0.00000000 0.00000000 -0.47878085
Neuron 7 4 1.00000000 6 2.65995193 0.00000000 0.00000000 -0.22055619
Neuron 8 4 1.00000000 0 3.07643965 0.00000000 0.00000000 -0.62887107
Neuron 9 4 1.00000000 0 3.16318593 0.00000000 0.00000000 -0.29964185
Neuron 10 4 1.00000000 0 2.95290624 0.00000000 0.00000000 -0.52903490
Neuron 11 4 1.00000000 0 2.99430467 0.00000000 0.00000000 0.45294623
Link 1 6 1 0 0.18202733
Link 2 6 2 0 0.11231427
Link 3 6 3 0 0.66117872
Link 4 6 4 0 -0.03107971
Link 5 6 5 0 -0.09090102
Link 1 7 6 0 -0.48464370
Link 2 7 7 0 0.09447707
Link 3 7 8 0 0.37530064
Link 4 7 9 0 -0.15651210
Link 5 7 10 0 -0.10900637
Link 1 8 11 0 -0.54916190
Link 2 8 12 0 -0.02221831
Link 3 8 13 0 -0.33390133
Link 4 8 14 0 0.09691606
Link 5 8 15 0 -0.79305521
Link 1 9 16 0 -0.14223176
Link 2 9 17 0 0.29182528
Link 3 9 18 0 -0.09068101
Link 4 9 19 0 0.00862342
Link 5 9 20 0 -0.17457722
Link 1 10 21 0 -0.65633636
Link 2 10 22 0 -0.28954531
Link 3 10 23 0 -0.44649912
Link 4 10 24 0 0.66292735
Link 5 10 25 0 -0.32811309
Link 1 11 26 0 -0.57406092
Link 2 11 27 0 -0.22348657
Link 3 11 28 0 0.12188951
Link 4 11 29 0 -0.48131684
Link 5 11 30 0 0.21768989
GenomeEnd

