GenomeStart 2
Neuron 1 1 0.00000000 1 0.00000000 0.00000000 0.00000000 0.00000000
Neuron 2 1 0.00000000 1 0.00000000 0.00000000 0.00000000 0.00000000
Neuron 3 1 0.00000000 1 0.00000000 0.00000000 0.00000000 0.00000000
Neuron 4 1 0.00000000 1 0.00000000 0.00000000 0.00000000 0.00000000
Neuron 5 2 0.00000000 1 0.00000000 0.00000000 0.00000000 0.00000000
Neuron 6 4 1.00000000 0 3.07108500 0.00000000 0.00000000 -0.19507940
Neuron 7 4 1.00000000 0 3.47919740 0.00000000 0.00000000 0.20175288
Neuron 8 4 1.00000000 0 2.99606356 0.00000000 0.00000000 -0.46753837
Neuron 9 4 1.00000000 11 2.99554365 0.00000000 0.00000000 0.40792892
Neuron 10 4 1.00000000 0 2.68247471 0.00000000 0.00000000 -0.68916269
Neuron 11 4 1.00000000 0 2.81591730 0.00000000 0.00000000 -0.07823658
Link 1 6 1 0 0.07651426
Link 2 6 2 0 -0.72638819
Link 3 6 3 0 -0.39516037
Link 4 6 4 0 -0.18968094
Link 5 6 5 0 0.22452775
Link 1 7 6 0 0.36398650
Link 2 7 7 0 -0.77926494
Link 3 7 8 0 -0.55583768
Link 4 7 9 0 0.21689487
Link 5 7 10 0 -0.37712924
Link 1 8 11 0 0.14202790
Link 2 8 12 0 -0.43933914
Link 3 8 13 0 0.36475632
Link 4 8 14 0 -0.25532382
Link 5 8 15 0 -0.40609044
Link 1 9 16 0 0.00300764
Link 2 9 17 0 0.13828335
Link 3 9 18 0 0.09958507
Link 4 9 19 0 -0.22995533
Link 5 9 20 0 0.06090856
Link 1 10 21 0 -0.02039255
Link 2 10 22 0 0.53295065
Link 3 10 23 0 0.03700490
Link 4 10 24 0 -0.03380621
Link 5 10 25 0 0.39883260
Link 1 11 26 0 -0.28357290
Link 2 11 27 0 -0.04160076
Link 3 11 28 0 0.07145473
Link 4 11 29 0 0.91517263
Link 5 11 30 0 -0.14229653
GenomeEnd

