GenomeStart 13
Neuron 1 1 0.00000000 1 0.00000000 0.00000000 0.00000000 0.00000000
Neuron 2 1 0.00000000 1 0.00000000 0.00000000 0.00000000 0.00000000
Neuron 3 1 0.00000000 1 0.00000000 0.00000000 0.00000000 0.00000000
Neuron 4 1 0.00000000 1 0.00000000 0.00000000 0.00000000 0.00000000
Neuron 5 2 0.00000000 1 0.00000000 0.00000000 0.00000000 0.00000000
Neuron 6 4 1.00000000 0 2.75119376 0.00000000 0.00000000 0.84472978
Neuron 7 4 1.00000000 6 2.89287037 0.00000000 0.00000000 -0.04269224
Neuron 8 4 1.00000000 0 3.11472784 0.00000000 0.00000000 0.04876328
Neuron 9 4 1.00000000 0 3.13366633 0.00000000 0.00000000 -0.02223459
Neuron 10 4 1.00000000 0 3.04122395 0.00000000 0.00000000 -0.12504644
Neuron 11 4 1.00000000 0 3.08201108 0.00000000 0.00000000 0.44576105
Link 1 6 1 0 0.04725738
Link 2 6 2 0 0.19037010
Link 3 6 3 0 -0.04033108
Link 4 6 4 0 0.63604436
Link 5 6 5 0 -0.63720596
Link 1 7 6 0 -0.62427928
Link 2 7 7 0 -0.45515514
Link 3 7 8 0 -0.64165434
Link 4 7 9 0 0.73522291
Link 5 7 10 0 0.35091278
Link 1 8 11 0 0.09962073
Link 2 8 12 0 0.03208313
Link 3 8 13 0 -0.27920908
Link 4 8 14 0 -0.18412797
Link 5 8 15 0 0.25771410
Link 1 9 16 0 0.55861791
Link 2 9 17 0 -0.12494545
Link 3 9 18 0 -0.53663972
Link 4 9 19 0 -0.47889338
Link 5 9 20 0 0.10434109
Link 1 10 21 0 0.00945822
Link 2 10 22 0 -0.15591409
Link 3 10 23 0 0.01654249
Link 4 10 24 0 0.22163605
Link 5 10 25 0 -0.28278453
Link 1 11 26 0 0.24528657
Link 2 11 27 0 -0.11878352
Link 3 11 28 0 0.16819304
Link 4 11 29 0 -0.08459003
Link 5 11 30 0 -0.02310465
GenomeEnd

