GenomeStart 2
Neuron 1 1 0.00000000 1 0.00000000 0.00000000 0.00000000 0.00000000
Neuron 2 1 0.00000000 1 0.00000000 0.00000000 0.00000000 0.00000000
Neuron 3 1 0.00000000 1 0.00000000 0.00000000 0.00000000 0.00000000
Neuron 4 1 0.00000000 1 0.00000000 0.00000000 0.00000000 0.00000000
Neuron 5 2 0.00000000 1 0.00000000 0.00000000 0.00000000 0.00000000
Neuron 6 4 1.00000000 0 3.10413154 0.00000000 0.00000000 -0.02318803
Neuron 7 4 1.00000000 0 2.67016221 0.00000000 0.00000000 0.08795275
Neuron 8 4 1.00000000 0 2.88585849 0.00000000 0.00000000 0.45108254
Neuron 9 4 1.00000000 2 2.99486406 0.00000000 0.00000000 0.13638263
Neuron 10 4 1.00000000 0 3.08287121 0.00000000 0.00000000 0.28273730
Neuron 11 4 1.00000000 0 3.15672919 0.00000000 0.00000000 -0.62080567
Link 1 6 1 0 -0.60617359
Link 2 6 2 0 -0.15568181
Link 3 6 3 0 -0.62407281
Link 4 6 4 0 -0.74417929
Link 5 6 5 0 0.51454638
Link 1 7 6 0 -0.13491404
Link 2 7 7 0 0.04972035
Link 3 7 8 0 -0.06777384
Link 4 7 9 0 -0.05997720
Link 5 7 10 0 0.46225898
Link 1 8 11 0 0.40835872
Link 2 8 12 0 0.95324716
Link 3 8 13 0 0.16448539
Link 4 8 14 0 -0.01095155
Link 5 8 15 0 0.13100705
Link 1 9 16 0 -0.38506381
Link 2 9 17 0 0.65975732
Link 3 9 18 0 -0.41197783
Link 4 9 19 0 0.51989605
Link 5 9 20 0 -0.13092488
Link 1 10 21 0 0.52866445
Link 2 10 22 0 -0.76578731
Link 3 10 23 0 -0.11272732
Link 4 10 24 0 0.56295450
Link 5 10 25 0 -0.50759674
Link 1 11 26 0 0.45501176
Link 2 11 27 0 -0.07511152
Link 3 11 28 0 -0.22405361
Link 4 11 29 0 0.74015508
Link 5 11 30 0 0.11082812
GenomeEnd

