GenomeStart 0
Neuron 1 1 0.00000000 1 0.00000000 0.00000000 0.00000000 0.00000000
Neuron 2 1 0.00000000 1 0.00000000 0.00000000 0.00000000 0.00000000
Neuron 3 1 0.00000000 1 0.00000000 0.00000000 0.00000000 0.00000000
Neuron 4 1 0.00000000 1 0.00000000 0.00000000 0.00000000 0.00000000
Neuron 5 2 0.00000000 1 0.00000000 0.00000000 0.00000000 0.00000000
Neuron 6 4 1.00000000 0 3.06299004 0.00000000 0.00000000 -0.48382786
Neuron 7 4 1.00000000 0 3.36303332 0.00000000 0.00000000 -0.08873698
Neuron 8 4 1.00000000 0 2.85898314 0.00000000 0.00000000 -0.51967144
Neuron 9 4 1.00000000 0 3.02021570 0.00000000 0.00000000 0.04461598
Neuron 10 4 1.00000000 11 2.87882186 0.00000000 0.00000000 0.64492701
Neuron 11 4 1.00000000 0 3.04973961 0.00000000 0.00000000 -0.34074963
Link 1 6 1 0 -0.75079106
Link 2 6 2 0 0.26063030
Link 3 6 3 0 -0.07280203
Link 4 6 4 0 -0.55390703
Link 5 6 5 0 -0.00394896
Link 1 7 6 0 -0.63348480
Link 2 7 7 0 0.24470432
Link 3 7 8 0 -0.25723350
Link 4 7 9 0 0.42281331
Link 5 7 10 0 0.46928185
Link 1 8 11 0 0.74324994
Link 2 8 12 0 0.16079405
Link 3 8 13 0 -0.13478125
Link 4 8 14 0 0.11514059
Link 5 8 15 0 0.21815761
Link 1 9 16 0 -0.21381836
Link 2 9 17 0 -0.34716755
Link 3 9 18 0 -0.37775110
Link 4 9 19 0 0.06484424
Link 5 9 20 0 -0.27432896
Link 1 10 21 0 -0.03437170
Link 2 10 22 0 0.20917666
Link 3 10 23 0 0.00662273
Link 4 10 24 0 -0.30083301
Link 5 10 25 0 0.64874127
Link 1 11 26 0 -0.30075835
Link 2 11 27 0 0.55774385
Link 3 11 28 0 0.04444511
Link 4 11 29 0 0.47097643
Link 5 11 30 0 0.49925659
GenomeEnd

