GenomeStart 4
Neuron 1 1 0.00000000 1 0.00000000 0.00000000 0.00000000 0.00000000
Neuron 2 1 0.00000000 1 0.00000000 0.00000000 0.00000000 0.00000000
Neuron 3 1 0.00000000 1 0.00000000 0.00000000 0.00000000 0.00000000
Neuron 4 1 0.00000000 1 0.00000000 0.00000000 0.00000000 0.00000000
Neuron 5 2 0.00000000 1 0.00000000 0.00000000 0.00000000 0.00000000
Neuron 6 4 1.00000000 0 2.73427542 0.00000000 0.00000000 -0.00150828
Neuron 7 4 1.00000000 0 3.34246578 0.00000000 0.00000000 -0.13497020
Neuron 8 4 1.00000000 0 3.19426619 0.00000000 0.00000000 0.01197874
Neuron 9 4 1.00000000 0 3.28951450 0.00000000 0.00000000 -0.49349398
Neuron 10 4 1.00000000 2 3.28689697 0.00000000 0.00000000 0.32041881
Neuron 11 4 1.00000000 0 3.32483420 0.00000000 0.00000000 -0.62377311
Link 1 6 1 0 -0.15578146
Link 2 6 2 0 -0.49785598
Link 3 6 3 0 0.63154641
Link 4 6 4 0 -0.18552234
Link 5 6 5 0 -0.34778318
Link 1 7 6 0 0.52330689
Link 2 7 7 0 -0.00391451
Link 3 7 8 0 -0.78798188
Link 4 7 9 0 0.22199272
Link 5 7 10 0 -0.00502071
Link 1 8 11 0 -0.27430822
Link 2 8 12 0 0.12757418
Link 3 8 13 0 0.39552419
Link 4 8 14 0 0.10583493
Link 5 8 15 0 0.54964558
Link 1 9 16 0 0.24684486
Link 2 9 17 0 0.41332752
Link 3 9 18 0 0.16728064
Link 4 9 19 0 0.04988476
Link 5 9 20 0 0.65381412
Link 1 10 21 0 -0.05375590
Link 2 10 22 0 -0.19196245
Link 3 10 23 0 0.23285902
Link 4 10 24 0 -0.14873023
Link 5 10 25 0 0.44545349
Link 1 11 26 0 0.27720462
Link 2 11 27 0 0.23096910
Link 3 11 28 0 -0.36474484
Link 4 11 29 0 0.43429014
Link 5 11 30 0 -0.27555773
GenomeEnd

