GenomeStart 0
Neuron 1 1 0.00000000 1 0.00000000 0.00000000 0.00000000 0.00000000
Neuron 2 1 0.00000000 1 0.00000000 0.00000000 0.00000000 0.00000000
Neuron 3 1 0.00000000 1 0.00000000 0.00000000 0.00000000 0.00000000
Neuron 4 1 0.00000000 1 0.00000000 0.00000000 0.00000000 0.00000000
Neuron 5 2 0.00000000 1 0.00000000 0.00000000 0.00000000 0.00000000
Neuron 6 4 1.00000000 0 2.63579776 0.00000000 0.00000000 0.51149301
Neuron 7 4 1.00000000 0 2.93938754 0.00000000 0.00000000 -0.32334404
Neuron 8 4 1.00000000 6 3.22486554 0.00000000 0.00000000 0.31775805
Neuron 9 4 1.00000000 0 3.14765534 0.00000000 0.00000000 -0.15397951
Neuron 10 4 1.00000000 0 2.60783851 0.00000000 0.00000000 0.71592831
Neuron 11 4 1.00000000 0 3.07673200 0.00000000 0.00000000 0.11734255
Link 1 6 1 0 0.60683126
Link 2 6 2 0 0.29329920
Link 3 6 3 0 -0.66973480
Link 4 6 4 0 -0.08590715
Link 5 6 5 0 -0.47721543
Link 1 7 6 0 0.23925456
Link 2 7 7 0 -0.48575712
Link 3 7 8 0 0.29761100
Link 4 7 9 0 0.17565988
Link 5 7 10 0 -0.13712815
Link 1 8 11 0 -0.42083446
Link 2 8 12 0 0.39067900
Link 3 8 13 0 -0.17418363
Link 4 8 14 0 0.21474772
Link 5 8 15 0 -0.21357448
Link 1 9 16 0 0.13599845
Link 2 9 17 0 -0.43315168
Link 3 9 18 0 -0.00410810
Link 4 9 19 0 -0.08148964
Link 5 9 20 0 -0.15236738
Link 1 10 21 0 0.04203612
Link 2 10 22 0 -0.22318300
Link 3 10 23 0 -0.29067439
Link 4 10 24 0 0.03485444
Link 5 10 25 0 0.00073953
Link 1 11 26 0 -0.23817591
Link 2 11 27 0 -0.36813360
Link 3 11 28 0 -0.55162924
Link 4 11 29 0 -0.42105992
Link 5 11 30 0 0.09271479
GenomeEnd

