GenomeStart 13
Neuron 1 1 0.00000000 1 0.00000000 0.00000000 0.00000000 0.00000000
Neuron 2 1 0.00000000 1 0.00000000 0.00000000 0.00000000 0.00000000
Neuron 3 1 0.00000000 1 0.00000000 0.00000000 0.00000000 0.00000000
Neuron 4 1 0.00000000 1 0.00000000 0.00000000 0.00000000 0.00000000
Neuron 5 2 0.00000000 1 0.00000000 0.00000000 0.00000000 0.00000000
Neuron 6 4 1.00000000 0 3.28910764 0.00000000 0.00000000 0.15319307
Neuron 7 4 1.00000000 0 2.89902537 0.00000000 0.00000000 -0.16510999
Neuron 8 4 1.00000000 4 3.02263152 0.00000000 0.00000000 -0.35790087
Neuron 9 4 1.00000000 0 3.25950855 0.00000000 0.00000000 0.13290945
Neuron 10 4 1.00000000 0 2.84576513 0.00000000 0.00000000 0.55400838
Neuron 11 4 1.00000000 0 2.93741143 0.00000000 0.00000000 -0.25566139
Link 1 6 1 0 0.00529045
Link 2 6 2 0 0.06342397
Link 3 6 3 0 0.18659803
Link 4 6 4 0 0.26255461
Link 5 6 5 0 -0.10805646
Link 1 7 6 0 -0.31427686
Link 2 7 7 0 -0.76122754
Link 3 7 8 0 0.05451574
Link 4 7 9 0 0.88640066
Link 5 7 10 0 0.04358203
Link 1 8 11 0 -0.01395555
Link 2 8 12 0 -0.06133318
Link 3 8 13 0 -0.15014752
Link 4 8 14 0 0.25903704
Link 5 8 15 0 0.60841305
Link 1 9 16 0 -0.03452002
Link 2 9 17 0 0.82995653
Link 3 9 18 0 0.34769726
Link 4 9 19 0 -0.74651625
Link 5 9 20 0 -0.20346542
Link 1 10 21 0 -0.57869821
Link 2 10 22 0 -0.27126819
Link 3 10 23 0 -0.16931070
Link 4 10 24 0 0.16252047
Link 5 10 25 0 0.32506846
Link 1 11 26 0 -0.20181927
Link 2 11 27 0 0.13139187
Link 3 11 28 0 -0.34877174
Link 4 11 29 0 -0.76700467
Link 5 11 30 0 0.02818548
GenomeEnd

