GenomeStart 12
Neuron 1 1 0.00000000 1 0.00000000 0.00000000 0.00000000 0.00000000
Neuron 2 1 0.00000000 1 0.00000000 0.00000000 0.00000000 0.00000000
Neuron 3 1 0.00000000 1 0.00000000 0.00000000 0.00000000 0.00000000
Neuron 4 1 0.00000000 1 0.00000000 0.00000000 0.00000000 0.00000000
Neuron 5 2 0.00000000 1 0.00000000 0.00000000 0.00000000 0.00000000
Neuron 6 4 1.00000000 0 3.25623944 0.00000000 0.00000000 0.63877588
Neuron 7 4 1.00000000 0 2.87121900 0.00000000 0.00000000 -0.05442918
Neuron 8 4 1.00000000 6 2.96072128 0.00000000 0.00000000 -0.08496208
Neuron 9 4 1.00000000 0 3.19204892 0.00000000 0.00000000 0.43471889
Neuron 10 4 1.00000000 0 3.18520414 0.00000000 0.00000000 0.06808339
Neuron 11 4 1.00000000 0 3.03644189 0.00000000 0.00000000 0.37296281
Link 1 6 1 0 0.13114138
Link 2 6 2 0 -0.64667787
Link 3 6 3 0 -0.29669241
Link 4 6 4 0 -0.42654508
Link 5 6 5 0 0.04195507
Link 1 7 6 0 0.14112951
Link 2 7 7 0 -0.32682674
Link 3 7 8 0 0.00545333
Link 4 7 9 0 -0.16633258
Link 5 7 10 0 0.54068651
Link 1 8 11 0 -0.00580957
Link 2 8 12 0 -0.38486739
Link 3 8 13 0 0.40509126
Link 4 8 14 0 -0.09647871
Link 5 8 15 0 0.70463493
Link 1 9 16 0 -0.79152195
Link 2 9 17 0 0.01058507
Link 3 9 18 0 0.16488811
Link 4 9 19 0 -0.13972767
Link 5 9 20 0 0.64472547
Link 1 10 21 0 -0.07620460
Link 2 10 22 0 0.21905852
Link 3 10 23 0 0.04746506
Link 4 10 24 0 0.18580676
Link 5 10 25 0 -0.33854170
Link 1 11 26 0 -0.48088473
Link 2 11 27 0 0.22962903
Link 3 11 28 0 0.15261690
Link 4 11 29 0 0.56867576
Link 5 11 30 0 0.65553449
GenomeEnd

