GenomeStart 11
Neuron 1 1 0.00000000 1 0.00000000 0.00000000 0.00000000 0.00000000
Neuron 2 1 0.00000000 1 0.00000000 0.00000000 0.00000000 0.00000000
Neuron 3 1 0.00000000 1 0.00000000 0.00000000 0.00000000 0.00000000
Neuron 4 1 0.00000000 1 0.00000000 0.00000000 0.00000000 0.00000000
Neuron 5 2 0.00000000 1 0.00000000 0.00000000 0.00000000 0.00000000
Neuron 6 4 1.00000000 0 2.99129194 0.00000000 0.00000000 -0.17135941
Neuron 7 4 1.00000000 0 2.96259231 0.00000000 0.00000000 0.00892759
Neuron 8 4 1.00000000 0 3.03082268 0.00000000 0.00000000 -0.04811470
Neuron 9 4 1.00000000 0 2.71292296 0.00000000 0.00000000 -0.67677107
Neuron 10 4 1.00000000 2 3.19736735 0.00000000 0.00000000 -0.10678312
Neuron 11 4 1.00000000 0 3.28907032 0.00000000 0.00000000 0.10543253
Link 1 6 1 0 -0.15907184
Link 2 6 2 0 0.27184435
Link 3 6 3 0 0.35390093
Link 4 6 4 0 -0.25481429
Link 5 6 5 0 -0.62329076
Link 1 7 6 0 -0.32914677
Link 2 7 7 0 -0.22097223
Link 3 7 8 0 -0.33501063
Link 4 7 9 0 0.11746256
Link 5 7 10 0 0.03971932
Link 1 8 11 0 -0.25485080
Link 2 8 12 0 0.16037786
Link 3 8 13 0 -0.37823004
Link 4 8 14 0 -0.13589444
Link 5 8 15 0 -0.37091918
Link 1 9 16 0 0.81474019
Link 2 9 17 0 0.31719788
Link 3 9 18 0 -0.09891619
Link 4 9 19 0 -0.66226836
Link 5 9 20 0 0.43175317
Link 1 10 21 0 0.05657380
Link 2 10 22 0 -0.03743926
Link 3 10 23 0 0.16921186
Link 4 10 24 0 0.38723155
Link 5 10 25 0 0.00338641
Link 1 11 26 0 0.23650834
Link 2 11 27 0 0.01664248
Link 3 11 28 0 0.41148985
Link 4 11 29 0 0.69144613
Link 5 11 30 0 0.07890089
GenomeEnd

