GenomeStart 9
Neuron 1 1 0.00000000 1 0.00000000 0.00000000 0.00000000 0.00000000
Neuron 2 1 0.00000000 1 0.00000000 0.00000000 0.00000000 0.00000000
Neuron 3 1 0.00000000 1 0.00000000 0.00000000 0.00000000 0.00000000
Neuron 4 1 0.00000000 1 0.00000000 0.00000000 0.00000000 0.00000000
Neuron 5 2 0.00000000 1 0.00000000 0.00000000 0.00000000 0.00000000
Neuron 6 4 1.00000000 0 2.96162869 0.00000000 0.00000000 0.20943959
Neuron 7 4 1.00000000 0 3.01698102 0.00000000 0.00000000 0.41222609
Neuron 8 4 1.00000000 0 2.94422250 0.00000000 0.00000000 0.22174855
Neuron 9 4 1.00000000 0 3.09068428 0.00000000 0.00000000 -0.16193577
Neuron 10 4 1.00000000 9 3.00467751 0.00000000 0.00000000 0.03867553
Neuron 11 4 1.00000000 0 3.28730280 0.00000000 0.00000000 -0.07322639
Link 1 6 1 0 -0.54224129
Link 2 6 2 0 0.49425510
Link 3 6 3 0 -0.35718244
Link 4 6 4 0 0.17602904
Link 5 6 5 0 -0.80490127
Link 1 7 6 0 -0.08838696
Link 2 7 7 0 -0.24070564
Link 3 7 8 0 -0.49800509
Link 4 7 9 0 0.74170036
Link 5 7 10 0 -0.50525451
Link 1 8 11 0 -0.07725346
Link 2 8 12 0 -0.28059748
Link 3 8 13 0 -0.21953281
Link 4 8 14 0 0.20178647
Link 5 8 15 0 0.08086815
Link 1 9 16 0 0.56001675
Link 2 9 17 0 -0.04291591
Link 3 9 18 0 -0.16994532
Link 4 9 19 0 0.72224979
Link 5 9 20 0 0.48372009
Link 1 10 21 0 0.02071009
Link 2 10 22 0 -0.83345781
Link 3 10 23 0 -0.10070605
Link 4 10 24 0 0.00811216
Link 5 10 25 0 0.37840453
Link 1 11 26 0 0.09063630
Link 2 11 27 0 -0.24470196
Link 3 11 28 0 -0.12411013
Link 4 11 29 0 0.29306292
Link 5 11 30 0 0.42084630
GenomeEnd

