GenomeStart 10
Neuron 1 1 0.00000000 1 0.00000000 0.00000000 0.00000000 0.00000000
Neuron 2 1 0.00000000 1 0.00000000 0.00000000 0.00000000 0.00000000
Neuron 3 1 0.00000000 1 0.00000000 0.00000000 0.00000000 0.00000000
Neuron 4 1 0.00000000 1 0.00000000 0.00000000 0.00000000 0.00000000
Neuron 5 2 0.00000000 1 0.00000000 0.00000000 0.00000000 0.00000000
Neuron 6 4 1.00000000 0 3.28285241 0.00000000 0.00000000 0.20474347
Neuron 7 4 1.00000000 6 2.69236578 0.00000000 0.00000000 -0.18376133
Neuron 8 4 1.00000000 0 3.15962275 0.00000000 0.00000000 -0.35142471
Neuron 9 4 1.00000000 0 3.10674797 0.00000000 0.00000000 -0.58633056
Neuron 10 4 1.00000000 0 2.97975656 0.00000000 0.00000000 0.67620942
Neuron 11 4 1.00000000 0 3.09175330 0.00000000 0.00000000 0.04614894
Link 1 6 1 0 -0.31963428
Link 2 6 2 0 0.07112731
Link 3 6 3 0 0.30214053
Link 4 6 4 0 0.38414965
Link 5 6 5 0 0.73709957
Link 1 7 6 0 0.45704381
Link 2 7 7 0 0.15979505
Link 3 7 8 0 0.33740218
Link 4 7 9 0 0.53290634
Link 5 7 10 0 -0.68007826
Link 1 8 11 0 -0.33129040
Link 2 8 12 0 -0.82139798
Link 3 8 13 0 0.30714577
Link 4 8 14 0 0.61401708
Link 5 8 15 0 0.03046241
Link 1 9 16 0 0.04491761
Link 2 9 17 0 -0.14479244
Link 3 9 18 0 0.07666865
Link 4 9 19 0 -0.43206381
Link 5 9 20 0 -0.58394706
Link 1 10 21 0 -0.70236355
Link 2 10 22 0 -0.06140707
Link 3 10 23 0 -0.12361982
Link 4 10 24 0 0.05487129
Link 5 10 25 0 -0.45835945
Link 1 11 26 0 -0.50928844
Link 2 11 27 0 -0.00829027
Link 3 11 28 0 0.22350170
Link 4 11 29 0 -0.04111927
Link 5 11 30 0 -0.16097728
GenomeEnd

