GenomeStart 11
Neuron 1 1 0.00000000 1 0.00000000 0.00000000 0.00000000 0.00000000
Neuron 2 1 0.00000000 1 0.00000000 0.00000000 0.00000000 0.00000000
Neuron 3 1 0.00000000 1 0.00000000 0.00000000 0.00000000 0.00000000
Neuron 4 1 0.00000000 1 0.00000000 0.00000000 0.00000000 0.00000000
Neuron 5 2 0.00000000 1 0.00000000 0.00000000 0.00000000 0.00000000
Neuron 6 4 1.00000000 0 2.86490350 0.00000000 0.00000000 -0.46238487
Neuron 7 4 1.00000000 0 3.25037627 0.00000000 0.00000000 -0.20413189
Neuron 8 4 1.00000000 0 2.90988403 0.00000000 0.00000000 -0.70121288
Neuron 9 4 1.00000000 2 3.18360526 0.00000000 0.00000000 0.76908661
Neuron 10 4 1.00000000 0 2.87140312 0.00000000 0.00000000 0.49894131
Neuron 11 4 1.00000000 0 3.07022065 0.00000000 0.00000000 0.11198065
Link 1 6 1 0 -0.06117305
Link 2 6 2 0 -0.69675544
Link 3 6 3 0 -0.85721331
Link 4 6 4 0 -0.40478595
Link 5 6 5 0 -0.11400440
Link 1 7 6 0 0.10652751
Link 2 7 7 0 0.15726667
Link 3 7 8 0 0.09998750
Link 4 7 9 0 -0.36574375
Link 5 7 10 0 0.50482333
Link 1 8 11 0 -0.41884220
Link 2 8 12 0 0.06107761
Link 3 8 13 0 -0.67710961
Link 4 8 14 0 0.14290765
Link 5 8 15 0 0.25821921
Link 1 9 16 0 -0.32708004
Link 2 9 17 0 -0.55904767
Link 3 9 18 0 0.81249852
Link 4 9 19 0 0.12872864
Link 5 9 20 0 -0.37106633
Link 1 10 21 0 0.21853083
Link 2 10 22 0 0.17452573
Link 3 10 23 0 -0.12824841
Link 4 10 24 0 -0.17235691
Link 5 10 25 0 0.58906796
Link 1 11 26 0 -0.20499720
Link 2 11 27 0 -0.01778002
Link 3 11 28 0 0.01496447
Link 4 11 29 0 0.14558309
Link 5 11 30 0 0.79991330
GenomeEnd

