GenomeStart 2
Neuron 1 1 0.00000000 1 0.00000000 0.00000000 0.00000000 0.00000000
Neuron 2 1 0.00000000 1 0.00000000 0.00000000 0.00000000 0.00000000
Neuron 3 1 0.00000000 1 0.00000000 0.00000000 0.00000000 0.00000000
Neuron 4 1 0.00000000 1 0.00000000 0.00000000 0.00000000 0.00000000
Neuron 5 2 0.00000000 1 0.00000000 0.00000000 0.00000000 0.00000000
Neuron 6 4 1.00000000 0 3.37762153 0.00000000 0.00000000 -0.58968310
Neuron 7 4 1.00000000 0 3.20388897 0.00000000 0.00000000 -0.59374092
Neuron 8 4 1.00000000 0 2.88710306 0.00000000 0.00000000 -0.15031412
Neuron 9 4 1.00000000 0 3.43870662 0.00000000 0.00000000 -0.79184824
Neuron 10 4 1.00000000 2 2.60747262 0.00000000 0.00000000 0.14122441
Neuron 11 4 1.00000000 0 3.35765168 0.00000000 0.00000000 0.11721886
Link 1 6 1 0 0.19934764
Link 2 6 2 0 -0.59558365
Link 3 6 3 0 -0.17922229
Link 4 6 4 0 -0.35345700
Link 5 6 5 0 0.43602156
Link 1 7 6 0 0.37424621
Link 2 7 7 0 -0.20795907
Link 3 7 8 0 0.24135020
Link 4 7 9 0 0.43033758
Link 5 7 10 0 -0.23317874
Link 1 8 11 0 -0.17354522
Link 2 8 12 0 0.28841498
Link 3 8 13 0 -0.10699536
Link 4 8 14 0 0.50379273
Link 5 8 15 0 0.75472568
Link 1 9 16 0 -0.85439321
Link 2 9 17 0 -0.20922202
Link 3 9 18 0 -0.07783974
Link 4 9 19 0 -0.16016030
Link 5 9 20 0 0.59366050
Link 1 10 21 0 0.35919677
Link 2 10 22 0 0.67256759
Link 3 10 23 0 -0.44713594
Link 4 10 24 0 -0.70083425
Link 5 10 25 0 -0.04686016
Link 1 11 26 0 -0.34695106
Link 2 11 27 0 -0.58553712
Link 3 11 28 0 -0.87740456
Link 4 11 29 0 -0.22339713
Link 5 11 30 0 0.25739817
GenomeEnd

