GenomeStart 7
Neuron 1 1 0.00000000 1 0.00000000 0.00000000 0.00000000 0.00000000
Neuron 2 1 0.00000000 1 0.00000000 0.00000000 0.00000000 0.00000000
Neuron 3 1 0.00000000 1 0.00000000 0.00000000 0.00000000 0.00000000
Neuron 4 1 0.00000000 1 0.00000000 0.00000000 0.00000000 0.00000000
Neuron 5 2 0.00000000 1 0.00000000 0.00000000 0.00000000 0.00000000
Neuron 6 4 1.00000000 0 3.42474756 0.00000000 0.00000000 -0.22620371
Neuron 7 4 1.00000000 0 3.11973308 0.00000000 0.00000000 0.18392282
Neuron 8 4 1.00000000 0 3.03079276 0.00000000 0.00000000 -0.32926949
Neuron 9 4 1.00000000 0 2.73807848 0.00000000 0.00000000 0.35082679
Neuron 10 4 1.00000000 0 3.33287405 0.00000000 0.00000000 -0.14322120
Neuron 11 4 1.00000000 4 3.21477025 0.00000000 0.00000000 0.04029633
Link 1 6 1 0 0.25007490
Link 2 6 2 0 0.28235370
Link 3 6 3 0 0.58735189
Link 4 6 4 0 0.90003080
Link 5 6 5 0 0.37480383
Link 1 7 6 0 0.28129701
Link 2 7 7 0 -0.23113880
Link 3 7 8 0 -0.20919513
Link 4 7 9 0 0.20552283
Link 5 7 10 0 0.11636569
Link 1 8 11 0 0.56455336
Link 2 8 12 0 0.82489546
Link 3 8 13 0 0.88231589
Link 4 8 14 0 0.51163422
Link 5 8 15 0 0.11192657
Link 1 9 16 0 0.25856667
Link 2 9 17 0 -0.06481000
Link 3 9 18 0 -0.68792101
Link 4 9 19 0 -0.69599955
Link 5 9 20 0 -0.19118191
Link 1 10 21 0 -0.03875393
Link 2 10 22 0 0.39428189
Link 3 10 23 0 -0.80151865
Link 4 10 24 0 -0.22455098
Link 5 10 25 0 0.17577296
Link 1 11 26 0 -0.04048297
Link 2 11 27 0 0.27094776
Link 3 11 28 0 0.43203140
Link 4 11 29 0 0.29653416
Link 5 11 30 0 -0.29062460
GenomeEnd

