GenomeStart 10
Neuron 1 1 0.00000000 1 0.00000000 0.00000000 0.00000000 0.00000000
Neuron 2 1 0.00000000 1 0.00000000 0.00000000 0.00000000 0.00000000
Neuron 3 1 0.00000000 1 0.00000000 0.00000000 0.00000000 0.00000000
Neuron 4 1 0.00000000 1 0.00000000 0.00000000 0.00000000 0.00000000
Neuron 5 2 0.00000000 1 0.00000000 0.00000000 0.00000000 0.00000000
Neuron 6 4 1.00000000 0 2.91290329 0.00000000 0.00000000 0.71953150
Neuron 7 4 1.00000000 6 3.19234245 0.00000000 0.00000000 -0.88030002
Neuron 8 4 1.00000000 0 3.23471846 0.00000000 0.00000000 0.73092287
Neuron 9 4 1.00000000 0 3.12105713 0.00000000 0.00000000 -0.08898827
Neuron 10 4 1.00000000 0 3.07598265 0.00000000 0.00000000 -0.12820781
Neuron 11 4 1.00000000 0 3.09185063 0.00000000 0.00000000 -0.52701009
Link 1 6 1 0 -0.89768805
Link 2 6 2 0 0.02730222
Link 3 6 3 0 -0.79886748
Link 4 6 4 0 -0.10582484
Link 5 6 5 0 0.31205475
Link 1 7 6 0 0.31379320
Link 2 7 7 0 0.00766157
Link 3 7 8 0 0.76681713
Link 4 7 9 0 0.14432895
Link 5 7 10 0 0.39541748
Link 1 8 11 0 -0.08213855
Link 2 8 12 0 0.64254746
Link 3 8 13 0 0.10399776
Link 4 8 14 0 -0.06420182
Link 5 8 15 0 0.01547440
Link 1 9 16 0 -0.10393035
Link 2 9 17 0 0.45145208
Link 3 9 18 0 0.33437966
Link 4 9 19 0 0.42307296
Link 5 9 20 0 -0.52930286
Link 1 10 21 0 -0.35915443
Link 2 10 22 0 0.33265518
Link 3 10 23 0 -0.42263171
Link 4 10 24 0 0.46635972
Link 5 10 25 0 -0.01940446
Link 1 11 26 0 0.40548880
Link 2 11 27 0 -0.67762846
Link 3 11 28 0 -0.25565327
Link 4 11 29 0 -0.51259719
Link 5 11 30 0 -0.55455394
GenomeEnd

