GenomeStart 17
Neuron 1 1 0.00000000 1 0.00000000 0.00000000 0.00000000 0.00000000
Neuron 2 1 0.00000000 1 0.00000000 0.00000000 0.00000000 0.00000000
Neuron 3 1 0.00000000 1 0.00000000 0.00000000 0.00000000 0.00000000
Neuron 4 1 0.00000000 1 0.00000000 0.00000000 0.00000000 0.00000000
Neuron 5 2 0.00000000 1 0.00000000 0.00000000 0.00000000 0.00000000
Neuron 6 4 1.00000000 2 3.14757951 0.00000000 0.00000000 -0.00680556
Neuron 7 4 1.00000000 0 3.32427118 0.00000000 0.00000000 -0.67305479
Neuron 8 4 1.00000000 0 3.10990443 0.00000000 0.00000000 -0.41244119
Neuron 9 4 1.00000000 0 2.85573765 0.00000000 0.00000000 0.49319677
Neuron 10 4 1.00000000 0 2.80006228 0.00000000 0.00000000 0.11198975
Neuron 11 4 1.00000000 0 3.07737104 0.00000000 0.00000000 -0.60526801
Link 1 6 1 0 -0.10828171
Link 2 6 2 0 -0.09299476
Link 3 6 3 0 -0.44960145
Link 4 6 4 0 0.46297744
Link 5 6 5 0 0.27239617
Link 1 7 6 0 -0.74537544
Link 2 7 7 0 0.42963661
Link 3 7 8 0 0.06467623
Link 4 7 9 0 0.08082685
Link 5 7 10 0 -0.16929559
Link 1 8 11 0 -0.49444977
Link 2 8 12 0 0.07879414
Link 3 8 13 0 0.26948631
Link 4 8 14 0 -0.32647248
Link 5 8 15 0 0.28333238
Link 1 9 16 0 -0.43733280
Link 2 9 17 0 -0.08531192
Link 3 9 18 0 -0.17967407
Link 4 9 19 0 -0.23315166
Link 5 9 20 0 0.01770558
Link 1 10 21 0 0.25088837
Link 2 10 22 0 0.32020338
Link 3 10 23 0 0.29697802
Link 4 10 24 0 0.60903400
Link 5 10 25 0 0.39661206
Link 1 11 26 0 -0.33460034
Link 2 11 27 0 -0.79450251
Link 3 11 28 0 -0.20114571
Link 4 11 29 0 0.07766414
Link 5 11 30 0 0.28497248
GenomeEnd

