GenomeStart 4
Neuron 1 1 0.00000000 1 0.00000000 0.00000000 0.00000000 0.00000000
Neuron 2 1 0.00000000 1 0.00000000 0.00000000 0.00000000 0.00000000
Neuron 3 1 0.00000000 1 0.00000000 0.00000000 0.00000000 0.00000000
Neuron 4 1 0.00000000 1 0.00000000 0.00000000 0.00000000 0.00000000
Neuron 5 2 0.00000000 1 0.00000000 0.00000000 0.00000000 0.00000000
Neuron 6 4 1.00000000 0 3.09234921 0.00000000 0.00000000 -0.19532183
Neuron 7 4 1.00000000 6 2.77897551 0.00000000 0.00000000 0.28308014
Neuron 8 4 1.00000000 0 3.12924901 0.00000000 0.00000000 -0.72189318
Neuron 9 4 1.00000000 0 3.33418627 0.00000000 0.00000000 -0.42025212
Neuron 10 4 1.00000000 0 2.87077544 0.00000000 0.00000000 0.91106365
Neuron 11 4 1.00000000 0 3.09199243 0.00000000 0.00000000 -0.52763926
Link 1 6 1 0 -0.34986181
Link 2 6 2 0 -0.23416118
Link 3 6 3 0 -0.41745444
Link 4 6 4 0 0.42900965
Link 5 6 5 0 -0.02066167
Link 1 7 6 0 0.14445932
Link 2 7 7 0 -0.36351489
Link 3 7 8 0 0.14353646
Link 4 7 9 0 -0.77096593
Link 5 7 10 0 0.14896326
Link 1 8 11 0 0.14281260
Link 2 8 12 0 0.26554611
Link 3 8 13 0 0.13401682
Link 4 8 14 0 0.54685616
Link 5 8 15 0 0.87856455
Link 1 9 16 0 -0.60789460
Link 2 9 17 0 0.12627700
Link 3 9 18 0 0.35967020
Link 4 9 19 0 -0.70777864
Link 5 9 20 0 -0.66102244
Link 1 10 21 0 0.32469077
Link 2 10 22 0 -0.02938861
Link 3 10 23 0 -0.39157548
Link 4 10 24 0 -0.39952931
Link 5 10 25 0 -0.16850935
Link 1 11 26 0 0.32634962
Link 2 11 27 0 -0.47090636
Link 3 11 28 0 0.30197322
Link 4 11 29 0 -0.52175175
Link 5 11 30 0 -0.59859913
GenomeEnd

