GenomeStart 14
Neuron 1 1 0.00000000 1 0.00000000 0.00000000 0.00000000 0.00000000
Neuron 2 1 0.00000000 1 0.00000000 0.00000000 0.00000000 0.00000000
Neuron 3 1 0.00000000 1 0.00000000 0.00000000 0.00000000 0.00000000
Neuron 4 1 0.00000000 1 0.00000000 0.00000000 0.00000000 0.00000000
Neuron 5 2 0.00000000 1 0.00000000 0.00000000 0.00000000 0.00000000
Neuron 6 4 1.00000000 0 2.86102320 0.00000000 0.00000000 -0.22555079
Neuron 7 4 1.00000000 0 3.38585478 0.00000000 0.00000000 0.03758494
Neuron 8 4 1.00000000 0 2.91083931 0.00000000 0.00000000 0.46059540
Neuron 9 4 1.00000000 2 2.84034498 0.00000000 0.00000000 -0.34137714
Neuron 10 4 1.00000000 0 2.94493384 0.00000000 0.00000000 -0.26148719
Neuron 11 4 1.00000000 0 2.86695861 0.00000000 0.00000000 0.40968644
Link 1 6 1 0 0.30687679
Link 2 6 2 0 -0.52207136
Link 3 6 3 0 -0.05797510
Link 4 6 4 0 -0.72652140
Link 5 6 5 0 -0.28511977
Link 1 7 6 0 0.63109795
Link 2 7 7 0 0.40566088
Link 3 7 8 0 -0.08738941
Link 4 7 9 0 -0.16054598
Link 5 7 10 0 0.07941244
Link 1 8 11 0 0.06172652
Link 2 8 12 0 0.15256834
Link 3 8 13 0 -0.33003304
Link 4 8 14 0 0.22853891
Link 5 8 15 0 -0.54279560
Link 1 9 16 0 -0.13660375
Link 2 9 17 0 -0.39935219
Link 3 9 18 0 0.72719912
Link 4 9 19 0 -0.13579483
Link 5 9 20 0 -0.03709410
Link 1 10 21 0 -0.10789879
Link 2 10 22 0 0.00743012
Link 3 10 23 0 -0.85281393
Link 4 10 24 0 0.33614702
Link 5 10 25 0 0.14446451
Link 1 11 26 0 0.84917717
Link 2 11 27 0 -0.38168609
Link 3 11 28 0 0.32196669
Link 4 11 29 0 0.16747837
Link 5 11 30 0 0.46678146
GenomeEnd

