GenomeStart 3
Neuron 1 1 0.00000000 1 0.00000000 0.00000000 0.00000000 0.00000000
Neuron 2 1 0.00000000 1 0.00000000 0.00000000 0.00000000 0.00000000
Neuron 3 1 0.00000000 1 0.00000000 0.00000000 0.00000000 0.00000000
Neuron 4 1 0.00000000 1 0.00000000 0.00000000 0.00000000 0.00000000
Neuron 5 2 0.00000000 1 0.00000000 0.00000000 0.00000000 0.00000000
Neuron 6 4 1.00000000 0 3.06836099 0.00000000 0.00000000 0.51215541
Neuron 7 4 1.00000000 4 3.11305256 0.00000000 0.00000000 -0.67454004
Neuron 8 4 1.00000000 0 3.21841673 0.00000000 0.00000000 -0.33802528
Neuron 9 4 1.00000000 0 3.32428387 0.00000000 0.00000000 0.45194976
Neuron 10 4 1.00000000 0 3.10689816 0.00000000 0.00000000 -0.18069583
Neuron 11 4 1.00000000 0 3.31864928 0.00000000 0.00000000 -0.07259694
Link 1 6 1 0 0.12553109
Link 2 6 2 0 0.70365080
Link 3 6 3 0 -0.12428136
Link 4 6 4 0 0.27050974
Link 5 6 5 0 -0.49066151
Link 1 7 6 0 -0.07963395
Link 2 7 7 0 -0.24038504
Link 3 7 8 0 -0.01360674
Link 4 7 9 0 0.22394040
Link 5 7 10 0 -0.03698336
Link 1 8 11 0 -0.08062714
Link 2 8 12 0 0.25423472
Link 3 8 13 0 -0.79407383
Link 4 8 14 0 0.64358898
Link 5 8 15 0 -0.29826626
Link 1 9 16 0 -0.43632903
Link 2 9 17 0 -0.17618779
Link 3 9 18 0 0.38336430
Link 4 9 19 0 0.43474186
Link 5 9 20 0 0.05856526
Link 1 10 21 0 0.09470249
Link 2 10 22 0 -0.06319310
Link 3 10 23 0 -0.11835127
Link 4 10 24 0 0.80412156
Link 5 10 25 0 0.01720336
Link 1 11 26 0 0.27670441
Link 2 11 27 0 -0.10983462
Link 3 11 28 0 0.21026247
Link 4 11 29 0 -0.26309133
Link 5 11 30 0 0.05919124
GenomeEnd

