GenomeStart 6
Neuron 1 1 0.00000000 1 0.00000000 0.00000000 0.00000000 0.00000000
Neuron 2 1 0.00000000 1 0.00000000 0.00000000 0.00000000 0.00000000
Neuron 3 1 0.00000000 1 0.00000000 0.00000000 0.00000000 0.00000000
Neuron 4 1 0.00000000 1 0.00000000 0.00000000 0.00000000 0.00000000
Neuron 5 2 0.00000000 1 0.00000000 0.00000000 0.00000000 0.00000000
Neuron 6 4 1.00000000 6 3.07174554 0.00000000 0.00000000 -0.36740934
Neuron 7 4 1.00000000 0 3.10325157 0.00000000 0.00000000 0.17784754
Neuron 8 4 1.00000000 0 3.04432568 0.00000000 0.00000000 -0.78395293
Neuron 9 4 1.00000000 0 2.73220288 0.00000000 0.00000000 0.38081472
Neuron 10 4 1.00000000 0 2.71621719 0.00000000 0.00000000 0.17309464
Neuron 11 4 1.00000000 0 3.12135986 0.00000000 0.00000000 0.10035255
Link 1 6 1 0 -0.71386503
Link 2 6 2 0 -0.68543787
Link 3 6 3 0 -0.22249130
Link 4 6 4 0 0.37920072
Link 5 6 5 0 -0.01291412
Link 1 7 6 0 -0.16823625
Link 2 7 7 0 -0.26340931
Link 3 7 8 0 0.21295793
Link 4 7 9 0 0.40130167
Link 5 7 10 0 0.06012080
Link 1 8 11 0 0.12194615
Link 2 8 12 0 0.48307505
Link 3 8 13 0 -0.06392100
Link 4 8 14 0 0.43679935
Link 5 8 15 0 0.00144703
Link 1 9 16 0 0.11851903
Link 2 9 17 0 -0.80453555
Link 3 9 18 0 -0.46351886
Link 4 9 19 0 -0.03411496
Link 5 9 20 0 0.38658930
Link 1 10 21 0 0.16554013
Link 2 10 22 0 -0.21612911
Link 3 10 23 0 -0.15101611
Link 4 10 24 0 -0.18208993
Link 5 10 25 0 -0.32461963
Link 1 11 26 0 -0.49695008
Link 2 11 27 0 0.55246868
Link 3 11 28 0 -0.39532107
Link 4 11 29 0 0.43479167
Link 5 11 30 0 -0.02178674
GenomeEnd

