GenomeStart 7
Neuron 1 1 0.00000000 1 0.00000000 0.00000000 0.00000000 0.00000000
Neuron 2 1 0.00000000 1 0.00000000 0.00000000 0.00000000 0.00000000
Neuron 3 1 0.00000000 1 0.00000000 0.00000000 0.00000000 0.00000000
Neuron 4 1 0.00000000 1 0.00000000 0.00000000 0.00000000 0.00000000
Neuron 5 2 0.00000000 1 0.00000000 0.00000000 0.00000000 0.00000000
Neuron 6 4 1.00000000 0 3.23350397 0.00000000 0.00000000 0.18299329
Neuron 7 4 1.00000000 0 2.94370118 0.00000000 0.00000000 0.52673742
Neuron 8 4 1.00000000 0 2.78304310 0.00000000 0.00000000 -0.23344318
Neuron 9 4 1.00000000 0 2.88754185 0.00000000 0.00000000 0.75528625
Neuron 10 4 1.00000000 4 2.99613510 0.00000000 0.00000000 -0.61426080
Neuron 11 4 1.00000000 0 2.83259310 0.00000000 0.00000000 0.30781007
Link 1 6 1 0 0.02288772
Link 2 6 2 0 0.48805089
Link 3 6 3 0 0.66094521
Link 4 6 4 0 -0.12669624
Link 5 6 5 0 0.01228903
Link 1 7 6 0 0.04175665
Link 2 7 7 0 0.59135517
Link 3 7 8 0 0.77964972
Link 4 7 9 0 -0.70614450
Link 5 7 10 0 -0.60144975
Link 1 8 11 0 0.21614783
Link 2 8 12 0 -0.46657819
Link 3 8 13 0 -0.49307143
Link 4 8 14 0 -0.27812109
Link 5 8 15 0 -0.73605286
Link 1 9 16 0 -0.44037359
Link 2 9 17 0 -0.10152817
Link 3 9 18 0 -0.35519016
Link 4 9 19 0 -0.30764823
Link 5 9 20 0 -0.22030069
Link 1 10 21 0 0.22345725
Link 2 10 22 0 -0.39090614
Link 3 10 23 0 0.52333923
Link 4 10 24 0 -0.22241708
Link 5 10 25 0 -0.18455313
Link 1 11 26 0 0.44041672
Link 2 11 27 0 0.02687925
Link 3 11 28 0 -0.46183720
Link 4 11 29 0 -0.72456313
Link 5 11 30 0 0.32639879
GenomeEnd

