GenomeStart 9
Neuron 1 1 0.00000000 1 0.00000000 0.00000000 0.00000000 0.00000000
Neuron 2 1 0.00000000 1 0.00000000 0.00000000 0.00000000 0.00000000
Neuron 3 1 0.00000000 1 0.00000000 0.00000000 0.00000000 0.00000000
Neuron 4 1 0.00000000 1 0.00000000 0.00000000 0.00000000 0.00000000
Neuron 5 2 0.00000000 1 0.00000000 0.00000000 0.00000000 0.00000000
Neuron 6 4 1.00000000 0 2.67271750 0.00000000 0.00000000 -0.08765173
Neuron 7 4 1.00000000 4 2.94808434 0.00000000 0.00000000 0.87342759
Neuron 8 4 1.00000000 0 3.45880361 0.00000000 0.00000000 0.20430085
Neuron 9 4 1.00000000 0 3.03595374 0.00000000 0.00000000 -0.60075028
Neuron 10 4 1.00000000 0 2.95856099 0.00000000 0.00000000 -0.20745926
Neuron 11 4 1.00000000 0 3.07036443 0.00000000 0.00000000 -0.38695916
Link 1 6 1 0 -0.31916994
Link 2 6 2 0 0.20279549
Link 3 6 3 0 -0.14756869
Link 4 6 4 0 -0.19548480
Link 5 6 5 0 -0.30192406
Link 1 7 6 0 -0.12110377
Link 2 7 7 0 0.48503911
Link 3 7 8 0 0.02125223
Link 4 7 9 0 -0.32628908
Link 5 7 10 0 -0.45898325
Link 1 8 11 0 0.38472539
Link 2 8 12 0 -0.50252026
Link 3 8 13 0 -0.01814327
Link 4 8 14 0 0.25520539
Link 5 8 15 0 0.03203472
Link 1 9 16 0 -0.37261575
Link 2 9 17 0 -0.01525773
Link 3 9 18 0 0.28118587
Link 4 9 19 0 -0.40876753
Link 5 9 20 0 0.44746807
Link 1 10 21 0 0.27376820
Link 2 10 22 0 0.25226141
Link 3 10 23 0 -0.58740031
Link 4 10 24 0 -0.23642461
Link 5 10 25 0 -0.78108478
Link 1 11 26 0 -0.60646075
Link 2 11 27 0 0.53121098
Link 3 11 28 0 0.02992915
Link 4 11 29 0 -0.24844105
Link 5 11 30 0 0.16413630
GenomeEnd

