GenomeStart 16
Neuron 1 1 0.00000000 1 0.00000000 0.00000000 0.00000000 0.00000000
Neuron 2 1 0.00000000 1 0.00000000 0.00000000 0.00000000 0.00000000
Neuron 3 1 0.00000000 1 0.00000000 0.00000000 0.00000000 0.00000000
Neuron 4 1 0.00000000 1 0.00000000 0.00000000 0.00000000 0.00000000
Neuron 5 2 0.00000000 1 0.00000000 0.00000000 0.00000000 0.00000000
Neuron 6 4 1.00000000 0 2.65177202 0.00000000 0.00000000 0.23123391
Neuron 7 4 1.00000000 0 3.39544182 0.00000000 0.00000000 -0.14784114
Neuron 8 4 1.00000000 0 3.33697141 0.00000000 0.00000000 0.03018256
Neuron 9 4 1.00000000 11 3.00125804 0.00000000 0.00000000 0.65292040
Neuron 10 4 1.00000000 0 2.94734984 0.00000000 0.00000000 0.16550176
Neuron 11 4 1.00000000 0 3.03424164 0.00000000 0.00000000 0.25408702
Link 1 6 1 0 -0.37623671
Link 2 6 2 0 0.43847135
Link 3 6 3 0 0.01016478
Link 4 6 4 0 -0.45060307
Link 5 6 5 0 -0.04844845
Link 1 7 6 0 -0.04665371
Link 2 7 7 0 0.19764792
Link 3 7 8 0 0.02504593
Link 4 7 9 0 0.55758109
Link 5 7 10 0 0.68285871
Link 1 8 11 0 0.47994571
Link 2 8 12 0 0.09040498
Link 3 8 13 0 0.69920691
Link 4 8 14 0 -0.01039923
Link 5 8 15 0 -0.14339835
Link 1 9 16 0 0.24294497
Link 2 9 17 0 -0.85272266
Link 3 9 18 0 -0.49278028
Link 4 9 19 0 -0.39627285
Link 5 9 20 0 -0.05724927
Link 1 10 21 0 -0.51688785
Link 2 10 22 0 0.28069650
Link 3 10 23 0 0.56076996
Link 4 10 24 0 -0.29612169
Link 5 10 25 0 0.40949457
Link 1 11 26 0 0.48277077
Link 2 11 27 0 -0.60629259
Link 3 11 28 0 -0.19254376
Link 4 11 29 0 -0.02572655
Link 5 11 30 0 -0.48318202
GenomeEnd

