GenomeStart 8
Neuron 1 1 0.00000000 1 0.00000000 0.00000000 0.00000000 0.00000000
Neuron 2 1 0.00000000 1 0.00000000 0.00000000 0.00000000 0.00000000
Neuron 3 1 0.00000000 1 0.00000000 0.00000000 0.00000000 0.00000000
Neuron 4 1 0.00000000 1 0.00000000 0.00000000 0.00000000 0.00000000
Neuron 5 2 0.00000000 1 0.00000000 0.00000000 0.00000000 0.00000000
Neuron 6 4 1.00000000 0 3.23509250 0.00000000 0.00000000 -0.21155669
Neuron 7 4 1.00000000 0 3.20997022 0.00000000 0.00000000 0.84887705
Neuron 8 4 1.00000000 0 2.64890329 0.00000000 0.00000000 0.38705044
Neuron 9 4 1.00000000 0 2.93434506 0.00000000 0.00000000 -0.18402912
Neuron 10 4 1.00000000 0 2.60015960 0.00000000 0.00000000 0.00697442
Neuron 11 4 1.00000000 4 3.42414894 0.00000000 0.00000000 0.14955041
Link 1 6 1 0 0.55936079
Link 2 6 2 0 -0.45972340
Link 3 6 3 0 0.50416585
Link 4 6 4 0 -0.01767711
Link 5 6 5 0 -0.25560170
Link 1 7 6 0 -0.41902096
Link 2 7 7 0 -0.12846542
Link 3 7 8 0 0.21300658
Link 4 7 9 0 -0.40446241
Link 5 7 10 0 0.53380954
Link 1 8 11 0 -0.37235794
Link 2 8 12 0 -0.15836288
Link 3 8 13 0 0.42435469
Link 4 8 14 0 0.24797267
Link 5 8 15 0 0.02877371
Link 1 9 16 0 -0.67057471
Link 2 9 17 0 0.17245740
Link 3 9 18 0 -0.48654434
Link 4 9 19 0 -0.17566847
Link 5 9 20 0 0.21775009
Link 1 10 21 0 0.37460435
Link 2 10 22 0 -0.33773117
Link 3 10 23 0 -0.04061652
Link 4 10 24 0 0.09254764
Link 5 10 25 0 -0.48152404
Link 1 11 26 0 -0.77701755
Link 2 11 27 0 0.51204627
Link 3 11 28 0 -0.22626256
Link 4 11 29 0 0.40872119
Link 5 11 30 0 0.38482610
GenomeEnd

