GenomeStart 18
Neuron 1 1 0.00000000 1 0.00000000 0.00000000 0.00000000 0.00000000
Neuron 2 1 0.00000000 1 0.00000000 0.00000000 0.00000000 0.00000000
Neuron 3 1 0.00000000 1 0.00000000 0.00000000 0.00000000 0.00000000
Neuron 4 1 0.00000000 1 0.00000000 0.00000000 0.00000000 0.00000000
Neuron 5 2 0.00000000 1 0.00000000 0.00000000 0.00000000 0.00000000
Neuron 6 4 1.00000000 0 2.81550216 0.00000000 0.00000000 0.72910664
Neuron 7 4 1.00000000 0 3.26452934 0.00000000 0.00000000 0.05847370
Neuron 8 4 1.00000000 6 2.95384289 0.00000000 0.00000000 0.37948448
Neuron 9 4 1.00000000 0 3.21093654 0.00000000 0.00000000 -0.17685309
Neuron 10 4 1.00000000 0 2.67417647 0.00000000 0.00000000 0.72129866
Neuron 11 4 1.00000000 0 3.12352667 0.00000000 0.00000000 -0.37989515
Link 1 6 1 0 0.14384812
Link 2 6 2 0 0.42458776
Link 3 6 3 0 -0.50666665
Link 4 6 4 0 0.30109161
Link 5 6 5 0 -0.38860738
Link 1 7 6 0 0.44699747
Link 2 7 7 0 -0.46424599
Link 3 7 8 0 -0.08176709
Link 4 7 9 0 -0.23842519
Link 5 7 10 0 0.32720065
Link 1 8 11 0 0.45227206
Link 2 8 12 0 -0.02221242
Link 3 8 13 0 -0.28233555
Link 4 8 14 0 0.33950289
Link 5 8 15 0 0.02427286
Link 1 9 16 0 0.13212876
Link 2 9 17 0 -0.01679526
Link 3 9 18 0 0.62792874
Link 4 9 19 0 -0.18618428
Link 5 9 20 0 -0.12247398
Link 1 10 21 0 -0.10782860
Link 2 10 22 0 0.21181997
Link 3 10 23 0 0.13756251
Link 4 10 24 0 -0.14882487
Link 5 10 25 0 -0.47159973
Link 1 11 26 0 0.54841083
Link 2 11 27 0 -0.16277984
Link 3 11 28 0 -0.17051826
Link 4 11 29 0 0.48616653
Link 5 11 30 0 -0.82615620
GenomeEnd

