GenomeStart 15
Neuron 1 1 0.00000000 1 0.00000000 0.00000000 0.00000000 0.00000000
Neuron 2 1 0.00000000 1 0.00000000 0.00000000 0.00000000 0.00000000
Neuron 3 1 0.00000000 1 0.00000000 0.00000000 0.00000000 0.00000000
Neuron 4 1 0.00000000 1 0.00000000 0.00000000 0.00000000 0.00000000
Neuron 5 2 0.00000000 1 0.00000000 0.00000000 0.00000000 0.00000000
Neuron 6 4 1.00000000 0 3.19572149 0.00000000 0.00000000 0.22375784
Neuron 7 4 1.00000000 0 2.80435153 0.00000000 0.00000000 -0.37891293
Neuron 8 4 1.00000000 11 2.95984679 0.00000000 0.00000000 0.12949744
Neuron 9 4 1.00000000 0 2.85808652 0.00000000 0.00000000 0.03939421
Neuron 10 4 1.00000000 0 3.05252906 0.00000000 0.00000000 -0.05263444
Neuron 11 4 1.00000000 0 2.94967153 0.00000000 0.00000000 0.51910532
Link 1 6 1 0 0.75422565
Link 2 6 2 0 0.48863212
Link 3 6 3 0 -0.36642293
Link 4 6 4 0 -0.13399222
Link 5 6 5 0 -0.30040737
Link 1 7 6 0 0.54568547
Link 2 7 7 0 -0.73402738
Link 3 7 8 0 -0.22054026
Link 4 7 9 0 0.30520015
Link 5 7 10 0 0.03108363
Link 1 8 11 0 0.18212839
Link 2 8 12 0 0.13225277
Link 3 8 13 0 -0.51518106
Link 4 8 14 0 -0.33047299
Link 5 8 15 0 -0.16364023
Link 1 9 16 0 -0.28193462
Link 2 9 17 0 0.39653520
Link 3 9 18 0 0.00591257
Link 4 9 19 0 0.20509412
Link 5 9 20 0 -0.35161313
Link 1 10 21 0 0.16545724
Link 2 10 22 0 -0.12936016
Link 3 10 23 0 -0.04625591
Link 4 10 24 0 0.07870021
Link 5 10 25 0 0.60128929
Link 1 11 26 0 -0.17742360
Link 2 11 27 0 0.26087626
Link 3 11 28 0 -0.65602137
Link 4 11 29 0 0.76227468
Link 5 11 30 0 -0.15347432
GenomeEnd

