GenomeStart 12
Neuron 1 1 0.00000000 1 0.00000000 0.00000000 0.00000000 0.00000000
Neuron 2 1 0.00000000 1 0.00000000 0.00000000 0.00000000 0.00000000
Neuron 3 1 0.00000000 1 0.00000000 0.00000000 0.00000000 0.00000000
Neuron 4 1 0.00000000 1 0.00000000 0.00000000 0.00000000 0.00000000
Neuron 5 2 0.00000000 1 0.00000000 0.00000000 0.00000000 0.00000000
Neuron 6 4 1.00000000 0 3.26880476 0.00000000 0.00000000 -0.67505077
Neuron 7 4 1.00000000 0 3.39308224 0.00000000 0.00000000 0.14878279
Neuron 8 4 1.00000000 4 2.91081027 0.00000000 0.00000000 -0.20754928
Neuron 9 4 1.00000000 0 2.88955255 0.00000000 0.00000000 -0.30259229
Neuron 10 4 1.00000000 0 3.19158001 0.00000000 0.00000000 0.20631119
Neuron 11 4 1.00000000 0 3.09647921 0.00000000 0.00000000 -0.05344438
Link 1 6 1 0 -0.48330798
Link 2 6 2 0 0.16640210
Link 3 6 3 0 -0.05074211
Link 4 6 4 0 -0.70215602
Link 5 6 5 0 -0.11302970
Link 1 7 6 0 -0.00363884
Link 2 7 7 0 0.47932235
Link 3 7 8 0 0.14231054
Link 4 7 9 0 0.18032087
Link 5 7 10 0 -0.08807293
Link 1 8 11 0 0.06904989
Link 2 8 12 0 0.23184080
Link 3 8 13 0 0.19434295
Link 4 8 14 0 0.61531714
Link 5 8 15 0 -0.19038870
Link 1 9 16 0 0.23536417
Link 2 9 17 0 0.44994900
Link 3 9 18 0 0.10976563
Link 4 9 19 0 -0.22590948
Link 5 9 20 0 -0.13798544
Link 1 10 21 0 0.30705556
Link 2 10 22 0 0.83109722
Link 3 10 23 0 0.35348668
Link 4 10 24 0 0.21370010
Link 5 10 25 0 -0.19653067
Link 1 11 26 0 -0.44777371
Link 2 11 27 0 -0.30342286
Link 3 11 28 0 0.10736073
Link 4 11 29 0 0.62820611
Link 5 11 30 0 0.16814354
GenomeEnd

