GenomeStart 1
Neuron 1 1 0.00000000 1 0.00000000 0.00000000 0.00000000 0.00000000
Neuron 2 1 0.00000000 1 0.00000000 0.00000000 0.00000000 0.00000000
Neuron 3 1 0.00000000 1 0.00000000 0.00000000 0.00000000 0.00000000
Neuron 4 1 0.00000000 1 0.00000000 0.00000000 0.00000000 0.00000000
Neuron 5 2 0.00000000 1 0.00000000 0.00000000 0.00000000 0.00000000
Neuron 6 4 1.00000000 0 3.20672639 0.00000000 0.00000000 -0.15422568
Neuron 7 4 1.00000000 11 3.30387277 0.00000000 0.00000000 0.52566147
Neuron 8 4 1.00000000 0 3.22702869 0.00000000 0.00000000 0.11853912
Neuron 9 4 1.00000000 0 2.97413003 0.00000000 0.00000000 -0.44416942
Neuron 10 4 1.00000000 0 2.97512789 0.00000000 0.00000000 0.60977211
Neuron 11 4 1.00000000 0 2.61292875 0.00000000 0.00000000 -0.14164447
Link 1 6 1 0 0.01079608
Link 2 6 2 0 0.32865201
Link 3 6 3 0 0.55219935
Link 4 6 4 0 -0.68776588
Link 5 6 5 0 0.02762324
Link 1 7 6 0 0.77653180
Link 2 7 7 0 0.26938001
Link 3 7 8 0 0.44356764
Link 4 7 9 0 -0.45563177
Link 5 7 10 0 0.36609560
Link 1 8 11 0 0.60771523
Link 2 8 12 0 0.26400742
Link 3 8 13 0 -0.54799684
Link 4 8 14 0 -0.68814919
Link 5 8 15 0 -0.16840799
Link 1 9 16 0 -0.05661269
Link 2 9 17 0 0.03660603
Link 3 9 18 0 -0.22943035
Link 4 9 19 0 -0.23912341
Link 5 9 20 0 0.83125757
Link 1 10 21 0 -0.06313762
Link 2 10 22 0 0.86337582
Link 3 10 23 0 -0.25271681
Link 4 10 24 0 -0.40021812
Link 5 10 25 0 -0.33696089
Link 1 11 26 0 -0.50912438
Link 2 11 27 0 0.57861146
Link 3 11 28 0 0.03481511
Link 4 11 29 0 -0.69578042
Link 5 11 30 0 -0.40018106
GenomeEnd

