GenomeStart 11
Neuron 1 1 0.00000000 1 0.00000000 0.00000000 0.00000000 0.00000000
Neuron 2 1 0.00000000 1 0.00000000 0.00000000 0.00000000 0.00000000
Neuron 3 1 0.00000000 1 0.00000000 0.00000000 0.00000000 0.00000000
Neuron 4 1 0.00000000 1 0.00000000 0.00000000 0.00000000 0.00000000
Neuron 5 2 0.00000000 1 0.00000000 0.00000000 0.00000000 0.00000000
Neuron 6 4 1.00000000 0 2.72620876 0.00000000 0.00000000 0.27983675
Neuron 7 4 1.00000000 0 2.99036208 0.00000000 0.00000000 -0.04203145
Neuron 8 4 1.00000000 0 2.66659423 0.00000000 0.00000000 0.16670732
Neuron 9 4 1.00000000 0 2.96407553 0.00000000 0.00000000 0.22744445
Neuron 10 4 1.00000000 6 2.84091927 0.00000000 0.00000000 0.44796634
Neuron 11 4 1.00000000 0 3.33238901 0.00000000 0.00000000 0.23711776
Link 1 6 1 0 0.32170127
Link 2 6 2 0 -0.66060850
Link 3 6 3 0 -0.79902399
Link 4 6 4 0 -0.11009741
Link 5 6 5 0 0.54361260
Link 1 7 6 0 0.08541125
Link 2 7 7 0 0.41874835
Link 3 7 8 0 -0.13090940
Link 4 7 9 0 -0.64688834
Link 5 7 10 0 0.08057492
Link 1 8 11 0 0.42760722
Link 2 8 12 0 -0.53152876
Link 3 8 13 0 0.72284509
Link 4 8 14 0 -0.13709990
Link 5 8 15 0 -0.31634555
Link 1 9 16 0 0.14746550
Link 2 9 17 0 -0.31807738
Link 3 9 18 0 -0.14320932
Link 4 9 19 0 -0.49091650
Link 5 9 20 0 -0.12611038
Link 1 10 21 0 0.62243755
Link 2 10 22 0 -0.13642698
Link 3 10 23 0 0.85514204
Link 4 10 24 0 0.20593873
Link 5 10 25 0 0.22977445
Link 1 11 26 0 0.15370301
Link 2 11 27 0 0.46047027
Link 3 11 28 0 -0.57382642
Link 4 11 29 0 -0.70719631
Link 5 11 30 0 0.26044991
GenomeEnd

