GenomeStart 13
Neuron 1 1 0.00000000 1 0.00000000 0.00000000 0.00000000 0.00000000
Neuron 2 1 0.00000000 1 0.00000000 0.00000000 0.00000000 0.00000000
Neuron 3 1 0.00000000 1 0.00000000 0.00000000 0.00000000 0.00000000
Neuron 4 1 0.00000000 1 0.00000000 0.00000000 0.00000000 0.00000000
Neuron 5 2 0.00000000 1 0.00000000 0.00000000 0.00000000 0.00000000
Neuron 6 4 1.00000000 0 3.25210774 0.00000000 0.00000000 -0.14758244
Neuron 7 4 1.00000000 0 3.15572586 0.00000000 0.00000000 -0.51219273
Neuron 8 4 1.00000000 0 3.43106121 0.00000000 0.00000000 -0.30873175
Neuron 9 4 1.00000000 9 3.05570349 0.00000000 0.00000000 0.36027058
Neuron 10 4 1.00000000 0 2.91413652 0.00000000 0.00000000 -0.20255576
Neuron 11 4 1.00000000 0 2.72608865 0.00000000 0.00000000 -0.11598503
Link 1 6 1 0 -0.05721254
Link 2 6 2 0 0.04481491
Link 3 6 3 0 0.15747529
Link 4 6 4 0 0.06582573
Link 5 6 5 0 0.19634083
Link 1 7 6 0 -0.36372122
Link 2 7 7 0 0.78700350
Link 3 7 8 0 -0.48524122
Link 4 7 9 0 0.00035359
Link 5 7 10 0 -0.03534387
Link 1 8 11 0 -0.55032619
Link 2 8 12 0 0.06057724
Link 3 8 13 0 0.25829450
Link 4 8 14 0 0.16651093
Link 5 8 15 0 -0.68417678
Link 1 9 16 0 -0.07077492
Link 2 9 17 0 -0.39949444
Link 3 9 18 0 -0.22453055
Link 4 9 19 0 0.43620130
Link 5 9 20 0 -0.33241634
Link 1 10 21 0 0.41722013
Link 2 10 22 0 0.06949142
Link 3 10 23 0 0.21506960
Link 4 10 24 0 -0.23672931
Link 5 10 25 0 0.47299902
Link 1 11 26 0 -0.73866704
Link 2 11 27 0 0.71069869
Link 3 11 28 0 -0.81028865
Link 4 11 29 0 0.08855683
Link 5 11 30 0 -0.13195585
GenomeEnd

