GenomeStart 5
Neuron 1 1 0.00000000 1 0.00000000 0.00000000 0.00000000 0.00000000
Neuron 2 1 0.00000000 1 0.00000000 0.00000000 0.00000000 0.00000000
Neuron 3 1 0.00000000 1 0.00000000 0.00000000 0.00000000 0.00000000
Neuron 4 1 0.00000000 1 0.00000000 0.00000000 0.00000000 0.00000000
Neuron 5 2 0.00000000 1 0.00000000 0.00000000 0.00000000 0.00000000
Neuron 6 4 1.00000000 0 3.04991656 0.00000000 0.00000000 0.40619341
Neuron 7 4 1.00000000 11 3.28784432 0.00000000 0.00000000 -0.04213763
Neuron 8 4 1.00000000 0 3.04658894 0.00000000 0.00000000 -0.11246184
Neuron 9 4 1.00000000 0 3.34783621 0.00000000 0.00000000 0.27875261
Neuron 10 4 1.00000000 0 3.21129999 0.00000000 0.00000000 0.21197481
Neuron 11 4 1.00000000 0 2.63506152 0.00000000 0.00000000 -0.61252882
Link 1 6 1 0 -0.39219647
Link 2 6 2 0 -0.02147717
Link 3 6 3 0 -0.20725118
Link 4 6 4 0 0.16844371
Link 5 6 5 0 -0.02465253
Link 1 7 6 0 -0.06640848
Link 2 7 7 0 0.23677308
Link 3 7 8 0 -0.65636606
Link 4 7 9 0 0.48169040
Link 5 7 10 0 -0.40599923
Link 1 8 11 0 0.17199773
Link 2 8 12 0 0.24724389
Link 3 8 13 0 0.05661738
Link 4 8 14 0 -0.13244554
Link 5 8 15 0 0.14092886
Link 1 9 16 0 0.20846708
Link 2 9 17 0 -0.21422005
Link 3 9 18 0 0.23436186
Link 4 9 19 0 -0.20298637
Link 5 9 20 0 0.33405032
Link 1 10 21 0 -0.34807342
Link 2 10 22 0 -0.70641769
Link 3 10 23 0 -0.01635214
Link 4 10 24 0 0.29146225
Link 5 10 25 0 -0.04199841
Link 1 11 26 0 0.24708266
Link 2 11 27 0 -0.70105563
Link 3 11 28 0 -0.26559561
Link 4 11 29 0 0.64738343
Link 5 11 30 0 -0.01515879
GenomeEnd

