GenomeStart 19
Neuron 1 1 0.00000000 1 0.00000000 0.00000000 0.00000000 0.00000000
Neuron 2 1 0.00000000 1 0.00000000 0.00000000 0.00000000 0.00000000
Neuron 3 1 0.00000000 1 0.00000000 0.00000000 0.00000000 0.00000000
Neuron 4 1 0.00000000 1 0.00000000 0.00000000 0.00000000 0.00000000
Neuron 5 2 0.00000000 1 0.00000000 0.00000000 0.00000000 0.00000000
Neuron 6 4 1.00000000 0 3.03787912 0.00000000 0.00000000 -0.04119564
Neuron 7 4 1.00000000 0 2.75848611 0.00000000 0.00000000 -0.02709292
Neuron 8 4 1.00000000 0 2.79483779 0.00000000 0.00000000 0.01012279
Neuron 9 4 1.00000000 0 3.17405118 0.00000000 0.00000000 0.83114651
Neuron 10 4 1.00000000 0 3.47638038 0.00000000 0.00000000 0.59337010
Neuron 11 4 1.00000000 4 3.08035424 0.00000000 0.00000000 0.08430224
Link 1 6 1 0 0.20259458
Link 2 6 2 0 -0.46479790
Link 3 6 3 0 0.08620386
Link 4 6 4 0 -0.00026033
Link 5 6 5 0 0.35432511
Link 1 7 6 0 -0.06253305
Link 2 7 7 0 0.13217755
Link 3 7 8 0 0.28740786
Link 4 7 9 0 0.66806881
Link 5 7 10 0 0.13416712
Link 1 8 11 0 -0.26642295
Link 2 8 12 0 -0.48493351
Link 3 8 13 0 0.83976247
Link 4 8 14 0 0.45358272
Link 5 8 15 0 -0.21604647
Link 1 9 16 0 -0.45876237
Link 2 9 17 0 -0.86191603
Link 3 9 18 0 -0.64729205
Link 4 9 19 0 0.27490626
Link 5 9 20 0 -0.00978544
Link 1 10 21 0 -0.14799035
Link 2 10 22 0 0.67901488
Link 3 10 23 0 -0.41027958
Link 4 10 24 0 -0.11669467
Link 5 10 25 0 -0.30497669
Link 1 11 26 0 0.09533748
Link 2 11 27 0 -0.05298588
Link 3 11 28 0 -0.39023204
Link 4 11 29 0 -0.26504971
Link 5 11 30 0 -0.50713824
GenomeEnd

