GenomeStart 2
Neuron 1 1 0.00000000 1 0.00000000 0.00000000 0.00000000 0.00000000
Neuron 2 1 0.00000000 1 0.00000000 0.00000000 0.00000000 0.00000000
Neuron 3 1 0.00000000 1 0.00000000 0.00000000 0.00000000 0.00000000
Neuron 4 1 0.00000000 1 0.00000000 0.00000000 0.00000000 0.00000000
Neuron 5 2 0.00000000 1 0.00000000 0.00000000 0.00000000 0.00000000
Neuron 6 4 1.00000000 0 3.46884792 0.00000000 0.00000000 -0.43574931
Neuron 7 4 1.00000000 0 2.92040631 0.00000000 0.00000000 -0.10036068
Neuron 8 4 1.00000000 0 2.74437937 0.00000000 0.00000000 0.53028314
Neuron 9 4 1.00000000 0 3.13983550 0.00000000 0.00000000 0.40609496
Neuron 10 4 1.00000000 11 3.38691384 0.00000000 0.00000000 0.50608634
Neuron 11 4 1.00000000 0 3.17085340 0.00000000 0.00000000 0.28047050
Link 1 6 1 0 -0.31955413
Link 2 6 2 0 -0.21453012
Link 3 6 3 0 0.86053417
Link 4 6 4 0 0.40868749
Link 5 6 5 0 0.09194611
Link 1 7 6 0 -0.02939512
Link 2 7 7 0 0.09408726
Link 3 7 8 0 0.23705769
Link 4 7 9 0 -0.00681552
Link 5 7 10 0 0.52429516
Link 1 8 11 0 -0.38866992
Link 2 8 12 0 -0.23073441
Link 3 8 13 0 -0.26339636
Link 4 8 14 0 -0.37173420
Link 5 8 15 0 -0.33134749
Link 1 9 16 0 0.21787169
Link 2 9 17 0 0.13335245
Link 3 9 18 0 0.86568158
Link 4 9 19 0 0.17311831
Link 5 9 20 0 -0.22751992
Link 1 10 21 0 -0.21121365
Link 2 10 22 0 0.07544222
Link 3 10 23 0 -0.77387045
Link 4 10 24 0 0.06997128
Link 5 10 25 0 0.22608527
Link 1 11 26 0 0.04670525
Link 2 11 27 0 -0.88323539
Link 3 11 28 0 -0.46238476
Link 4 11 29 0 -0.17562673
Link 5 11 30 0 -0.14438273
GenomeEnd

