GenomeStart 0
Neuron 1 1 0.00000000 1 0.00000000 0.00000000 0.00000000 0.00000000
Neuron 2 1 0.00000000 1 0.00000000 0.00000000 0.00000000 0.00000000
Neuron 3 1 0.00000000 1 0.00000000 0.00000000 0.00000000 0.00000000
Neuron 4 1 0.00000000 1 0.00000000 0.00000000 0.00000000 0.00000000
Neuron 5 2 0.00000000 1 0.00000000 0.00000000 0.00000000 0.00000000
Neuron 6 4 1.00000000 0 3.18708809 0.00000000 0.00000000 0.12794789
Neuron 7 4 1.00000000 0 2.89556488 0.00000000 0.00000000 -0.59168563
Neuron 8 4 1.00000000 0 3.36870631 0.00000000 0.00000000 -0.68646737
Neuron 9 4 1.00000000 0 2.88170246 0.00000000 0.00000000 0.39615627
Neuron 10 4 1.00000000 0 2.78281650 0.00000000 0.00000000 0.03403050
Neuron 11 4 1.00000000 4 2.84173655 0.00000000 0.00000000 0.72702321
Link 1 6 1 0 -0.23604008
Link 2 6 2 0 -0.21155120
Link 3 6 3 0 -0.29454800
Link 4 6 4 0 -0.35094618
Link 5 6 5 0 0.02109090
Link 1 7 6 0 0.14783323
Link 2 7 7 0 -0.26391552
Link 3 7 8 0 -0.04547847
Link 4 7 9 0 0.71467368
Link 5 7 10 0 0.69247403
Link 1 8 11 0 -0.66174162
Link 2 8 12 0 -0.68873466
Link 3 8 13 0 0.19138054
Link 4 8 14 0 -0.08043578
Link 5 8 15 0 -0.49146673
Link 1 9 16 0 0.23169547
Link 2 9 17 0 -0.23590218
Link 3 9 18 0 0.36062035
Link 4 9 19 0 0.16889940
Link 5 9 20 0 -0.24820321
Link 1 10 21 0 0.77358103
Link 2 10 22 0 -0.38649073
Link 3 10 23 0 -0.27413899
Link 4 10 24 0 0.07563848
Link 5 10 25 0 -0.01554015
Link 1 11 26 0 -0.61868787
Link 2 11 27 0 -0.55650817
Link 3 11 28 0 -0.02976546
Link 4 11 29 0 0.07047061
Link 5 11 30 0 -0.01880433
GenomeEnd

