GenomeStart 0
Neuron 1 1 0.00000000 1 0.00000000 0.00000000 0.00000000 0.00000000
Neuron 2 1 0.00000000 1 0.00000000 0.00000000 0.00000000 0.00000000
Neuron 3 1 0.00000000 1 0.00000000 0.00000000 0.00000000 0.00000000
Neuron 4 1 0.00000000 1 0.00000000 0.00000000 0.00000000 0.00000000
Neuron 5 2 0.00000000 1 0.00000000 0.00000000 0.00000000 0.00000000
Neuron 6 4 1.00000000 0 3.05876155 0.00000000 0.00000000 0.47975121
Neuron 7 4 1.00000000 0 3.00432778 0.00000000 0.00000000 -0.28570172
Neuron 8 4 1.00000000 0 3.10864174 0.00000000 0.00000000 -0.31433815
Neuron 9 4 1.00000000 9 2.58153496 0.00000000 0.00000000 0.19244727
Neuron 10 4 1.00000000 0 2.87295236 0.00000000 0.00000000 -0.80337248
Neuron 11 4 1.00000000 0 2.65069974 0.00000000 0.00000000 0.49372559
Link 1 6 1 0 -0.20557064
Link 2 6 2 0 0.47647104
Link 3 6 3 0 0.26022494
Link 4 6 4 0 -0.27504880
Link 5 6 5 0 -0.15019608
Link 1 7 6 0 0.09447483
Link 2 7 7 0 -0.90015290
Link 3 7 8 0 0.51977355
Link 4 7 9 0 0.10132377
Link 5 7 10 0 0.55598009
Link 1 8 11 0 0.92250822
Link 2 8 12 0 -0.28228066
Link 3 8 13 0 0.47084472
Link 4 8 14 0 0.55558725
Link 5 8 15 0 0.83000454
Link 1 9 16 0 0.53734566
Link 2 9 17 0 0.09772827
Link 3 9 18 0 0.08438529
Link 4 9 19 0 0.46431380
Link 5 9 20 0 0.04556848
Link 1 10 21 0 0.08522008
Link 2 10 22 0 -0.19949901
Link 3 10 23 0 0.00644960
Link 4 10 24 0 0.34295168
Link 5 10 25 0 -0.53184051
Link 1 11 26 0 0.60221401
Link 2 11 27 0 0.02803264
Link 3 11 28 0 0.00979251
Link 4 11 29 0 -0.20982180
Link 5 11 30 0 -0.49117956
GenomeEnd

