GenomeStart 6
Neuron 1 1 0.00000000 1 0.00000000 0.00000000 0.00000000 0.00000000
Neuron 2 1 0.00000000 1 0.00000000 0.00000000 0.00000000 0.00000000
Neuron 3 1 0.00000000 1 0.00000000 0.00000000 0.00000000 0.00000000
Neuron 4 1 0.00000000 1 0.00000000 0.00000000 0.00000000 0.00000000
Neuron 5 2 0.00000000 1 0.00000000 0.00000000 0.00000000 0.00000000
Neuron 6 4 1.00000000 0 3.08497605 0.00000000 0.00000000 -0.67731963
Neuron 7 4 1.00000000 0 2.72319448 0.00000000 0.00000000 0.63174323
Neuron 8 4 1.00000000 0 3.22315396 0.00000000 0.00000000 -0.00389559
Neuron 9 4 1.00000000 11 2.93766352 0.00000000 0.00000000 0.81141411
Neuron 10 4 1.00000000 0 2.83133312 0.00000000 0.00000000 -0.30394003
Neuron 11 4 1.00000000 0 3.22543576 0.00000000 0.00000000 0.54265941
Link 1 6 1 0 -0.46536468
Link 2 6 2 0 0.52659889
Link 3 6 3 0 0.88676621
Link 4 6 4 0 -0.07337426
Link 5 6 5 0 0.01498980
Link 1 7 6 0 0.06639569
Link 2 7 7 0 0.28404163
Link 3 7 8 0 -0.68530210
Link 4 7 9 0 0.00535276
Link 5 7 10 0 0.61062540
Link 1 8 11 0 0.46861855
Link 2 8 12 0 -0.69191438
Link 3 8 13 0 0.26149836
Link 4 8 14 0 -0.06558404
Link 5 8 15 0 0.49750193
Link 1 9 16 0 0.11430558
Link 2 9 17 0 0.42897549
Link 3 9 18 0 -0.03057879
Link 4 9 19 0 -0.38684579
Link 5 9 20 0 0.16091138
Link 1 10 21 0 0.44182004
Link 2 10 22 0 -0.01524574
Link 3 10 23 0 0.13337455
Link 4 10 24 0 -0.56741132
Link 5 10 25 0 0.20932937
Link 1 11 26 0 -0.47471375
Link 2 11 27 0 0.28447909
Link 3 11 28 0 -0.25637407
Link 4 11 29 0 0.67539823
Link 5 11 30 0 0.38146426
GenomeEnd

