GenomeStart 17
Neuron 1 1 0.00000000 1 0.00000000 0.00000000 0.00000000 0.00000000
Neuron 2 1 0.00000000 1 0.00000000 0.00000000 0.00000000 0.00000000
Neuron 3 1 0.00000000 1 0.00000000 0.00000000 0.00000000 0.00000000
Neuron 4 1 0.00000000 1 0.00000000 0.00000000 0.00000000 0.00000000
Neuron 5 2 0.00000000 1 0.00000000 0.00000000 0.00000000 0.00000000
Neuron 6 4 1.00000000 0 2.74607638 0.00000000 0.00000000 -0.70691899
Neuron 7 4 1.00000000 0 2.80919155 0.00000000 0.00000000 -0.76051278
Neuron 8 4 1.00000000 0 2.83209261 0.00000000 0.00000000 0.03132686
Neuron 9 4 1.00000000 0 3.08704393 0.00000000 0.00000000 -0.22348309
Neuron 10 4 1.00000000 0 2.93085806 0.00000000 0.00000000 -0.54855372
Neuron 11 4 1.00000000 6 2.69673016 0.00000000 0.00000000 -0.47709961
Link 1 6 1 0 0.00185875
Link 2 6 2 0 -0.09845606
Link 3 6 3 0 0.70750885
Link 4 6 4 0 -0.22448272
Link 5 6 5 0 0.22579585
Link 1 7 6 0 0.51946041
Link 2 7 7 0 -0.04816774
Link 3 7 8 0 0.38152415
Link 4 7 9 0 0.06342918
Link 5 7 10 0 -0.17655854
Link 1 8 11 0 0.02188772
Link 2 8 12 0 0.03000190
Link 3 8 13 0 -0.08490693
Link 4 8 14 0 0.01854667
Link 5 8 15 0 0.21060913
Link 1 9 16 0 0.55061522
Link 2 9 17 0 -0.33600364
Link 3 9 18 0 -0.07505894
Link 4 9 19 0 -0.69522112
Link 5 9 20 0 0.86690342
Link 1 10 21 0 0.59294945
Link 2 10 22 0 -0.84906954
Link 3 10 23 0 -0.01257555
Link 4 10 24 0 -0.63911833
Link 5 10 25 0 -0.07164624
Link 1 11 26 0 0.18698870
Link 2 11 27 0 -0.30859192
Link 3 11 28 0 0.38999333
Link 4 11 29 0 -0.59454213
Link 5 11 30 0 0.24921537
GenomeEnd

