GenomeStart 1
Neuron 1 1 0.00000000 1 0.00000000 0.00000000 0.00000000 0.00000000
Neuron 2 1 0.00000000 1 0.00000000 0.00000000 0.00000000 0.00000000
Neuron 3 1 0.00000000 1 0.00000000 0.00000000 0.00000000 0.00000000
Neuron 4 1 0.00000000 1 0.00000000 0.00000000 0.00000000 0.00000000
Neuron 5 2 0.00000000 1 0.00000000 0.00000000 0.00000000 0.00000000
Neuron 6 4 1.00000000 0 3.04673873 0.00000000 0.00000000 -0.32678305
Neuron 7 4 1.00000000 0 3.17265548 0.00000000 0.00000000 0.31529642
Neuron 8 4 1.00000000 0 3.44284212 0.00000000 0.00000000 0.04699633
Neuron 9 4 1.00000000 0 3.30594771 0.00000000 0.00000000 -0.22505012
Neuron 10 4 1.00000000 2 3.36854005 0.00000000 0.00000000 0.28848815
Neuron 11 4 1.00000000 0 3.12542509 0.00000000 0.00000000 -0.76347866
Link 1 6 1 0 0.34407461
Link 2 6 2 0 0.04018832
Link 3 6 3 0 -0.03587180
Link 4 6 4 0 0.28259229
Link 5 6 5 0 -0.13599979
Link 1 7 6 0 0.36078571
Link 2 7 7 0 -0.34828456
Link 3 7 8 0 -0.46501282
Link 4 7 9 0 -0.69855125
Link 5 7 10 0 0.73790862
Link 1 8 11 0 -0.59292694
Link 2 8 12 0 -0.15875197
Link 3 8 13 0 -0.35199312
Link 4 8 14 0 -0.41547164
Link 5 8 15 0 -0.67484544
Link 1 9 16 0 -0.25735958
Link 2 9 17 0 0.04153144
Link 3 9 18 0 -0.41492384
Link 4 9 19 0 0.36428161
Link 5 9 20 0 0.34865578
Link 1 10 21 0 0.22083234
Link 2 10 22 0 0.30488220
Link 3 10 23 0 -0.71814926
Link 4 10 24 0 -0.10639449
Link 5 10 25 0 -0.39416771
Link 1 11 26 0 0.00540645
Link 2 11 27 0 0.27866637
Link 3 11 28 0 -0.22549055
Link 4 11 29 0 -0.24814021
Link 5 11 30 0 0.28738089
GenomeEnd

