GenomeStart 10
Neuron 1 1 0.00000000 1 0.00000000 0.00000000 0.00000000 0.00000000
Neuron 2 1 0.00000000 1 0.00000000 0.00000000 0.00000000 0.00000000
Neuron 3 1 0.00000000 1 0.00000000 0.00000000 0.00000000 0.00000000
Neuron 4 1 0.00000000 1 0.00000000 0.00000000 0.00000000 0.00000000
Neuron 5 2 0.00000000 1 0.00000000 0.00000000 0.00000000 0.00000000
Neuron 6 4 1.00000000 0 2.56923898 0.00000000 0.00000000 0.20689950
Neuron 7 4 1.00000000 0 3.17486619 0.00000000 0.00000000 0.28545415
Neuron 8 4 1.00000000 0 3.20554551 0.00000000 0.00000000 0.57184239
Neuron 9 4 1.00000000 9 3.08861067 0.00000000 0.00000000 0.64113526
Neuron 10 4 1.00000000 0 2.98109850 0.00000000 0.00000000 0.71153911
Neuron 11 4 1.00000000 0 2.99749354 0.00000000 0.00000000 0.66201744
Link 1 6 1 0 0.72555106
Link 2 6 2 0 0.68055756
Link 3 6 3 0 -0.01598982
Link 4 6 4 0 -0.23121542
Link 5 6 5 0 0.42209481
Link 1 7 6 0 -0.43075477
Link 2 7 7 0 0.23041071
Link 3 7 8 0 0.24933941
Link 4 7 9 0 -0.08779897
Link 5 7 10 0 -0.47833506
Link 1 8 11 0 -0.06727949
Link 2 8 12 0 -0.52617940
Link 3 8 13 0 0.30329415
Link 4 8 14 0 -0.06044256
Link 5 8 15 0 -0.12139076
Link 1 9 16 0 -0.56016285
Link 2 9 17 0 -0.13070982
Link 3 9 18 0 0.56981593
Link 4 9 19 0 -0.62667386
Link 5 9 20 0 -0.73787213
Link 1 10 21 0 -0.30481674
Link 2 10 22 0 -0.02261894
Link 3 10 23 0 -0.43526316
Link 4 10 24 0 0.02454425
Link 5 10 25 0 -0.06101507
Link 1 11 26 0 0.85479141
Link 2 11 27 0 0.48227727
Link 3 11 28 0 -0.12810582
Link 4 11 29 0 -0.81539012
Link 5 11 30 0 0.85290961
GenomeEnd

