GenomeStart 6
Neuron 1 1 0.00000000 1 0.00000000 0.00000000 0.00000000 0.00000000
Neuron 2 1 0.00000000 1 0.00000000 0.00000000 0.00000000 0.00000000
Neuron 3 1 0.00000000 1 0.00000000 0.00000000 0.00000000 0.00000000
Neuron 4 1 0.00000000 1 0.00000000 0.00000000 0.00000000 0.00000000
Neuron 5 2 0.00000000 1 0.00000000 0.00000000 0.00000000 0.00000000
Neuron 6 4 1.00000000 0 3.21004379 0.00000000 0.00000000 0.36089865
Neuron 7 4 1.00000000 0 2.85495429 0.00000000 0.00000000 -0.60071496
Neuron 8 4 1.00000000 0 2.73984851 0.00000000 0.00000000 0.42467172
Neuron 9 4 1.00000000 0 2.61658967 0.00000000 0.00000000 0.19811889
Neuron 10 4 1.00000000 9 2.88233252 0.00000000 0.00000000 0.06215270
Neuron 11 4 1.00000000 0 2.71045546 0.00000000 0.00000000 0.37978196
Link 1 6 1 0 -0.56206765
Link 2 6 2 0 0.52042925
Link 3 6 3 0 0.23900772
Link 4 6 4 0 0.33394052
Link 5 6 5 0 -0.31873882
Link 1 7 6 0 0.45806377
Link 2 7 7 0 -0.16259527
Link 3 7 8 0 -0.13661301
Link 4 7 9 0 -0.48161156
Link 5 7 10 0 -0.27519408
Link 1 8 11 0 0.03034452
Link 2 8 12 0 -0.53933467
Link 3 8 13 0 -0.69115724
Link 4 8 14 0 -0.16578760
Link 5 8 15 0 0.01591662
Link 1 9 16 0 -0.62926385
Link 2 9 17 0 0.33612064
Link 3 9 18 0 0.29439607
Link 4 9 19 0 0.37465903
Link 5 9 20 0 -0.02892117
Link 1 10 21 0 -0.08269503
Link 2 10 22 0 0.32974452
Link 3 10 23 0 0.06672237
Link 4 10 24 0 0.04688696
Link 5 10 25 0 -0.47028257
Link 1 11 26 0 0.14244744
Link 2 11 27 0 -0.01854899
Link 3 11 28 0 -0.08698276
Link 4 11 29 0 0.22598210
Link 5 11 30 0 0.30933520
GenomeEnd

