GenomeStart 9
Neuron 1 1 0.00000000 1 0.00000000 0.00000000 0.00000000 0.00000000
Neuron 2 1 0.00000000 1 0.00000000 0.00000000 0.00000000 0.00000000
Neuron 3 1 0.00000000 1 0.00000000 0.00000000 0.00000000 0.00000000
Neuron 4 1 0.00000000 1 0.00000000 0.00000000 0.00000000 0.00000000
Neuron 5 2 0.00000000 1 0.00000000 0.00000000 0.00000000 0.00000000
Neuron 6 4 1.00000000 0 2.96638570 0.00000000 0.00000000 -0.30599664
Neuron 7 4 1.00000000 0 3.10317309 0.00000000 0.00000000 0.50432804
Neuron 8 4 1.00000000 0 3.08765092 0.00000000 0.00000000 0.75995203
Neuron 9 4 1.00000000 4 3.21936050 0.00000000 0.00000000 -0.19887021
Neuron 10 4 1.00000000 0 3.47469238 0.00000000 0.00000000 -0.74565552
Neuron 11 4 1.00000000 0 2.72870448 0.00000000 0.00000000 0.15759531
Link 1 6 1 0 -0.14492755
Link 2 6 2 0 0.09773013
Link 3 6 3 0 -0.18869632
Link 4 6 4 0 0.03383709
Link 5 6 5 0 0.04879633
Link 1 7 6 0 -0.31486951
Link 2 7 7 0 -0.05747044
Link 3 7 8 0 0.46230364
Link 4 7 9 0 -0.41417196
Link 5 7 10 0 -0.24582530
Link 1 8 11 0 0.39865101
Link 2 8 12 0 0.04677320
Link 3 8 13 0 -0.50381187
Link 4 8 14 0 -0.41398736
Link 5 8 15 0 -0.88597317
Link 1 9 16 0 0.16044868
Link 2 9 17 0 -0.42353745
Link 3 9 18 0 -0.57376781
Link 4 9 19 0 0.10628472
Link 5 9 20 0 -0.24373892
Link 1 10 21 0 -0.35455901
Link 2 10 22 0 -0.38855561
Link 3 10 23 0 -0.47190162
Link 4 10 24 0 0.39244497
Link 5 10 25 0 -0.18327447
Link 1 11 26 0 0.08837688
Link 2 11 27 0 -0.02242723
Link 3 11 28 0 0.19896310
Link 4 11 29 0 0.15234874
Link 5 11 30 0 -0.63197283
GenomeEnd

