GenomeStart 12
Neuron 1 1 0.00000000 1 0.00000000 0.00000000 0.00000000 0.00000000
Neuron 2 1 0.00000000 1 0.00000000 0.00000000 0.00000000 0.00000000
Neuron 3 1 0.00000000 1 0.00000000 0.00000000 0.00000000 0.00000000
Neuron 4 1 0.00000000 1 0.00000000 0.00000000 0.00000000 0.00000000
Neuron 5 2 0.00000000 1 0.00000000 0.00000000 0.00000000 0.00000000
Neuron 6 4 1.00000000 0 2.92588965 0.00000000 0.00000000 -0.13737958
Neuron 7 4 1.00000000 4 3.29770563 0.00000000 0.00000000 0.19246668
Neuron 8 4 1.00000000 0 2.80562260 0.00000000 0.00000000 -0.00279552
Neuron 9 4 1.00000000 0 3.11307942 0.00000000 0.00000000 0.03229121
Neuron 10 4 1.00000000 0 2.74541244 0.00000000 0.00000000 0.19713676
Neuron 11 4 1.00000000 0 3.04100897 0.00000000 0.00000000 0.28024323
Link 1 6 1 0 0.03761439
Link 2 6 2 0 0.65905251
Link 3 6 3 0 0.04287700
Link 4 6 4 0 -0.19790028
Link 5 6 5 0 -0.32110684
Link 1 7 6 0 0.58104347
Link 2 7 7 0 0.00585958
Link 3 7 8 0 0.17050353
Link 4 7 9 0 0.23739868
Link 5 7 10 0 -0.57627521
Link 1 8 11 0 -0.87269222
Link 2 8 12 0 -0.08520988
Link 3 8 13 0 -0.58532425
Link 4 8 14 0 0.20720966
Link 5 8 15 0 0.21273828
Link 1 9 16 0 0.15706734
Link 2 9 17 0 -0.04995566
Link 3 9 18 0 0.77528444
Link 4 9 19 0 0.16195809
Link 5 9 20 0 -0.66170997
Link 1 10 21 0 -0.07524930
Link 2 10 22 0 -0.43044178
Link 3 10 23 0 -0.49902536
Link 4 10 24 0 0.06613229
Link 5 10 25 0 0.18328393
Link 1 11 26 0 -0.09407383
Link 2 11 27 0 -0.24502975
Link 3 11 28 0 0.75065428
Link 4 11 29 0 -0.09516281
Link 5 11 30 0 0.01034888
GenomeEnd

