GenomeStart 0
Neuron 1 1 0.00000000 1 0.00000000 0.00000000 0.00000000 0.00000000
Neuron 2 1 0.00000000 1 0.00000000 0.00000000 0.00000000 0.00000000
Neuron 3 1 0.00000000 1 0.00000000 0.00000000 0.00000000 0.00000000
Neuron 4 1 0.00000000 1 0.00000000 0.00000000 0.00000000 0.00000000
Neuron 5 2 0.00000000 1 0.00000000 0.00000000 0.00000000 0.00000000
Neuron 6 4 1.00000000 6 3.11443937 0.00000000 0.00000000 0.08608953
Neuron 7 4 1.00000000 0 2.85011607 0.00000000 0.00000000 -0.14433030
Neuron 8 4 1.00000000 0 2.83202128 0.00000000 0.00000000 0.95592688
Neuron 9 4 1.00000000 0 2.96021364 0.00000000 0.00000000 -0.33384877
Neuron 10 4 1.00000000 0 2.89694746 0.00000000 0.00000000 0.98537777
Neuron 11 4 1.00000000 0 2.85163451 0.00000000 0.00000000 -0.39703209
Link 1 6 1 0 -0.19334036
Link 2 6 2 0 0.24278819
Link 3 6 3 0 -0.51074945
Link 4 6 4 0 0.42318634
Link 5 6 5 0 -0.57378837
Link 1 7 6 0 -0.34213247
Link 2 7 7 0 0.14139271
Link 3 7 8 0 -0.12870217
Link 4 7 9 0 0.18770300
Link 5 7 10 0 0.30814753
Link 1 8 11 0 -0.39132277
Link 2 8 12 0 -0.52781533
Link 3 8 13 0 -0.36781150
Link 4 8 14 0 -0.70103159
Link 5 8 15 0 -0.00594146
Link 1 9 16 0 0.53371148
Link 2 9 17 0 0.01948173
Link 3 9 18 0 -0.12079813
Link 4 9 19 0 0.24528029
Link 5 9 20 0 -0.11253740
Link 1 10 21 0 0.62430517
Link 2 10 22 0 -0.75685545
Link 3 10 23 0 -0.05145537
Link 4 10 24 0 -0.41085821
Link 5 10 25 0 -0.07730227
Link 1 11 26 0 -0.19377648
Link 2 11 27 0 -0.00992921
Link 3 11 28 0 -0.11408308
Link 4 11 29 0 0.14467429
Link 5 11 30 0 -0.29173614
GenomeEnd

