GenomeStart 11
Neuron 1 1 0.00000000 1 0.00000000 0.00000000 0.00000000 0.00000000
Neuron 2 1 0.00000000 1 0.00000000 0.00000000 0.00000000 0.00000000
Neuron 3 1 0.00000000 1 0.00000000 0.00000000 0.00000000 0.00000000
Neuron 4 1 0.00000000 1 0.00000000 0.00000000 0.00000000 0.00000000
Neuron 5 2 0.00000000 1 0.00000000 0.00000000 0.00000000 0.00000000
Neuron 6 4 1.00000000 0 3.14514233 0.00000000 0.00000000 0.23639454
Neuron 7 4 1.00000000 0 2.79789660 0.00000000 0.00000000 0.48897826
Neuron 8 4 1.00000000 0 2.86096176 0.00000000 0.00000000 0.34575796
Neuron 9 4 1.00000000 4 3.12231831 0.00000000 0.00000000 0.11762272
Neuron 10 4 1.00000000 0 3.42648340 0.00000000 0.00000000 0.79971100
Neuron 11 4 1.00000000 0 3.35860520 0.00000000 0.00000000 0.21649645
Link 1 6 1 0 -0.53414500
Link 2 6 2 0 0.23601991
Link 3 6 3 0 -0.34827027
Link 4 6 4 0 -0.85659368
Link 5 6 5 0 -0.29861847
Link 1 7 6 0 0.25761277
Link 2 7 7 0 0.21795665
Link 3 7 8 0 -0.33390695
Link 4 7 9 0 -0.22994694
Link 5 7 10 0 -0.70535761
Link 1 8 11 0 0.28908022
Link 2 8 12 0 -0.18818292
Link 3 8 13 0 0.20197960
Link 4 8 14 0 -0.72999723
Link 5 8 15 0 -0.12649260
Link 1 9 16 0 0.59849225
Link 2 9 17 0 0.26136997
Link 3 9 18 0 -0.16989353
Link 4 9 19 0 -0.63144410
Link 5 9 20 0 0.47581951
Link 1 10 21 0 0.41520863
Link 2 10 22 0 0.37228952
Link 3 10 23 0 0.80121650
Link 4 10 24 0 0.06375353
Link 5 10 25 0 0.44042963
Link 1 11 26 0 -0.08648612
Link 2 11 27 0 -0.56410974
Link 3 11 28 0 0.30197456
Link 4 11 29 0 0.09301755
Link 5 11 30 0 0.59861908
GenomeEnd

