GenomeStart 19
Neuron 1 1 0.00000000 1 0.00000000 0.00000000 0.00000000 0.00000000
Neuron 2 1 0.00000000 1 0.00000000 0.00000000 0.00000000 0.00000000
Neuron 3 1 0.00000000 1 0.00000000 0.00000000 0.00000000 0.00000000
Neuron 4 1 0.00000000 1 0.00000000 0.00000000 0.00000000 0.00000000
Neuron 5 2 0.00000000 1 0.00000000 0.00000000 0.00000000 0.00000000
Neuron 6 4 1.00000000 0 2.91783485 0.00000000 0.00000000 -0.07373723
Neuron 7 4 1.00000000 0 3.37549141 0.00000000 0.00000000 -0.64639915
Neuron 8 4 1.00000000 0 3.29094166 0.00000000 0.00000000 -0.25045125
Neuron 9 4 1.00000000 11 2.90178359 0.00000000 0.00000000 0.47482556
Neuron 10 4 1.00000000 0 3.43699512 0.00000000 0.00000000 0.52870324
Neuron 11 4 1.00000000 0 2.65241613 0.00000000 0.00000000 -0.50971722
Link 1 6 1 0 0.12739854
Link 2 6 2 0 -0.13274239
Link 3 6 3 0 0.67225170
Link 4 6 4 0 0.05143733
Link 5 6 5 0 0.39678326
Link 1 7 6 0 0.38295097
Link 2 7 7 0 -0.20851154
Link 3 7 8 0 0.69199127
Link 4 7 9 0 -0.03171569
Link 5 7 10 0 -0.36593013
Link 1 8 11 0 -0.01044913
Link 2 8 12 0 -0.84213389
Link 3 8 13 0 -0.00111139
Link 4 8 14 0 0.20174886
Link 5 8 15 0 -0.59439082
Link 1 9 16 0 -0.25175438
Link 2 9 17 0 -0.13766370
Link 3 9 18 0 0.31552703
Link 4 9 19 0 0.77052374
Link 5 9 20 0 -0.04723672
Link 1 10 21 0 0.13789243
Link 2 10 22 0 -0.38909802
Link 3 10 23 0 -0.02301911
Link 4 10 24 0 -0.56557669
Link 5 10 25 0 0.32567708
Link 1 11 26 0 -0.68515440
Link 2 11 27 0 0.45560419
Link 3 11 28 0 0.11541086
Link 4 11 29 0 -0.22570639
Link 5 11 30 0 0.34120216
GenomeEnd

