GenomeStart 3
Neuron 1 1 0.00000000 1 0.00000000 0.00000000 0.00000000 0.00000000
Neuron 2 1 0.00000000 1 0.00000000 0.00000000 0.00000000 0.00000000
Neuron 3 1 0.00000000 1 0.00000000 0.00000000 0.00000000 0.00000000
Neuron 4 1 0.00000000 1 0.00000000 0.00000000 0.00000000 0.00000000
Neuron 5 2 0.00000000 1 0.00000000 0.00000000 0.00000000 0.00000000
Neuron 6 4 1.00000000 0 3.44232810 0.00000000 0.00000000 0.20378120
Neuron 7 4 1.00000000 0 3.33195453 0.00000000 0.00000000 0.14208057
Neuron 8 4 1.00000000 11 2.73813880 0.00000000 0.00000000 -0.25089547
Neuron 9 4 1.00000000 0 3.14187530 0.00000000 0.00000000 0.56848429
Neuron 10 4 1.00000000 0 3.17489920 0.00000000 0.00000000 -0.51311580
Neuron 11 4 1.00000000 0 2.82703496 0.00000000 0.00000000 0.14470545
Link 1 6 1 0 -0.00426043
Link 2 6 2 0 0.24968775
Link 3 6 3 0 -0.44831759
Link 4 6 4 0 0.34282072
Link 5 6 5 0 -0.62879426
Link 1 7 6 0 -0.12017934
Link 2 7 7 0 -0.51189657
Link 3 7 8 0 -0.53407837
Link 4 7 9 0 -0.59377732
Link 5 7 10 0 0.61070720
Link 1 8 11 0 0.16093867
Link 2 8 12 0 -0.10694139
Link 3 8 13 0 0.15388423
Link 4 8 14 0 0.12143309
Link 5 8 15 0 -0.27466211
Link 1 9 16 0 -0.59605523
Link 2 9 17 0 -0.54773284
Link 3 9 18 0 -0.16903583
Link 4 9 19 0 0.56003405
Link 5 9 20 0 -0.75759324
Link 1 10 21 0 0.19029943
Link 2 10 22 0 0.05338792
Link 3 10 23 0 0.53680680
Link 4 10 24 0 -0.58776000
Link 5 10 25 0 -0.57960484
Link 1 11 26 0 0.31211005
Link 2 11 27 0 -0.25059660
Link 3 11 28 0 0.67724227
Link 4 11 29 0 -0.50577862
Link 5 11 30 0 0.87281444
GenomeEnd

