GenomeStart 5
Neuron 1 1 0.00000000 1 0.00000000 0.00000000 0.00000000 0.00000000
Neuron 2 1 0.00000000 1 0.00000000 0.00000000 0.00000000 0.00000000
Neuron 3 1 0.00000000 1 0.00000000 0.00000000 0.00000000 0.00000000
Neuron 4 1 0.00000000 1 0.00000000 0.00000000 0.00000000 0.00000000
Neuron 5 2 0.00000000 1 0.00000000 0.00000000 0.00000000 0.00000000
Neuron 6 4 1.00000000 0 3.10997895 0.00000000 0.00000000 0.43796357
Neuron 7 4 1.00000000 0 3.18277808 0.00000000 0.00000000 0.04854033
Neuron 8 4 1.00000000 0 3.19052441 0.00000000 0.00000000 -0.02927967
Neuron 9 4 1.00000000 9 2.99535254 0.00000000 0.00000000 0.00797155
Neuron 10 4 1.00000000 0 3.24095939 0.00000000 0.00000000 -0.53184970
Neuron 11 4 1.00000000 0 3.23215141 0.00000000 0.00000000 -0.63616955
Link 1 6 1 0 0.07445150
Link 2 6 2 0 -0.17886299
Link 3 6 3 0 -0.05677779
Link 4 6 4 0 -0.06192066
Link 5 6 5 0 0.46945439
Link 1 7 6 0 -0.01747269
Link 2 7 7 0 -0.89921196
Link 3 7 8 0 0.02597498
Link 4 7 9 0 -0.38081214
Link 5 7 10 0 -0.22612284
Link 1 8 11 0 0.13990586
Link 2 8 12 0 -0.07204946
Link 3 8 13 0 -0.36553926
Link 4 8 14 0 0.62042867
Link 5 8 15 0 -0.82160693
Link 1 9 16 0 0.31926097
Link 2 9 17 0 0.22980225
Link 3 9 18 0 -0.03512277
Link 4 9 19 0 -0.49350108
Link 5 9 20 0 0.08528702
Link 1 10 21 0 0.37390971
Link 2 10 22 0 0.28231937
Link 3 10 23 0 0.12294434
Link 4 10 24 0 0.58436435
Link 5 10 25 0 0.19710643
Link 1 11 26 0 -0.90353493
Link 2 11 27 0 0.62363790
Link 3 11 28 0 -0.51667494
Link 4 11 29 0 -0.57570988
Link 5 11 30 0 0.57123564
GenomeEnd

