GenomeStart 13
Neuron 1 1 0.00000000 1 0.00000000 0.00000000 0.00000000 0.00000000
Neuron 2 1 0.00000000 1 0.00000000 0.00000000 0.00000000 0.00000000
Neuron 3 1 0.00000000 1 0.00000000 0.00000000 0.00000000 0.00000000
Neuron 4 1 0.00000000 1 0.00000000 0.00000000 0.00000000 0.00000000
Neuron 5 2 0.00000000 1 0.00000000 0.00000000 0.00000000 0.00000000
Neuron 6 4 1.00000000 0 3.02701280 0.00000000 0.00000000 -0.01691658
Neuron 7 4 1.00000000 6 2.93546750 0.00000000 0.00000000 0.32751524
Neuron 8 4 1.00000000 0 3.39501872 0.00000000 0.00000000 -0.55221452
Neuron 9 4 1.00000000 0 3.22792690 0.00000000 0.00000000 0.07825036
Neuron 10 4 1.00000000 0 3.10494890 0.00000000 0.00000000 0.70499292
Neuron 11 4 1.00000000 0 3.44691651 0.00000000 0.00000000 -0.11119897
Link 1 6 1 0 -0.25279892
Link 2 6 2 0 0.23082562
Link 3 6 3 0 -0.57124332
Link 4 6 4 0 -0.39001293
Link 5 6 5 0 0.43493233
Link 1 7 6 0 0.14677827
Link 2 7 7 0 -0.13781682
Link 3 7 8 0 -0.33755515
Link 4 7 9 0 -0.32162495
Link 5 7 10 0 0.06538775
Link 1 8 11 0 -0.41916908
Link 2 8 12 0 -0.49703885
Link 3 8 13 0 0.16371237
Link 4 8 14 0 -0.03294512
Link 5 8 15 0 0.34422966
Link 1 9 16 0 -0.09881336
Link 2 9 17 0 0.33937002
Link 3 9 18 0 0.22196372
Link 4 9 19 0 -0.26301814
Link 5 9 20 0 -0.30088463
Link 1 10 21 0 0.04891821
Link 2 10 22 0 -0.09278476
Link 3 10 23 0 0.36653213
Link 4 10 24 0 -0.42608632
Link 5 10 25 0 0.28811047
Link 1 11 26 0 -0.07247105
Link 2 11 27 0 -0.19232421
Link 3 11 28 0 -0.62625199
Link 4 11 29 0 0.43626400
Link 5 11 30 0 -0.67171738
GenomeEnd

