GenomeStart 8
Neuron 1 1 0.00000000 1 0.00000000 0.00000000 0.00000000 0.00000000
Neuron 2 1 0.00000000 1 0.00000000 0.00000000 0.00000000 0.00000000
Neuron 3 1 0.00000000 1 0.00000000 0.00000000 0.00000000 0.00000000
Neuron 4 1 0.00000000 1 0.00000000 0.00000000 0.00000000 0.00000000
Neuron 5 2 0.00000000 1 0.00000000 0.00000000 0.00000000 0.00000000
Neuron 6 4 1.00000000 0 2.65664200 0.00000000 0.00000000 0.28068256
Neuron 7 4 1.00000000 2 3.10495818 0.00000000 0.00000000 0.03590655
Neuron 8 4 1.00000000 0 2.76255157 0.00000000 0.00000000 0.56686670
Neuron 9 4 1.00000000 0 2.97456574 0.00000000 0.00000000 0.51151401
Neuron 10 4 1.00000000 0 3.14041063 0.00000000 0.00000000 0.05242594
Neuron 11 4 1.00000000 0 2.68419228 0.00000000 0.00000000 0.05488673
Link 1 6 1 0 -0.43908785
Link 2 6 2 0 -0.45011639
Link 3 6 3 0 0.10575160
Link 4 6 4 0 0.24484355
Link 5 6 5 0 -0.91743346
Link 1 7 6 0 0.53756524
Link 2 7 7 0 0.59099582
Link 3 7 8 0 0.81034755
Link 4 7 9 0 -0.35235866
Link 5 7 10 0 0.18015506
Link 1 8 11 0 -0.20302021
Link 2 8 12 0 0.16454610
Link 3 8 13 0 0.56617026
Link 4 8 14 0 -0.14761169
Link 5 8 15 0 -0.52457682
Link 1 9 16 0 -0.59177274
Link 2 9 17 0 -0.58711497
Link 3 9 18 0 0.10879820
Link 4 9 19 0 0.89203703
Link 5 9 20 0 -0.38057447
Link 1 10 21 0 0.45147197
Link 2 10 22 0 0.30714580
Link 3 10 23 0 -0.37556386
Link 4 10 24 0 -0.33715133
Link 5 10 25 0 -0.37654545
Link 1 11 26 0 -0.21548133
Link 2 11 27 0 0.62863273
Link 3 11 28 0 0.08607822
Link 4 11 29 0 -0.33993122
Link 5 11 30 0 -0.71066090
GenomeEnd

