GenomeStart 18
Neuron 1 1 0.00000000 1 0.00000000 0.00000000 0.00000000 0.00000000
Neuron 2 1 0.00000000 1 0.00000000 0.00000000 0.00000000 0.00000000
Neuron 3 1 0.00000000 1 0.00000000 0.00000000 0.00000000 0.00000000
Neuron 4 1 0.00000000 1 0.00000000 0.00000000 0.00000000 0.00000000
Neuron 5 2 0.00000000 1 0.00000000 0.00000000 0.00000000 0.00000000
Neuron 6 4 1.00000000 0 2.93406187 0.00000000 0.00000000 0.24196974
Neuron 7 4 1.00000000 0 3.22176054 0.00000000 0.00000000 -0.68069291
Neuron 8 4 1.00000000 0 3.31342340 0.00000000 0.00000000 -0.17208747
Neuron 9 4 1.00000000 0 2.74264953 0.00000000 0.00000000 0.39493881
Neuron 10 4 1.00000000 2 3.23261974 0.00000000 0.00000000 -0.27997367
Neuron 11 4 1.00000000 0 2.80994310 0.00000000 0.00000000 0.02919396
Link 1 6 1 0 0.59900133
Link 2 6 2 0 -0.09298309
Link 3 6 3 0 -0.54403640
Link 4 6 4 0 0.18801484
Link 5 6 5 0 -0.11395524
Link 1 7 6 0 -0.23421166
Link 2 7 7 0 -0.83535711
Link 3 7 8 0 -0.64193845
Link 4 7 9 0 -0.13995406
Link 5 7 10 0 0.26810966
Link 1 8 11 0 0.18918607
Link 2 8 12 0 0.73442748
Link 3 8 13 0 -0.36017409
Link 4 8 14 0 0.51367909
Link 5 8 15 0 -0.20936666
Link 1 9 16 0 0.16103568
Link 2 9 17 0 0.18126237
Link 3 9 18 0 -0.38072057
Link 4 9 19 0 0.12983723
Link 5 9 20 0 0.51325854
Link 1 10 21 0 0.15041477
Link 2 10 22 0 0.00206976
Link 3 10 23 0 -0.63205517
Link 4 10 24 0 0.51620641
Link 5 10 25 0 -0.85063683
Link 1 11 26 0 -0.15778733
Link 2 11 27 0 0.01352240
Link 3 11 28 0 0.15458116
Link 4 11 29 0 0.42604168
Link 5 11 30 0 0.70761378
GenomeEnd

