GenomeStart 7
Neuron 1 1 0.00000000 1 0.00000000 0.00000000 0.00000000 0.00000000
Neuron 2 1 0.00000000 1 0.00000000 0.00000000 0.00000000 0.00000000
Neuron 3 1 0.00000000 1 0.00000000 0.00000000 0.00000000 0.00000000
Neuron 4 1 0.00000000 1 0.00000000 0.00000000 0.00000000 0.00000000
Neuron 5 2 0.00000000 1 0.00000000 0.00000000 0.00000000 0.00000000
Neuron 6 4 1.00000000 0 3.03421040 0.00000000 0.00000000 -0.80753251
Neuron 7 4 1.00000000 0 3.07735116 0.00000000 0.00000000 0.28175894
Neuron 8 4 1.00000000 9 2.76895552 0.00000000 0.00000000 -0.22685426
Neuron 9 4 1.00000000 0 3.36849562 0.00000000 0.00000000 0.42454243
Neuron 10 4 1.00000000 0 3.27452827 0.00000000 0.00000000 0.26593678
Neuron 11 4 1.00000000 0 3.14448176 0.00000000 0.00000000 0.63194668
Link 1 6 1 0 -0.17241816
Link 2 6 2 0 -0.64865066
Link 3 6 3 0 -0.48249892
Link 4 6 4 0 -0.70018666
Link 5 6 5 0 0.57576416
Link 1 7 6 0 -0.88532903
Link 2 7 7 0 -0.54245776
Link 3 7 8 0 -0.73219310
Link 4 7 9 0 -0.39729498
Link 5 7 10 0 0.58150221
Link 1 8 11 0 -0.31772786
Link 2 8 12 0 -0.12069922
Link 3 8 13 0 -0.70907022
Link 4 8 14 0 -0.91836830
Link 5 8 15 0 0.28491758
Link 1 9 16 0 0.31680523
Link 2 9 17 0 0.36930431
Link 3 9 18 0 0.46059358
Link 4 9 19 0 -0.16051732
Link 5 9 20 0 0.21860124
Link 1 10 21 0 -0.58161380
Link 2 10 22 0 0.51026492
Link 3 10 23 0 0.24264039
Link 4 10 24 0 0.17074858
Link 5 10 25 0 0.08112447
Link 1 11 26 0 -0.15663787
Link 2 11 27 0 -0.24407610
Link 3 11 28 0 -0.24068626
Link 4 11 29 0 -0.06442469
Link 5 11 30 0 -0.02676687
GenomeEnd

