GenomeStart 15
Neuron 1 1 0.00000000 1 0.00000000 0.00000000 0.00000000 0.00000000
Neuron 2 1 0.00000000 1 0.00000000 0.00000000 0.00000000 0.00000000
Neuron 3 1 0.00000000 1 0.00000000 0.00000000 0.00000000 0.00000000
Neuron 4 1 0.00000000 1 0.00000000 0.00000000 0.00000000 0.00000000
Neuron 5 2 0.00000000 1 0.00000000 0.00000000 0.00000000 0.00000000
Neuron 6 4 1.00000000 0 3.17750920 0.00000000 0.00000000 -0.00745915
Neuron 7 4 1.00000000 0 3.33497566 0.00000000 0.00000000 -0.51207554
Neuron 8 4 1.00000000 0 3.29902308 0.00000000 0.00000000 -0.26638097
Neuron 9 4 1.00000000 0 3.08864463 0.00000000 0.00000000 0.28079257
Neuron 10 4 1.00000000 0 3.01257598 0.00000000 0.00000000 -0.26730116
Neuron 11 4 1.00000000 6 3.31499898 0.00000000 0.00000000 0.32318296
Link 1 6 1 0 -0.30549308
Link 2 6 2 0 0.84074912
Link 3 6 3 0 -0.51385062
Link 4 6 4 0 -0.38004366
Link 5 6 5 0 0.53588133
Link 1 7 6 0 0.46863212
Link 2 7 7 0 0.37362532
Link 3 7 8 0 -0.27025561
Link 4 7 9 0 0.02981067
Link 5 7 10 0 -0.23482787
Link 1 8 11 0 -0.09599029
Link 2 8 12 0 -0.37442063
Link 3 8 13 0 0.03228108
Link 4 8 14 0 0.35433413
Link 5 8 15 0 -0.68196002
Link 1 9 16 0 -0.46899367
Link 2 9 17 0 0.67825290
Link 3 9 18 0 0.16742145
Link 4 9 19 0 -0.10403212
Link 5 9 20 0 -0.00787056
Link 1 10 21 0 0.26501150
Link 2 10 22 0 0.34931927
Link 3 10 23 0 -0.53001827
Link 4 10 24 0 -0.28317668
Link 5 10 25 0 -0.24816350
Link 1 11 26 0 0.52877341
Link 2 11 27 0 0.07466046
Link 3 11 28 0 0.05231180
Link 4 11 29 0 -0.18219895
Link 5 11 30 0 0.35055981
GenomeEnd

