GenomeStart 2
Neuron 1 1 0.00000000 1 0.00000000 0.00000000 0.00000000 0.00000000
Neuron 2 1 0.00000000 1 0.00000000 0.00000000 0.00000000 0.00000000
Neuron 3 1 0.00000000 1 0.00000000 0.00000000 0.00000000 0.00000000
Neuron 4 1 0.00000000 1 0.00000000 0.00000000 0.00000000 0.00000000
Neuron 5 2 0.00000000 1 0.00000000 0.00000000 0.00000000 0.00000000
Neuron 6 4 1.00000000 9 3.04756807 0.00000000 0.00000000 -0.12604195
Neuron 7 4 1.00000000 0 2.78108180 0.00000000 0.00000000 0.15510436
Neuron 8 4 1.00000000 0 2.96096003 0.00000000 0.00000000 -0.00803500
Neuron 9 4 1.00000000 0 3.31090027 0.00000000 0.00000000 -0.09035339
Neuron 10 4 1.00000000 0 2.79844504 0.00000000 0.00000000 0.38142900
Neuron 11 4 1.00000000 0 2.96971291 0.00000000 0.00000000 0.07670943
Link 1 6 1 0 -0.81834220
Link 2 6 2 0 0.02571717
Link 3 6 3 0 0.10267876
Link 4 6 4 0 0.68681550
Link 5 6 5 0 -0.22731534
Link 1 7 6 0 -0.14051597
Link 2 7 7 0 -0.44894336
Link 3 7 8 0 -0.15854257
Link 4 7 9 0 -0.17696808
Link 5 7 10 0 -0.82130561
Link 1 8 11 0 0.09396436
Link 2 8 12 0 0.20609467
Link 3 8 13 0 0.12865839
Link 4 8 14 0 0.11703800
Link 5 8 15 0 0.80451528
Link 1 9 16 0 0.65573859
Link 2 9 17 0 -0.63399862
Link 3 9 18 0 0.00501226
Link 4 9 19 0 -0.53372602
Link 5 9 20 0 0.40676848
Link 1 10 21 0 0.03063398
Link 2 10 22 0 -0.07393345
Link 3 10 23 0 0.51412802
Link 4 10 24 0 -0.08432715
Link 5 10 25 0 0.02718321
Link 1 11 26 0 0.13569190
Link 2 11 27 0 -0.61592373
Link 3 11 28 0 0.00245891
Link 4 11 29 0 -0.42352833
Link 5 11 30 0 0.50182397
GenomeEnd

