GenomeStart 4
Neuron 1 1 0.00000000 1 0.00000000 0.00000000 0.00000000 0.00000000
Neuron 2 1 0.00000000 1 0.00000000 0.00000000 0.00000000 0.00000000
Neuron 3 1 0.00000000 1 0.00000000 0.00000000 0.00000000 0.00000000
Neuron 4 1 0.00000000 1 0.00000000 0.00000000 0.00000000 0.00000000
Neuron 5 2 0.00000000 1 0.00000000 0.00000000 0.00000000 0.00000000
Neuron 6 4 1.00000000 0 3.19487361 0.00000000 0.00000000 0.03465602
Neuron 7 4 1.00000000 0 2.86690583 0.00000000 0.00000000 0.26407300
Neuron 8 4 1.00000000 6 2.75719612 0.00000000 0.00000000 -0.00655763
Neuron 9 4 1.00000000 0 2.91885007 0.00000000 0.00000000 0.48837450
Neuron 10 4 1.00000000 0 3.18356892 0.00000000 0.00000000 0.24801128
Neuron 11 4 1.00000000 0 3.24604730 0.00000000 0.00000000 0.04640908
Link 1 6 1 0 -0.40806012
Link 2 6 2 0 0.39053093
Link 3 6 3 0 0.17605682
Link 4 6 4 0 -0.34356593
Link 5 6 5 0 -0.43030336
Link 1 7 6 0 0.01781054
Link 2 7 7 0 -0.25270489
Link 3 7 8 0 0.91419472
Link 4 7 9 0 0.52311003
Link 5 7 10 0 0.41689724
Link 1 8 11 0 -0.31950642
Link 2 8 12 0 0.31524556
Link 3 8 13 0 -0.38936510
Link 4 8 14 0 0.37731919
Link 5 8 15 0 0.26742567
Link 1 9 16 0 -0.41427103
Link 2 9 17 0 0.03520627
Link 3 9 18 0 -0.67642752
Link 4 9 19 0 0.73333241
Link 5 9 20 0 0.62807895
Link 1 10 21 0 0.37733325
Link 2 10 22 0 0.54465939
Link 3 10 23 0 -0.43904326
Link 4 10 24 0 -0.03701988
Link 5 10 25 0 -0.56829424
Link 1 11 26 0 -0.21018028
Link 2 11 27 0 0.65698040
Link 3 11 28 0 -0.21775535
Link 4 11 29 0 -0.41568602
Link 5 11 30 0 0.18163874
GenomeEnd

