GenomeStart 16
Neuron 1 1 0.00000000 1 0.00000000 0.00000000 0.00000000 0.00000000
Neuron 2 1 0.00000000 1 0.00000000 0.00000000 0.00000000 0.00000000
Neuron 3 1 0.00000000 1 0.00000000 0.00000000 0.00000000 0.00000000
Neuron 4 1 0.00000000 1 0.00000000 0.00000000 0.00000000 0.00000000
Neuron 5 2 0.00000000 1 0.00000000 0.00000000 0.00000000 0.00000000
Neuron 6 4 1.00000000 0 2.67407235 0.00000000 0.00000000 0.82731132
Neuron 7 4 1.00000000 0 3.06564642 0.00000000 0.00000000 0.38430442
Neuron 8 4 1.00000000 0 2.95150295 0.00000000 0.00000000 -0.22437646
Neuron 9 4 1.00000000 0 2.94505563 0.00000000 0.00000000 -0.77293473
Neuron 10 4 1.00000000 2 3.02062050 0.00000000 0.00000000 -0.02753077
Neuron 11 4 1.00000000 0 2.75252437 0.00000000 0.00000000 -0.75844996
Link 1 6 1 0 0.02759168
Link 2 6 2 0 0.16646907
Link 3 6 3 0 -0.51184984
Link 4 6 4 0 -0.11959735
Link 5 6 5 0 -0.12412660
Link 1 7 6 0 0.04268179
Link 2 7 7 0 0.07883552
Link 3 7 8 0 -0.44830059
Link 4 7 9 0 -0.24919303
Link 5 7 10 0 -0.41019744
Link 1 8 11 0 0.36547652
Link 2 8 12 0 0.85748973
Link 3 8 13 0 0.48186693
Link 4 8 14 0 -0.50809325
Link 5 8 15 0 -0.83766134
Link 1 9 16 0 0.52814195
Link 2 9 17 0 -0.32355666
Link 3 9 18 0 -0.45225149
Link 4 9 19 0 0.43112561
Link 5 9 20 0 0.30596636
Link 1 10 21 0 0.26703178
Link 2 10 22 0 0.05733532
Link 3 10 23 0 -0.62564373
Link 4 10 24 0 -0.28103600
Link 5 10 25 0 0.55543412
Link 1 11 26 0 -0.22724554
Link 2 11 27 0 0.21099724
Link 3 11 28 0 -0.60265990
Link 4 11 29 0 0.05484215
Link 5 11 30 0 0.01843984
GenomeEnd

