GenomeStart 14
Neuron 1 1 0.00000000 1 0.00000000 0.00000000 0.00000000 0.00000000
Neuron 2 1 0.00000000 1 0.00000000 0.00000000 0.00000000 0.00000000
Neuron 3 1 0.00000000 1 0.00000000 0.00000000 0.00000000 0.00000000
Neuron 4 1 0.00000000 1 0.00000000 0.00000000 0.00000000 0.00000000
Neuron 5 2 0.00000000 1 0.00000000 0.00000000 0.00000000 0.00000000
Neuron 6 4 1.00000000 0 3.11449121 0.00000000 0.00000000 0.91239132
Neuron 7 4 1.00000000 11 2.94589779 0.00000000 0.00000000 -0.27401885
Neuron 8 4 1.00000000 0 2.93655846 0.00000000 0.00000000 0.26510993
Neuron 9 4 1.00000000 0 3.23868792 0.00000000 0.00000000 -0.05031007
Neuron 10 4 1.00000000 0 3.06299822 0.00000000 0.00000000 0.41390145
Neuron 11 4 1.00000000 0 3.47645689 0.00000000 0.00000000 0.10064576
Link 1 6 1 0 0.17468740
Link 2 6 2 0 -0.73270915
Link 3 6 3 0 -0.07571482
Link 4 6 4 0 -0.26938080
Link 5 6 5 0 -0.42819413
Link 1 7 6 0 0.53353990
Link 2 7 7 0 -0.41246770
Link 3 7 8 0 -0.51306657
Link 4 7 9 0 -0.09655994
Link 5 7 10 0 0.00168309
Link 1 8 11 0 -0.65333609
Link 2 8 12 0 0.45101995
Link 3 8 13 0 0.94772574
Link 4 8 14 0 -0.61101449
Link 5 8 15 0 0.85452858
Link 1 9 16 0 0.47165267
Link 2 9 17 0 0.62373711
Link 3 9 18 0 -0.82276919
Link 4 9 19 0 0.16624637
Link 5 9 20 0 0.20841346
Link 1 10 21 0 0.49142280
Link 2 10 22 0 0.43315058
Link 3 10 23 0 -0.45032632
Link 4 10 24 0 -0.55795324
Link 5 10 25 0 -0.56393813
Link 1 11 26 0 -0.39221698
Link 2 11 27 0 -0.76585691
Link 3 11 28 0 -0.82654770
Link 4 11 29 0 0.65521489
Link 5 11 30 0 -0.01409352
GenomeEnd

