GenomeStart 10
Neuron 1 1 0.00000000 1 0.00000000 0.00000000 0.00000000 0.00000000
Neuron 2 1 0.00000000 1 0.00000000 0.00000000 0.00000000 0.00000000
Neuron 3 1 0.00000000 1 0.00000000 0.00000000 0.00000000 0.00000000
Neuron 4 1 0.00000000 1 0.00000000 0.00000000 0.00000000 0.00000000
Neuron 5 2 0.00000000 1 0.00000000 0.00000000 0.00000000 0.00000000
Neuron 6 4 1.00000000 0 2.89194909 0.00000000 0.00000000 -0.28882099
Neuron 7 4 1.00000000 0 2.84623761 0.00000000 0.00000000 0.13623064
Neuron 8 4 1.00000000 0 3.06840814 0.00000000 0.00000000 0.34356705
Neuron 9 4 1.00000000 11 3.16401570 0.00000000 0.00000000 -0.20317212
Neuron 10 4 1.00000000 0 2.84410196 0.00000000 0.00000000 0.10032254
Neuron 11 4 1.00000000 0 3.15950103 0.00000000 0.00000000 0.09835257
Link 1 6 1 0 0.66881649
Link 2 6 2 0 0.72148623
Link 3 6 3 0 -0.75301343
Link 4 6 4 0 -0.17972003
Link 5 6 5 0 0.36005836
Link 1 7 6 0 0.14103440
Link 2 7 7 0 -0.66601478
Link 3 7 8 0 -0.06777335
Link 4 7 9 0 0.11588682
Link 5 7 10 0 -0.46847210
Link 1 8 11 0 -0.05177888
Link 2 8 12 0 0.64327710
Link 3 8 13 0 0.02693836
Link 4 8 14 0 0.35828454
Link 5 8 15 0 -0.17488243
Link 1 9 16 0 -0.43730141
Link 2 9 17 0 0.15460585
Link 3 9 18 0 -0.81052217
Link 4 9 19 0 -0.03350417
Link 5 9 20 0 -0.44260332
Link 1 10 21 0 0.69815237
Link 2 10 22 0 -0.20675729
Link 3 10 23 0 0.09752663
Link 4 10 24 0 -0.08087457
Link 5 10 25 0 0.00581510
Link 1 11 26 0 0.51544910
Link 2 11 27 0 -0.13949325
Link 3 11 28 0 -0.17540782
Link 4 11 29 0 0.24053139
Link 5 11 30 0 -0.08605523
GenomeEnd

