GenomeStart 0
Neuron 1 1 0.00000000 1 0.00000000 0.00000000 0.00000000 0.00000000
Neuron 2 1 0.00000000 1 0.00000000 0.00000000 0.00000000 0.00000000
Neuron 3 1 0.00000000 1 0.00000000 0.00000000 0.00000000 0.00000000
Neuron 4 1 0.00000000 1 0.00000000 0.00000000 0.00000000 0.00000000
Neuron 5 2 0.00000000 1 0.00000000 0.00000000 0.00000000 0.00000000
Neuron 6 4 1.00000000 0 3.30235453 0.00000000 0.00000000 -0.10200225
Neuron 7 4 1.00000000 0 3.16230561 0.00000000 0.00000000 0.30898328
Neuron 8 4 1.00000000 0 2.93121039 0.00000000 0.00000000 0.19059738
Neuron 9 4 1.00000000 0 3.17845723 0.00000000 0.00000000 0.40534015
Neuron 10 4 1.00000000 0 2.98522876 0.00000000 0.00000000 -0.01335896
Neuron 11 4 1.00000000 11 3.26006027 0.00000000 0.00000000 0.62514165
Link 1 6 1 0 -0.74579570
Link 2 6 2 0 0.54966240
Link 3 6 3 0 -0.21447675
Link 4 6 4 0 -0.54373676
Link 5 6 5 0 -0.33383433
Link 1 7 6 0 -0.58946273
Link 2 7 7 0 -0.40706184
Link 3 7 8 0 -0.48507146
Link 4 7 9 0 0.00822129
Link 5 7 10 0 0.70779224
Link 1 8 11 0 -0.05666048
Link 2 8 12 0 -0.45525020
Link 3 8 13 0 0.04536238
Link 4 8 14 0 -0.57623741
Link 5 8 15 0 -0.25353602
Link 1 9 16 0 0.17947368
Link 2 9 17 0 -0.37399064
Link 3 9 18 0 0.23780498
Link 4 9 19 0 0.43513408
Link 5 9 20 0 0.67673909
Link 1 10 21 0 0.39155238
Link 2 10 22 0 -0.16220490
Link 3 10 23 0 0.35344386
Link 4 10 24 0 -0.76617748
Link 5 10 25 0 -0.67352941
Link 1 11 26 0 -0.07466285
Link 2 11 27 0 0.24545091
Link 3 11 28 0 0.32276432
Link 4 11 29 0 -0.49818775
Link 5 11 30 0 0.48931927
GenomeEnd

