GenomeStart 14
Neuron 1 1 0.00000000 1 0.00000000 0.00000000 0.00000000 0.00000000
Neuron 2 1 0.00000000 1 0.00000000 0.00000000 0.00000000 0.00000000
Neuron 3 1 0.00000000 1 0.00000000 0.00000000 0.00000000 0.00000000
Neuron 4 1 0.00000000 1 0.00000000 0.00000000 0.00000000 0.00000000
Neuron 5 2 0.00000000 1 0.00000000 0.00000000 0.00000000 0.00000000
Neuron 6 4 1.00000000 6 2.80234407 0.00000000 0.00000000 0.46257183
Neuron 7 4 1.00000000 0 3.19348329 0.00000000 0.00000000 -0.56343501
Neuron 8 4 1.00000000 0 3.03233951 0.00000000 0.00000000 0.25247318
Neuron 9 4 1.00000000 0 2.90294135 0.00000000 0.00000000 -0.56128762
Neuron 10 4 1.00000000 0 2.98178410 0.00000000 0.00000000 0.57789785
Neuron 11 4 1.00000000 0 2.88340324 0.00000000 0.00000000 0.04198405
Link 1 6 1 0 0.78547129
Link 2 6 2 0 -0.46925895
Link 3 6 3 0 0.17286318
Link 4 6 4 0 -0.47311965
Link 5 6 5 0 0.72691958
Link 1 7 6 0 0.05684378
Link 2 7 7 0 0.02421781
Link 3 7 8 0 -0.32573252
Link 4 7 9 0 0.23174447
Link 5 7 10 0 0.22857235
Link 1 8 11 0 0.58134795
Link 2 8 12 0 -0.14008743
Link 3 8 13 0 -0.10810345
Link 4 8 14 0 0.10333651
Link 5 8 15 0 -0.28274018
Link 1 9 16 0 -0.19161091
Link 2 9 17 0 0.41646900
Link 3 9 18 0 0.43591573
Link 4 9 19 0 0.20923694
Link 5 9 20 0 -0.26311393
Link 1 10 21 0 0.32158640
Link 2 10 22 0 0.33336963
Link 3 10 23 0 -0.18353268
Link 4 10 24 0 -0.08237276
Link 5 10 25 0 0.23263330
Link 1 11 26 0 -0.69868254
Link 2 11 27 0 0.13848394
Link 3 11 28 0 -0.59066502
Link 4 11 29 0 0.49577121
Link 5 11 30 0 0.19939584
GenomeEnd

