GenomeStart 5
Neuron 1 1 0.00000000 1 0.00000000 0.00000000 0.00000000 0.00000000
Neuron 2 1 0.00000000 1 0.00000000 0.00000000 0.00000000 0.00000000
Neuron 3 1 0.00000000 1 0.00000000 0.00000000 0.00000000 0.00000000
Neuron 4 1 0.00000000 1 0.00000000 0.00000000 0.00000000 0.00000000
Neuron 5 2 0.00000000 1 0.00000000 0.00000000 0.00000000 0.00000000
Neuron 6 4 1.00000000 0 2.96123999 0.00000000 0.00000000 -0.42862280
Neuron 7 4 1.00000000 0 3.01589578 0.00000000 0.00000000 0.24427294
Neuron 8 4 1.00000000 6 2.84869923 0.00000000 0.00000000 0.12024174
Neuron 9 4 1.00000000 0 3.30812170 0.00000000 0.00000000 0.81702064
Neuron 10 4 1.00000000 0 2.98325494 0.00000000 0.00000000 0.11849432
Neuron 11 4 1.00000000 0 3.05085515 0.00000000 0.00000000 -0.34374473
Link 1 6 1 0 0.02701589
Link 2 6 2 0 0.34958486
Link 3 6 3 0 0.45399018
Link 4 6 4 0 0.02176332
Link 5 6 5 0 0.19620371
Link 1 7 6 0 0.09400691
Link 2 7 7 0 -0.07027030
Link 3 7 8 0 0.65435522
Link 4 7 9 0 0.60717376
Link 5 7 10 0 -0.11415098
Link 1 8 11 0 0.76561357
Link 2 8 12 0 -0.19192076
Link 3 8 13 0 -0.61588493
Link 4 8 14 0 -0.26318590
Link 5 8 15 0 -0.07242251
Link 1 9 16 0 -0.37589223
Link 2 9 17 0 0.41142805
Link 3 9 18 0 0.33132338
Link 4 9 19 0 -0.12797230
Link 5 9 20 0 0.02402791
Link 1 10 21 0 0.09735168
Link 2 10 22 0 -0.22218231
Link 3 10 23 0 -0.49837143
Link 4 10 24 0 0.34501951
Link 5 10 25 0 -0.66950301
Link 1 11 26 0 0.47099348
Link 2 11 27 0 0.02559517
Link 3 11 28 0 -0.36495354
Link 4 11 29 0 -0.06913619
Link 5 11 30 0 0.04053735
GenomeEnd

