GenomeStart 4
Neuron 1 1 0.00000000 1 0.00000000 0.00000000 0.00000000 0.00000000
Neuron 2 1 0.00000000 1 0.00000000 0.00000000 0.00000000 0.00000000
Neuron 3 1 0.00000000 1 0.00000000 0.00000000 0.00000000 0.00000000
Neuron 4 1 0.00000000 1 0.00000000 0.00000000 0.00000000 0.00000000
Neuron 5 2 0.00000000 1 0.00000000 0.00000000 0.00000000 0.00000000
Neuron 6 4 1.00000000 11 3.25724583 0.00000000 0.00000000 -0.75729191
Neuron 7 4 1.00000000 0 2.90679286 0.00000000 0.00000000 -0.49170682
Neuron 8 4 1.00000000 0 3.17260841 0.00000000 0.00000000 -0.32549074
Neuron 9 4 1.00000000 0 2.90403519 0.00000000 0.00000000 -0.33616617
Neuron 10 4 1.00000000 0 3.36304993 0.00000000 0.00000000 -0.00681864
Neuron 11 4 1.00000000 0 3.14633192 0.00000000 0.00000000 0.11821417
Link 1 6 1 0 -0.08082698
Link 2 6 2 0 -0.40752269
Link 3 6 3 0 -0.26070575
Link 4 6 4 0 0.27361165
Link 5 6 5 0 0.77718651
Link 1 7 6 0 -0.23731703
Link 2 7 7 0 -0.53135845
Link 3 7 8 0 0.38580585
Link 4 7 9 0 -0.04052594
Link 5 7 10 0 -0.53871242
Link 1 8 11 0 -0.26718335
Link 2 8 12 0 0.67476444
Link 3 8 13 0 0.08066404
Link 4 8 14 0 0.06820964
Link 5 8 15 0 -0.09061281
Link 1 9 16 0 -0.18218954
Link 2 9 17 0 -0.01680578
Link 3 9 18 0 -0.49852706
Link 4 9 19 0 -0.60964252
Link 5 9 20 0 -0.07139720
Link 1 10 21 0 -0.29448094
Link 2 10 22 0 -0.61755378
Link 3 10 23 0 0.04473752
Link 4 10 24 0 0.02965667
Link 5 10 25 0 0.80905255
Link 1 11 26 0 -0.08788429
Link 2 11 27 0 -0.50502161
Link 3 11 28 0 -0.19217478
Link 4 11 29 0 -0.75871533
Link 5 11 30 0 0.00732837
GenomeEnd

