GenomeStart 0
Neuron 1 1 0.00000000 1 0.00000000 0.00000000 0.00000000 0.00000000
Neuron 2 1 0.00000000 1 0.00000000 0.00000000 0.00000000 0.00000000
Neuron 3 1 0.00000000 1 0.00000000 0.00000000 0.00000000 0.00000000
Neuron 4 1 0.00000000 1 0.00000000 0.00000000 0.00000000 0.00000000
Neuron 5 2 0.00000000 1 0.00000000 0.00000000 0.00000000 0.00000000
Neuron 6 4 1.00000000 0 3.15730227 0.00000000 0.00000000 0.16837564
Neuron 7 4 1.00000000 0 3.06047010 0.00000000 0.00000000 0.00890288
Neuron 8 4 1.00000000 9 2.59948134 0.00000000 0.00000000 -0.54830272
Neuron 9 4 1.00000000 0 3.24402140 0.00000000 0.00000000 0.30168980
Neuron 10 4 1.00000000 0 2.93650795 0.00000000 0.00000000 0.33280192
Neuron 11 4 1.00000000 0 3.26821805 0.00000000 0.00000000 0.04008275
Link 1 6 1 0 0.23741502
Link 2 6 2 0 -0.07710079
Link 3 6 3 0 0.69731769
Link 4 6 4 0 0.11845569
Link 5 6 5 0 -0.47529861
Link 1 7 6 0 -0.28269082
Link 2 7 7 0 -0.14433447
Link 3 7 8 0 -0.81109577
Link 4 7 9 0 0.74646720
Link 5 7 10 0 -0.29037044
Link 1 8 11 0 -0.64759030
Link 2 8 12 0 0.02430119
Link 3 8 13 0 -0.29086426
Link 4 8 14 0 0.23913294
Link 5 8 15 0 0.64033096
Link 1 9 16 0 -0.28352651
Link 2 9 17 0 -0.05933451
Link 3 9 18 0 0.30335142
Link 4 9 19 0 0.21440824
Link 5 9 20 0 0.87146027
Link 1 10 21 0 -0.02606834
Link 2 10 22 0 -0.57442416
Link 3 10 23 0 0.41067635
Link 4 10 24 0 0.36536278
Link 5 10 25 0 -0.64865231
Link 1 11 26 0 -0.26878039
Link 2 11 27 0 -0.79323786
Link 3 11 28 0 -0.04628647
Link 4 11 29 0 -0.30593198
Link 5 11 30 0 -0.13987614
GenomeEnd

