GenomeStart 8
Neuron 1 1 0.00000000 1 0.00000000 0.00000000 0.00000000 0.00000000
Neuron 2 1 0.00000000 1 0.00000000 0.00000000 0.00000000 0.00000000
Neuron 3 1 0.00000000 1 0.00000000 0.00000000 0.00000000 0.00000000
Neuron 4 1 0.00000000 1 0.00000000 0.00000000 0.00000000 0.00000000
Neuron 5 2 0.00000000 1 0.00000000 0.00000000 0.00000000 0.00000000
Neuron 6 4 1.00000000 0 3.21814386 0.00000000 0.00000000 -0.64084775
Neuron 7 4 1.00000000 0 2.90001467 0.00000000 0.00000000 0.21472492
Neuron 8 4 1.00000000 2 2.75233045 0.00000000 0.00000000 -0.20902454
Neuron 9 4 1.00000000 0 3.07188686 0.00000000 0.00000000 0.01391389
Neuron 10 4 1.00000000 0 2.90041943 0.00000000 0.00000000 -0.52998998
Neuron 11 4 1.00000000 0 2.60734862 0.00000000 0.00000000 -0.33587622
Link 1 6 1 0 0.00439179
Link 2 6 2 0 0.29173894
Link 3 6 3 0 0.29360022
Link 4 6 4 0 -0.01162480
Link 5 6 5 0 0.75459050
Link 1 7 6 0 -0.29177072
Link 2 7 7 0 0.40878819
Link 3 7 8 0 -0.43773428
Link 4 7 9 0 -0.79227654
Link 5 7 10 0 0.17681763
Link 1 8 11 0 0.02221040
Link 2 8 12 0 -0.43027116
Link 3 8 13 0 -0.05792329
Link 4 8 14 0 0.00369925
Link 5 8 15 0 0.88647588
Link 1 9 16 0 -0.30348109
Link 2 9 17 0 0.17960101
Link 3 9 18 0 -0.63732566
Link 4 9 19 0 0.49452120
Link 5 9 20 0 -0.00900393
Link 1 10 21 0 0.10921894
Link 2 10 22 0 -0.55589398
Link 3 10 23 0 0.68130067
Link 4 10 24 0 0.07172855
Link 5 10 25 0 0.01230495
Link 1 11 26 0 -0.40769595
Link 2 11 27 0 0.33591583
Link 3 11 28 0 -0.06804244
Link 4 11 29 0 -0.02628729
Link 5 11 30 0 -0.06111820
GenomeEnd

