GenomeStart 1
Neuron 1 1 0.00000000 1 0.00000000 0.00000000 0.00000000 0.00000000
Neuron 2 1 0.00000000 1 0.00000000 0.00000000 0.00000000 0.00000000
Neuron 3 1 0.00000000 1 0.00000000 0.00000000 0.00000000 0.00000000
Neuron 4 1 0.00000000 1 0.00000000 0.00000000 0.00000000 0.00000000
Neuron 5 2 0.00000000 1 0.00000000 0.00000000 0.00000000 0.00000000
Neuron 6 4 1.00000000 0 2.85196723 0.00000000 0.00000000 0.34430308
Neuron 7 4 1.00000000 9 3.28592665 0.00000000 0.00000000 -0.42860904
Neuron 8 4 1.00000000 0 3.30115838 0.00000000 0.00000000 -0.12959308
Neuron 9 4 1.00000000 0 3.27598185 0.00000000 0.00000000 0.67526574
Neuron 10 4 1.00000000 0 2.71725723 0.00000000 0.00000000 -0.32147118
Neuron 11 4 1.00000000 0 3.04349535 0.00000000 0.00000000 0.17987978
Link 1 6 1 0 -0.04657243
Link 2 6 2 0 0.54746603
Link 3 6 3 0 -0.64847859
Link 4 6 4 0 0.36953744
Link 5 6 5 0 -0.42691101
Link 1 7 6 0 0.00852880
Link 2 7 7 0 0.04941911
Link 3 7 8 0 0.29401187
Link 4 7 9 0 0.73978331
Link 5 7 10 0 0.35744999
Link 1 8 11 0 0.57634120
Link 2 8 12 0 0.11821869
Link 3 8 13 0 0.39293977
Link 4 8 14 0 0.20760489
Link 5 8 15 0 0.07653748
Link 1 9 16 0 0.13731742
Link 2 9 17 0 0.17102491
Link 3 9 18 0 0.39263265
Link 4 9 19 0 -0.06510742
Link 5 9 20 0 -0.26699597
Link 1 10 21 0 0.36021874
Link 2 10 22 0 -0.31185885
Link 3 10 23 0 -0.79577148
Link 4 10 24 0 0.64031532
Link 5 10 25 0 -0.11094275
Link 1 11 26 0 -0.33057440
Link 2 11 27 0 -0.58629418
Link 3 11 28 0 -0.24773349
Link 4 11 29 0 0.67211718
Link 5 11 30 0 -0.36346655
GenomeEnd

