GenomeStart 0
Neuron 1 1 0.00000000 1 0.00000000 0.00000000 0.00000000 0.00000000
Neuron 2 1 0.00000000 1 0.00000000 0.00000000 0.00000000 0.00000000
Neuron 3 1 0.00000000 1 0.00000000 0.00000000 0.00000000 0.00000000
Neuron 4 1 0.00000000 1 0.00000000 0.00000000 0.00000000 0.00000000
Neuron 5 2 0.00000000 1 0.00000000 0.00000000 0.00000000 0.00000000
Neuron 6 4 1.00000000 0 3.22350212 0.00000000 0.00000000 0.60503868
Neuron 7 4 1.00000000 2 2.68133113 0.00000000 0.00000000 0.43208357
Neuron 8 4 1.00000000 0 2.84234415 0.00000000 0.00000000 -0.06231305
Neuron 9 4 1.00000000 0 2.67204018 0.00000000 0.00000000 0.15519278
Neuron 10 4 1.00000000 0 3.19519361 0.00000000 0.00000000 -0.09721046
Neuron 11 4 1.00000000 0 3.00789092 0.00000000 0.00000000 -0.87400543
Link 1 6 1 0 -0.36802256
Link 2 6 2 0 0.33263590
Link 3 6 3 0 0.14511380
Link 4 6 4 0 -0.50111425
Link 5 6 5 0 0.08762561
Link 1 7 6 0 -0.20795409
Link 2 7 7 0 0.47072948
Link 3 7 8 0 0.47399428
Link 4 7 9 0 -0.73741975
Link 5 7 10 0 -0.70686351
Link 1 8 11 0 -0.77237540
Link 2 8 12 0 -0.45935943
Link 3 8 13 0 -0.72086286
Link 4 8 14 0 0.52019008
Link 5 8 15 0 0.62794823
Link 1 9 16 0 0.42611252
Link 2 9 17 0 0.70291820
Link 3 9 18 0 -0.77573278
Link 4 9 19 0 -0.05836658
Link 5 9 20 0 -0.46105167
Link 1 10 21 0 0.08936533
Link 2 10 22 0 0.04949462
Link 3 10 23 0 0.76516928
Link 4 10 24 0 -0.30007874
Link 5 10 25 0 -0.20358660
Link 1 11 26 0 -0.44716305
Link 2 11 27 0 -0.58564149
Link 3 11 28 0 0.49405831
Link 4 11 29 0 0.11159288
Link 5 11 30 0 -0.11133508
GenomeEnd

